svm_type c_svc
kernel_type rbf
gamma 0.1
nr_class 3
total_sv 1717
rho 2.31779 0.897424 -0.0996912
label 0 1 -1
nr_sv 874 477 366
SV
222.7732877682101 0 0:0.37102413 1:0.35554146 2:0.34034259 3:1.0423033 4:0.56847756 5:0.8050552 6:0.70900759 7:0.60747636 8:0.88294205 9:0.50060301 10:0.99931031 11:0.54393204 12:0.88377083 13:0.61184376 14:0.62541265 15:0.71737639 16:0.32947227 17:0.77097173 18:-0.11733037 19:0.89603925 20:-0.569035 21:0.88494687 22:0.55384377 23:0.77282041 24:0.006598641 25:0.78311513 26:-0.4042645 27:0.79005948 28:-0.73354039 29:0.79458123 30:-0.9098647 31:0.80156383 32:-0.99870628 33:0.85654948 34:-0.96676144 35:0.96121105 36:-0.87244936 37:1.1051186 38:-0.76257196 39:0.46666721 40:1 41:0.34251284 42:0.85631995 43:0.2770354 44:0.42953801 45:0.22871197 46:0.015641883 47:0.27443781 48:-0.45464392 49:0.36076737 50:-0.90000001 51:0.53333279 52:-1 53:0.32968003 54:-0.96787449 55:0.18245534 56:-0.6843616 57:0.14222739 58:-0.015641883 59:0.19261578 60:0.68328542 61:0.31309477 62:0.96320376 63:0.40568412 64:0.99969907 65:0.14697532 66:0.8177015 67:0.094332592 68:-0.069661683 69:0.15217503 70:-0.79812224 71:0.46111159 72:-0.99993403 73:0.12764643 74:-0.94478135 75:0.020986232 76:-0.084669376 77:0.13142758 78:0.94198071 79:0.88842391 80:0.98189857 81:0.88842391 82:0.95911272 83:0.79333715 84:0.99767474 85:0.79267199 86:0.99794175 87:0.97589604 88:0.98568807 89:0.17664235 90:0.11098127 91:0.29520458 92:-0.06637072 93:-0.004571613 94:-0.06637072 95:0.098672056 96:-0.093106735 97:0.024114477 98:-0.09101513 99:0.02189656 100:0.076504584 101:0.08598929 102:0.012583508 103:-0.015069313 104:0.021638923 
285.0989707542547 302.1836783220536 0:0.42565557 1:0.27325879 2:0.16586111 3:1.081985 4:0.73114024 5:0.88489659 6:0.87505845 7:0.72891053 8:0.98824576 9:0.65638114 10:0.9571416 11:0.60101186 12:0.7173697 13:0.63196636 14:0.29542688 15:0.74969776 16:-0.12457804 17:0.89931702 18:-0.39216086 19:1.0294344 20:-0.56575054 21:0.94600688 22:0.4414312 23:0.86507164 24:0.25547132 25:0.74863149 26:0.019414972 27:0.65271995 28:-0.31964832 29:0.5888376 30:-0.72705453 31:0.63307273 32:-0.98062755 33:0.77380873 34:-0.94870084 35:1.0115133 36:-0.75805808 37:1.3079594 38:-0.5787107 39:0.46103519 40:1 41:0.36909202 42:0.85042136 43:0.28642855 44:0.54871353 45:0.23279168 46:-0.023101007 47:0.30789044 48:-0.63419988 49:0.44705256 50:-0.92758691 51:0.53896481 52:-1 53:0.4397961 54:-0.95502027 55:0.26854442 56:-0.71604415 57:0.19265116 58:0.023101007 59:0.25010876 60:0.76099427 61:0.36673398 62:0.9312586 63:0.38156677 64:0.99999666 65:0.20006199 66:0.80970496 67:0.11600892 68:-0.033839311 69:0.23202405 70:-0.83710762 71:0.46649101 72:-0.99998452 73:0.1906271 74:-0.97324904 75:0.06224014 76:0.01579472 77:0.18358193 78:0.97063272 79:0.88623855 80:0.97329485 81:0.88623855 82:0.92162485 83:0.87650126 84:0.99887921 85:0.96210315 86:0.9982177 87:0.88198054 88:0.87788064 89:0.15581243 90:0.091158462 91:0.29511536 92:-0.068556081 93:-0.013175339 94:-0.068556081 95:0.061184182 96:-0.009942626 97:0.025318947 98:0.078416031 99:0.022172503 100:-0.017410917 101:-0.021818143 102:-0.0082464108 103:-0.034892119 104:0.021549709 
0 100.9220304394379 0:0.33317994 1:0.39864937 2:0.41759707 3:1.5145496 4:0.76320509 5:1.3231343 6:0.86908012 7:1.1159866 8:0.96696103 9:0.94391255 10:0.99854232 11:0.83912023 12:0.91918467 13:0.77839277 14:0.70136625 15:0.77184131 16:0.31949568 17:0.8721721 18:-0.11036652 19:1.0867602 20:-0.47221061 21:1.0745643 22:0.4530397 23:0.9076154 24:0.096960674 25:0.81179849 26:-0.34812954 27:0.81720663 28:-0.72794853 29:0.89638982 30:-0.96600312 31:1.022172 32:-0.98976923 33:1.234584 34:-0.89236198 35:1.5115171 36:-0.79468669 37:1.7455997 38:-0.69979928 39:0.49837576 40:1 41:0.42697486 42:0.84282156 43:0.36726453 44:0.32544527 45:0.32471433 46:0.033668843 47:0.3676948 48:-0.28086787 49:0.43873268 50:-0.80821471 51:0.50162424 52:-1 53:0.33708224 54:-0.99792326 55:0.12552687 56:-0.99975089 57:0.0091968224 58:-0.033668843 59:0.12467467 60:0.9975775 61:0.30003218 62:0.99962611 63:0.37307308 64:0.99906475 65:0.20066765 66:0.59772987 67:0.16659608 68:0.019457233 69:0.20224476 70:-0.54789247 71:0.37852949 72:-0.98653829 73:0.20224476 74:-0.54789247 75:0.16659608 76:0.019457233 77:0.20066765 78:0.59772987 79:0.76176799 80:0.94304682 81:0.76176799 82:0.99982868 83:0.83938555 84:0.97259163 85:0.85387398 86:0.96722871 87:0.96805797 88:0.95019948 89:0.17163942 90:0.035297135 91:0.18305758 92:-0.19302664 93:-0.043423365 94:-0.19302664 95:0.13938801 96:-0.047058333 97:-0.0009686331 98:-0.02981314 99:-0.008816479 100:0.068666516 101:0.0505007 102:0.0075805783 103:-0.090753446 104:-0.090508074 
83.46579268099336 0 0:0.35899452 1:0.34904271 2:0.40010334 3:1.7951368 4:0.6206008 5:1.4322472 6:0.7423006 7:1.1228712 8:0.87613547 9:0.90061164 10:0.98546709 11:0.75503157 12:0.96094925 13:0.71321445 14:0.68153256 15:0.81056149 16:0.20025634 17:0.97921238 18:-0.22815318 19:1.1638356 20:-0.52269109 21:1.0667054 22:0.36718059 23:0.87597946 24:-0.0085781543 25:0.77826508 26:-0.47484816 27:0.76780748 28:-0.87946816 29:0.83464543 30:-0.99737122 31:0.98366421 32:-0.95612335 33:1.2012238 34:-0.83892389 35:1.4392837 36:-0.73041351 37:1.762465 38:-0.62253125 39:0.48669783 40:1 41:0.30734342 42:0.884576 43:0.25002231 44:0.43528013 45:0.19874947 46:0.031124632 47:0.24083229 48:-0.43038059 49:0.32160143 50:-0.89763306 51:0.51330217 52:-1 53:0.32571269 54:-0.94960211 55:0.19992957 56:-0.59765149 57:0.16081113 58:-0.031124632 59:0.18904641 60:0.56999279 61:0.30363838 62:0.92946575 63:0.37603074 64:0.9966625 65:0.13191482 66:0.80285073 67:0.076552366 68:0.032160711 69:0.13245069 70:-0.796582 71:0.4106932 72:-0.99949261 73:0.11080155 74:-0.99872061 75:0.0095409071 76:0.24268008 77:0.10739355 78:0.98863724 79:0.91827571 80:0.98839256 81:0.91827571 82:0.94672352 83:0.85157839 84:0.98135517 85:0.83319597 86:0.9738101 87:0.95132468 88:0.93105879 89:0.14878982 90:0.12824672 91:0.27513327 92:-0.036518921 93:0.0019223685 94:-0.036518921 95:0.08628285 96:-0.034865495 97:0.0077949012 98:-0.050491154 99:-0.0022350891 100:0.051933221 101:0.031360008 102:-0.015269026 103:0.0021961352 104:0.0015676171 
1000 0 0:0.33345891 1:0.35813682 2:0.32685728 3:1.120789 4:0.46885751 5:0.8982178 6:0.55944337 7:0.66654001 8:0.7202375 9:0.44601225 10:0.90225156 11:0.28335393 12:0.95107983 13:0.35049202 14:0.16760411 15:0.65380129 16:-0.20807744 17:0.87789512 18:-0.3919428 19:1.0251449 20:-0.56867753 21:0.94072757 22:0.44329849 23:0.83689933 24:0.2662151 25:0.68812563 26:-0.06597657 27:0.57783542 28:-0.53940615 29:0.63505115 30:-0.92434892 31:0.77285863 32:-0.99797483 33:0.9172234 34:-0.89909761 35:1.1618577 36:-0.73645935 37:1.4682198 38:-0.59526245 39:0.33667346 40:1 41:0.27705199 42:0.98621774 43:0.12513953 44:0.99364639 45:0.051803105 46:-0.09538849 47:0.16314929 48:-0.99284849 49:0.41678639 50:-0.98820357 51:0.66332654 52:-1 53:0.48775178 54:-0.91024862 55:0.42216352 56:-0.50302422 57:0.38801476 58:-0.09538849 59:0.36076709 60:0.26601253 61:0.30268 62:0.77978722 63:0.27335252 64:0.95531096 65:0.18020413 66:0.63388709 67:0.16707255 68:-0.065510621 69:0.22787348 70:-0.74624916 71:0.60794136 72:-0.99933996 73:0.22787348 74:-0.74624916 75:0.16707255 76:-0.065510621 77:0.18020413 78:0.63388709 79:0.99334456 80:0.93859623 81:0.99334456 82:0.62315484 83:0.88724115 84:0.96347422 85:0.90077141 86:0.97514009 87:0.96581417 88:0.97242802 89:0.10510812 90:0.093015973 91:0.27300306 92:0.038549928 93:-0.047873959 94:0.038549928 95:-0.23728583 96:0.0007972655 97:-0.010086043 98:0.017084286 99:-0.0009051028 100:0.066422716 101:0.072729238 102:-0.058950722 103:-0.033034607 104:-0.0005625898 
0 376.8973412162513 0:0.31290141 1:0.36389161 2:0.35249625 3:1.2660126 4:0.59498109 5:1.046522 6:0.72729805 7:0.87213386 8:0.87563272 9:0.71896928 10:0.97896007 11:0.64894491 12:0.96865058 13:0.6558753 14:0.73225314 15:0.65827762 16:0.33777023 17:0.80439837 18:-0.21112672 19:0.9645974 20:-0.53974755 21:0.9429581 22:0.50835866 23:0.77768608 24:0.17731607 25:0.61525786 26:-0.26006863 27:0.57364907 28:-0.74205827 29:0.57084139 30:-0.98748775 31:0.66642453 32:-0.95798814 33:0.89610228 34:-0.822523 35:1.1483697 36:-0.68079817 37:1.420959 38:-0.56146582 39:0.50899033 40:1 41:0.28730314 42:0.93415509 43:0.19191345 44:0.45728462 45:0.14136482 46:0.0099013849 47:0.17899773 48:-0.49075929 49:0.29805199 50:-0.94998086 51:0.49100967 52:-1 53:0.29732769 54:-0.87264918 55:0.19050076 56:-0.48668329 57:0.1715414 58:-0.0099013849 59:0.19179527 60:0.56563226 61:0.31498183 62:0.93830952 63:0.42271724 64:0.99999852 65:0.10387184 66:0.93896879 67:0.023467056 68:-0.18456435 69:0.098623712 70:-0.93929817 71:0.42698094 72:-0.99997241 73:0.098623712 74:-0.93929817 75:0.023467056 76:-0.18456435 77:0.10387184 78:0.93896879 79:0.95921892 80:0.99893972 81:0.95921892 82:0.93928478 83:0.89909567 84:0.96157775 85:0.91068159 86:0.96960916 87:0.93149098 88:0.96298639 89:0.16170361 90:0.14571333 91:0.29894713 92:0.0044242894 93:0.012469533 94:0.0044242894 95:0.078844114 96:0.012651784 97:-0.011982513 98:0.026994463 99:-0.0064360323 100:0.032099528 101:0.063287607 102:-0.0023552396 103:0.01966275 104:0.025381475 
341.6057058213464 0 0:0.26008606 1:0.25720822 2:0.34689525 3:1.1158857 4:0.81077807 5:0.90356714 6:0.94342918 7:0.81089215 8:0.99995363 9:0.78113603 10:0.90149491 11:0.82251434 12:0.6456346 13:0.74038664 14:0.42433509 15:0.72361953 16:0.085403804 17:0.80652226 18:-0.2935873 19:0.97160742 20:-0.61180595 21:0.868994 22:0.4667061 23:0.72994905 24:0.13135413 25:0.69720156 26:-0.20301167 27:0.68378756 28:-0.49410369 29:0.60439764 30:-0.75676474 31:0.50689446 32:-0.96513965 33:0.50489448 34:-0.97237659 35:0.65634164 36:-0.7966369 37:0.86570141 38:-0.66558726 39:0.56865993 40:1 41:0.39603518 42:0.96530504 43:0.20237902 44:0.54396276 45:0.13287058 46:0.0015078435 47:0.22137325 48:-0.65729522 49:0.31945084 50:-0.95562458 51:0.43134007 52:-1 53:0.31756896 54:-0.96931955 55:0.18075583 56:-0.80303381 57:0.12721989 58:-0.0015078435 59:0.16665124 60:0.64169541 61:0.38979401 62:0.95914317 63:0.52240443 64:0.99972481 65:0.13690688 66:0.77385501 67:0.076727457 68:0.039434915 69:0.16523298 70:-0.85018937 71:0.37562698 72:-0.99941753 73:0.1452709 74:-0.98287199 75:0.045583543 76:-0.018178682 77:0.1166119 78:0.93023993 79:0.96364719 80:0.98795939 81:0.96364719 82:0.96746783 83:0.93134094 84:0.99181468 85:0.89499253 86:0.99025907 87:0.95296108 88:0.9023095 89:0.17288301 90:0.15366704 91:0.2845322 92:0.0088525538 93:0.0014892052 94:0.0088525538 95:0.10702716 96:0.044897055 97:0.018254411 98:0.01130541 99:0.014213872 100:0.053569625 101:0.0026107183 102:0.0088241652 103:0.027616457 104:0.010966546 
103.9627013297562 0 0:0.25834322 1:0.36295595 2:0.38950277 3:1.6764479 4:0.52322298 5:1.3659653 6:0.66213141 7:1.0606319 8:0.77536428 9:0.80221616 10:0.90444951 11:0.5680784 12:0.99938196 13:0.4691598 14:0.64271836 15:0.58524113 16:0.025441286 17:0.79401317 18:-0.36421309 19:0.88842142 20:-0.57408283 21:0.87706195 22:0.55865213 23:0.73151291 24:0.37220758 25:0.45608343 26:0.095780115 27:0.27910539 28:-0.53480481 29:0.31557109 30:-0.99708351 31:0.47360679 32:-0.93168487 33:0.66449915 34:-0.82339948 35:0.85775362 36:-0.71442554 37:1.1360485 38:-0.60890639 39:0.57512723 40:1 41:0.35000104 42:0.99288507 43:0.11307703 44:0.91523362 45:0.071158822 46:0.025566329 47:0.13251552 48:-0.96171471 49:0.27369108 50:-0.98799845 51:0.42487277 52:-1 53:0.32086112 54:-0.83863231 55:0.32312054 56:-0.36255108 57:0.32954005 58:0.025566329 59:0.3548213 60:0.34659364 61:0.4384345 62:0.81452039 63:0.42797127 64:0.99246485 65:0.1591122 66:0.70045988 67:0.11727369 68:0.039008361 69:0.16331517 70:-0.77419805 71:0.37118898 72:-0.9954109 73:0.16331517 74:-0.77419805 75:0.15735859 76:0.024606996 77:0.19471061 78:0.57661203 79:0.98997537 80:0.97238643 81:0.98997537 82:0.75308212 83:0.88904037 84:0.96547673 85:0.85578059 86:0.9605365 87:0.98431793 88:0.96550616 89:0.16147074 90:0.091710532 91:0.24230234 92:0.035180741 93:-0.014083756 94:0.035180741 95:-0.10735854 96:0.0025964838 97:-0.0080835321 98:-0.027906531 99:-0.015508694 100:0.084926477 101:0.065807377 102:-0.0025881054 103:-0.034340049 104:-0.031263308 
738.0930441259752 445.5178195424106 0:0.27124295 1:0.34407254 2:0.32724803 3:1.4568311 4:0.54785439 5:1.1125966 6:0.64333336 7:0.78975246 8:0.77780167 9:0.51747469 10:0.94971995 11:0.32919126 12:0.96100341 13:0.32378329 14:0.42103446 15:0.49786472 16:-0.14105453 17:0.76970025 18:-0.43195961 19:0.90675812 20:-0.63419566 21:0.81980861 22:0.51833798 23:0.68758403 24:0.28021449 25:0.49538288 26:-0.050915574 27:0.37489992 28:-0.63553432 29:0.43055572 30:-0.99598965 31:0.6222987 32:-0.95758022 33:0.83839206 34:-0.84084194 35:1.060176 36:-0.71092223 37:1.3099424 38:-0.58884401 39:0.51777441 40:1 41:0.3330503 42:0.99145135 43:0.13691193 44:0.88481534 45:0.092906716 46:0.047278012 47:0.12843409 48:-0.9062749 49:0.31230321 50:-0.9874371 51:0.48222559 52:-1 53:0.39079206 54:-0.81482618 55:0.36736506 56:-0.34586804 57:0.36493797 58:0.047278012 59:0.38153495 60:0.37198915 61:0.41622919 62:0.80235214 63:0.42453765 64:0.9936137 65:0.16609414 66:0.73201784 67:0.13122242 68:0.056034995 69:0.16281524 70:-0.75303053 71:0.33488964 72:-0.97811 73:0.1975062 74:-0.62094332 75:0.18770253 76:0.061720599 77:0.21326024 78:0.59467149 79:0.98243349 80:0.96484569 81:0.98243349 82:0.68440827 83:0.90488984 84:0.96467715 85:0.90361781 86:0.97865178 87:0.99428578 88:0.98256886 89:0.12298869 90:0.062207377 91:0.22832014 92:0.027638856 93:-0.021624498 94:0.027638856 95:-0.1760324 96:0.01844596 97:-0.0088831124 98:0.01993069 99:0.0026065912 100:0.094894329 101:0.082870081 102:-0.041070155 103:-0.063843203 104:-0.045245514 
0 58.80014192938525 0:0.35784915 1:0.46286958 2:0.33626796 3:1.2407034 4:0.26918784 5:0.98103013 6:0.39854074 7:0.71321512 8:0.5725929 9:0.42337494 10:0.75839423 11:0.21262678 12:0.99997268 13:0.28683096 14:0.32975821 15:0.58884745 16:-0.065037181 17:0.88718675 18:-0.22749726 19:1.0118356 20:-0.39727515 21:1.1044714 22:0.54145618 23:0.99914898 24:0.33534123 25:0.88570632 26:-0.08469992 27:0.88708673 28:-0.54428193 29:0.98390478 30:-0.83286717 31:1.1006434 32:-0.98190371 33:1.3251992 34:-0.97970271 35:1.5877708 36:-0.88703913 37:1.8705945 38:-0.79163278 39:0.29264073 40:1 41:0.26243333 42:0.96527623 43:0.16256153 44:0.67075891 45:0.074286478 46:0.089472397 47:0.16296285 48:-0.688536 49:0.38767638 50:-0.99087283 51:0.70735927 52:-1 53:0.49211118 54:-0.91362427 55:0.33436454 56:-0.53615373 57:0.28889818 58:-0.089472397 59:0.28394369 60:0.38069747 61:0.27295169 62:0.8053713 63:0.2449277 64:0.99932607 65:0.10797567 66:0.96980015 67:0.058733868 68:-0.026090362 69:0.13923 70:-0.94555775 71:0.6258394 72:-0.99974054 73:0.13923 74:-0.94555775 75:0.058733868 76:-0.026090362 77:0.10797567 78:0.96980015 79:0.99529548 80:0.98603027 81:0.99529548 82:0.78553888 83:0.74589995 84:0.95922536 85:0.89434114 86:0.96956911 87:0.92103236 88:0.92572548 89:0.1655319 90:0.14247808 91:0.29704722 92:0.040500853 93:-0.0004399132 94:0.040500853 95:-0.074901787 96:-0.14054393 97:-0.014334902 98:0.010654016 99:-0.0064760808 100:0.021640906 101:0.026026696 102:0.001473059 103:0.016427499 104:0.023481566 
826.8744728842145 233.1642484409026 0:0.30499668 1:0.33127578 2:0.31978133 3:1.504916 4:0.63096125 5:1.1440338 6:0.75197755 7:0.87249345 8:0.88026943 9:0.71068212 10:0.99494401 11:0.61182284 12:0.93109089 13:0.61215323 14:0.58789679 15:0.71488301 16:0.1154575 17:0.92549006 18:-0.28101164 19:1.0771642 20:-0.5164916 21:1.0235185 22:0.43345941 23:0.87309252 24:0.17916259 25:0.69155216 26:-0.14830942 27:0.56912231 28:-0.59202016 29:0.50804266 30:-0.95661433 31:0.59727131 32:-0.96395687 33:0.79750577 34:-0.76360311 35:1.0760888 36:-0.60987133 37:1.3878006 38:-0.5097869 39:0.52761942 40:1 41:0.3175676 42:0.95749888 43:0.16465422 44:0.66979563 45:0.077121851 46:-0.0006742744 47:0.17774681 48:-0.73842779 49:0.3366596 50:-0.97768527 51:0.47238058 52:-1 53:0.35707557 54:-0.91759347 55:0.25086765 56:-0.50969288 57:0.22786946 58:0.0006742744 59:0.25317988 60:0.54372923 61:0.34547183 62:0.9048508 63:0.40084262 64:0.99809012 65:0.12643698 66:0.99900244 67:0.011163722 68:-0.75550749 69:0.13442266 70:-0.99522363 71:0.3023262 72:-0.9982573 73:0.15673879 74:-0.84420452 75:0.09916204 76:-0.0066690924 77:0.1541724 78:0.83521612 79:0.98780353 80:0.99991906 81:0.98780353 82:0.89085493 83:0.87796231 84:0.98980902 85:0.86237194 86:0.98994606 87:0.89046019 88:0.86282541 89:0.14949409 90:0.12549414 91:0.25609615 92:0.033008898 93:0.013448871 94:0.033008898 95:0.030414262 96:-0.0084815726 97:0.016248755 98:-0.021315184 99:0.013900867 100:-0.0089312618 101:-0.036873373 102:-0.014564757 103:-0.0005564433 104:-0.017469502 
693.6493184178482 0 0:0.16993722 1:0.4243181 2:0.41454255 3:1.5996263 4:0.50715495 5:1.2700615 6:0.62687687 7:0.95962087 8:0.80307401 9:0.74697757 10:0.96458339 11:0.6040528 12:0.99261943 13:0.48649331 14:0.80832376 15:0.49830125 16:0.16253651 17:0.74846703 18:-0.29950242 19:0.94779659 20:-0.56327782 21:0.91135766 22:0.51146462 23:0.73932653 24:0.19358598 25:0.58344256 26:-0.19185065 27:0.59695662 28:-0.77314987 29:0.73890884 30:-0.9769773 31:0.91279779 32:-0.985416 33:1.1193071 34:-0.90013358 35:1.3796117 36:-0.77767835 37:1.6797386 38:-0.68095855 39:0.43340952 40:1 41:0.2308238 42:0.99177062 43:0.084481285 44:0.98116507 45:0.044264501 46:-0.057091973 47:0.10925251 48:-0.99098829 49:0.30317815 50:-0.98067404 51:0.56659048 52:-1 53:0.34578399 54:-0.87679764 55:0.2505822 56:-0.54941393 57:0.21471125 58:-0.057091973 59:0.21745366 60:0.4372669 61:0.26526254 62:0.86079846 63:0.37286756 64:0.99570534 65:0.11760172 66:0.70910863 67:0.11100105 68:-0.078507995 69:0.14762933 70:-0.77572071 71:0.48152755 72:-0.99599265 73:0.14762933 74:-0.77572071 75:0.11100105 76:-0.078507995 77:0.11760172 78:0.70910863 79:0.99581123 80:0.97457286 81:0.99581123 82:0.90220502 83:0.88256588 84:0.93163906 85:0.85949617 86:0.95275571 87:0.93034123 88:0.97767644 89:0.19788062 90:0.15168826 91:0.23846893 92:0.0410166 93:-0.011897333 94:0.0410166 95:0.041764356 96:-0.0038780033 97:-0.041921203 98:-0.024190951 99:-0.023289478 100:0.030949776 101:0.077977661 102:0.033821777 103:0.025637675 104:-0.035096723 
0 87.87669326962894 0:0.68458417 1:0.37665875 2:0.49351102 3:3.1263632 4:0.71095355 5:2.6782099 6:0.79609441 7:2.1774555 8:0.89645823 9:1.7757692 10:0.97430752 11:1.4772879 12:0.99967832 13:1.2045174 14:0.9326661 15:0.94686435 16:0.69099327 17:0.96132905 18:0.11711724 19:1.0003795 20:-0.30111856 21:1.1824946 22:0.59092628 23:0.97431818 24:0.36815961 25:0.66091368 26:-0.00968735 27:0.55718926 28:-0.77676362 29:0.72322143 30:-0.99949246 31:1.0086462 32:-0.90630568 33:1.3789082 34:-0.73314577 35:1.8269859 36:-0.58984727 37:2.2895882 38:-0.48989785 39:0.63545816 40:1 41:0.44415603 42:0.82410148 43:0.34285226 44:0.38088608 45:0.28881422 46:-0.10771252 47:0.37753679 48:-0.48243258 49:0.38733624 50:-0.82593062 51:0.36454184 52:-1 53:0.38052621 54:-0.57458685 55:0.38929465 56:-0.2051474 57:0.40036456 58:0.10771252 59:0.45036394 60:0.48757146 61:0.51269966 62:0.86068571 63:0.48247306 64:0.99741438 65:0.20143646 66:0.75762473 67:0.11680565 68:0.033222803 69:0.16358007 70:-0.68869629 71:0.21737748 72:-0.99033175 73:0.10782485 74:-0.9969308 75:0.018670829 76:0.84125872 77:0.17150632 78:0.99387355 79:0.82050283 80:0.97285668 81:0.82050283 82:0.60328474 83:0.88223177 84:0.95157938 85:0.8447928 86:0.93299931 87:0.89523776 88:0.90792722 89:0.18856662 90:0.18498884 91:0.40938967 92:-0.1342918 93:-0.013613504 94:-0.1342918 95:-0.25715592 96:-0.0042121113 97:-0.021980889 98:-0.038894322 99:-0.043045882 100:-0.0041536985 101:0.0082284379 102:0.024507779 103:0.05893826 104:0.13582402 
0 124.3595749853363 0:0.20843752 1:0.4017902 2:0.45884037 3:1.7175218 4:0.64082934 5:1.4508611 6:0.74304448 7:1.2091909 8:0.86075699 9:0.98970573 10:0.95012472 11:0.8109096 12:0.99969378 13:0.6600106 14:0.877091 15:0.62498679 16:0.43382111 17:0.78502259 18:-0.10425537 19:0.96172333 20:-0.43516456 21:1.0430225 22:0.55750675 23:0.84092428 24:0.35383929 25:0.6312857 26:0.11281677 27:0.47741706 28:-0.40008408 29:0.47000403 30:-0.87436418 31:0.58922778 32:-0.99796143 33:0.73442509 34:-0.88137278 35:0.96291343 36:-0.71391402 37:1.2778877 38:-0.58491989 39:0.55142832 40:1 41:0.31282509 42:0.99999848 43:0.091217263 44:0.97271044 45:0.004477742 46:0.13031876 47:0.07417941 48:-0.98689766 49:0.23463831 50:-0.99737271 51:0.44857168 52:-1 53:0.28424254 54:-0.76567361 55:0.2177321 56:-0.26852099 57:0.21406657 58:0.13031876 59:0.22907241 60:0.52033057 61:0.36827807 62:0.91790423 63:0.45961361 64:0.99949306 65:0.11613172 66:0.74051096 67:0.085193352 68:0.12099036 69:0.097903723 70:-0.71080428 71:0.37708717 72:-0.99464657 73:0.097903723 74:-0.71080428 75:0.085193352 76:0.12099036 77:0.11613172 78:0.74051096 79:0.9999788 80:0.98591963 81:0.9999788 82:0.90594932 83:0.86342117 84:0.93360048 85:0.74601286 86:0.96743883 87:0.96607739 88:0.92202261 89:0.15793887 90:0.1279916 91:0.23470407 92:0.045184171 93:-0.0005505555 94:0.045184171 95:0.045508655 96:-0.02302271 97:-0.039959783 98:-0.13767427 99:-0.0086063603 100:0.066685938 101:0.022323829 102:-0.0061199741 103:0.0019410164 104:-0.038861583 
0 138.792578098542 0:0.46899386 1:0.39180414 2:0.38608183 3:2.6642613 4:0.64520036 5:2.1467197 6:0.76415877 7:1.7677695 8:0.8746822 9:1.4838954 10:0.95477835 11:1.0833878 12:0.99994742 13:0.84690093 14:0.89827634 15:0.78267817 16:0.59707717 17:0.87511036 18:0.023296533 19:0.98618599 20:-0.40389289 21:1.0844057 22:0.55485366 23:0.86096056 24:0.36937262 25:0.58269873 26:0.16001686 27:0.22511835 28:-0.53519653 29:0.39896375 30:-0.84399302 31:0.82441085 32:-0.65294128 33:1.2553558 34:-0.57128017 35:1.6459715 36:-0.49540386 37:1.945941 38:-0.40673604 39:0.7336088 40:1 41:0.41484394 42:0.98039142 43:0.18120447 44:0.37443828 45:0.12824658 46:-0.26780295 47:0.24374514 48:-0.68129556 49:0.3833825 50:-0.96439356 51:0.2663912 52:-1 53:0.30061301 54:-0.79376541 55:0.34042182 56:-0.1874667 57:0.37963419 58:0.26780295 59:0.43551324 60:0.59094336 61:0.54632687 62:0.88504473 63:0.61490721 64:0.99933083 65:0.12436934 66:0.99431658 67:0.019176073 68:0.45923919 69:0.14078117 70:-0.99987405 71:0.21719611 72:-0.99987793 73:0.13480673 74:-0.91708309 75:0.090283297 76:0.35370397 77:0.18500381 78:0.88105958 79:0.98595725 80:0.99485678 81:0.98595725 82:0.6368475 83:0.92343257 84:0.93840543 85:0.86815969 86:0.95581128 87:0.9833364 88:0.91674165 89:0.14743852 90:0.11226914 91:0.30459932 92:0.031162613 93:0.0083865898 94:0.031162613 95:-0.22359317 96:0.036988687 97:-0.035154831 98:-0.015527432 99:-0.020233909 100:0.083944946 101:0.017042871 102:-0.016620328 103:-0.013781436 104:0.031033664 
294.1194153685302 59.1464062212094 0:0.46630806 1:0.26235686 2:0.31960276 3:1.7491049 4:0.81732599 5:1.4569779 6:0.90878741 7:1.2753363 8:0.98661948 9:1.1183287 10:0.9922215 11:0.9601601 12:0.86141214 13:0.83906537 14:0.55552396 15:0.82811635 16:0.088051226 17:0.96653296 18:-0.33735802 19:1.0954956 20:-0.61917932 21:0.91841941 22:0.35026672 23:0.77676316 24:0.030804501 25:0.54603667 26:-0.25218213 27:0.32254333 28:-0.78146988 29:0.34910128 30:-0.96868127 31:0.53911542 32:-0.66837989 33:0.73241873 34:-0.496237 35:0.91339513 36:-0.37546208 37:1.0380717 38:-0.25323303 39:0.61898114 40:1 41:0.4853372 42:0.85501108 43:0.29938523 44:0.47084509 45:0.22739227 46:-0.084761881 47:0.31874369 48:-0.58430292 49:0.37261312 50:-0.8625841 51:0.38101886 52:-1 53:0.32140569 54:-0.91173138 55:0.28285209 56:-0.59914672 57:0.23776071 58:0.084761881 59:0.31512066 60:0.63761742 61:0.4842817 62:0.94800236 63:0.47967214 64:0.99726323 65:0.20661927 66:0.7283607 67:0.12395637 68:-0.047468754 69:0.20629607 70:-0.82825448 71:0.28204205 72:-0.97909076 73:0.16958958 74:-0.98982791 75:0.010948478 76:0.79462483 77:0.17434285 78:0.999007 79:0.88106855 80:0.96409643 81:0.88106855 82:0.88811178 83:0.91141557 84:0.99230562 85:0.83230712 86:0.99428415 87:0.94508938 88:0.90517184 89:0.18565263 90:0.10633961 91:0.31737766 92:-0.073726082 93:-0.022373758 94:-0.073726082 95:0.027671112 96:0.024971687 97:0.018745353 98:-0.051380004 99:0.018238956 100:0.045697923 101:0.0054730538 102:0.021593787 103:-0.019710973 104:0.043812009 
1000 0 0:0.2811915 1:0.26082617 2:0.29345796 3:1.3415921 4:0.48766955 5:1.0575235 6:0.60735266 7:0.80779549 8:0.74776615 9:0.59617651 10:0.90959241 11:0.44472748 12:0.99964809 13:0.3641174 14:0.64061486 15:0.47639173 16:-0.047059556 17:0.70781525 18:-0.37680204 19:0.88704272 20:-0.62408924 21:0.82441322 22:0.54148353 23:0.69359056 24:0.35147273 25:0.46186102 26:0.13866796 27:0.30590064 28:-0.37260386 29:0.28716111 30:-0.97360921 31:0.43300333 32:-0.89075269 33:0.66621664 34:-0.67469456 35:0.8956233 36:-0.53072092 37:1.1451597 38:-0.42523135 39:0.47491767 40:1 41:0.25841796 42:0.99998034 43:0.10766985 44:0.91296831 45:0.0047905604 46:0.0005799178 47:0.14410046 48:-0.9566364 49:0.36244629 50:-0.99998668 51:0.52508233 52:-1 53:0.40774611 54:-0.91971934 55:0.31659947 56:-0.45559371 57:0.2764081 58:-0.0005799178 59:0.29098064 60:0.40737454 61:0.32569342 62:0.83143375 63:0.41023332 64:0.99904234 65:0.12543926 66:0.81906297 67:0.092458648 68:-0.010262639 69:0.15049703 70:-0.91257313 71:0.41652033 72:-0.99567002 73:0.19274744 74:-0.74016095 75:0.1355689 76:0.010664363 77:0.1504534 78:0.71969371 79:0.99997266 80:0.98235783 81:0.99997266 82:0.83185822 83:0.94626277 84:0.98332429 85:0.93005971 86:0.98068835 87:0.98672963 88:0.97206252 89:0.13970148 90:0.12272159 91:0.28935033 92:0.045178027 93:-0.004112353 94:0.045178027 95:-0.028582443 96:0.059818887 97:0.0097640277 98:0.046372589 99:0.0046431572 100:0.087338176 101:0.072363734 102:-0.024357367 103:-0.0033289924 104:0.015784677 
0 201.611719794612 0:0.3107023 1:0.32048829 2:0.29253514 3:1.765302 4:0.53608952 5:1.4541581 6:0.66685194 7:1.1013157 8:0.8051305 9:0.87043058 10:0.95462703 11:0.70959524 12:0.98667578 13:0.64262077 14:0.72938537 15:0.76333033 16:0.25488326 17:0.99761436 18:-0.14357188 19:1.1948162 20:-0.44027898 21:1.1728089 22:0.40411319 23:1.0214234 24:0.1545479 25:0.86091636 26:-0.074977562 27:0.63516658 28:-0.42523082 29:0.57997493 30:-0.8848631 31:0.68458012 32:-0.99494656 33:0.92161871 34:-0.805666 35:1.2625282 36:-0.63746922 37:1.6776563 38:-0.51406068 39:0.51161167 40:1 41:0.33608083 42:0.96914673 43:0.19287143 44:0.74713362 45:0.087905555 46:-0.0037986282 47:0.18696386 48:-0.74904384 49:0.33180514 50:-0.97351509 51:0.48838833 52:-1 53:0.34836002 54:-0.89070989 55:0.24673518 56:-0.6023089 57:0.22285206 58:0.0037986282 59:0.26048143 60:0.58334602 61:0.37480956 62:0.90276509 63:0.43661804 64:0.99990748 65:0.14180911 66:0.99907846 67:0.01634426 68:0.41700287 69:0.14557461 70:-0.99802407 71:0.4078651 72:-0.9995955 73:0.14557461 74:-0.99802407 75:0.01634426 76:0.41700287 77:0.14180911 78:0.99907846 79:0.98461535 80:0.99954563 81:0.98461535 82:0.89469939 83:0.94941541 84:0.95138682 85:0.94263458 86:0.97192086 87:0.94563352 88:0.96367416 89:0.19897518 90:0.16325315 91:0.27884078 92:0.029820722 93:0.013075439 94:0.029820722 95:0.034258721 96:0.062971521 97:-0.022173448 98:0.058947462 99:-0.004124333 100:0.046242069 101:0.063975374 102:0.034916332 103:0.03720257 104:0.0052751241 
0 324.7464815213399 0:0.32819095 1:0.32810098 2:0.39248788 3:1.6033185 4:0.67575273 5:1.3662023 6:0.77150728 7:1.0973883 8:0.88927224 9:0.92467134 10:0.98096569 11:0.81586315 12:0.98064308 13:0.7329843 14:0.78048081 15:0.700119 16:0.3124008 17:0.80858144 18:-0.18694087 19:1.0019507 20:-0.58001577 21:0.9173935 22:0.45656829 23:0.78244282 24:0.047493129 25:0.63006093 26:-0.38673748 27:0.56727649 28:-0.79760215 29:0.57933422 30:-0.99656415 31:0.69587986 32:-0.91293651 33:0.93300684 34:-0.73673012 35:1.1445016 36:-0.62007023 37:1.3881789 38:-0.52448908 39:0.53625337 40:1 41:0.36202576 42:0.88728914 43:0.28398031 44:0.47823148 45:0.21107119 46:0.0079538991 47:0.28168161 48:-0.47817548 49:0.35629165 50:-0.8894846 51:0.46374663 52:-1 53:0.32574582 54:-0.96522923 55:0.18097603 56:-0.80335217 57:0.11721971 58:-0.0079538991 59:0.18034967 60:0.81732921 61:0.31616051 62:0.97393418 63:0.46318971 64:0.999999 65:0.15687439 66:0.87948574 67:0.063997598 68:-0.070877854 69:0.14985962 70:-0.89418236 71:0.38993508 72:-0.99909896 73:0.14985962 74:-0.89418236 75:0.063997598 76:-0.070877854 77:0.15687439 78:0.87948574 79:0.90542751 80:0.99145206 81:0.90542751 82:0.97274417 83:0.91798795 84:0.97562731 85:0.88554197 86:0.95813902 87:0.92999718 88:0.8862987 89:0.19551491 90:0.14036962 91:0.28341985 92:-0.049367124 93:0.004981869 94:-0.049367124 95:0.1123035 96:0.031544069 97:0.0020670437 98:0.0018548481 99:-0.017906169 100:0.030605724 101:-0.013400086 102:0.031456063 103:0.014319039 104:0.009854196 
0 56.91873675208669 0:0.33396045 1:0.42621335 2:0.27539546 3:1.3103093 4:0.27007645 5:1.0144182 6:0.43343666 7:0.65998172 8:0.64840261 9:0.37670793 10:0.90893775 11:0.29683935 12:0.743096 13:0.4620016 14:0.13679628 15:0.75210308 16:-0.19261119 17:0.92179922 18:-0.29979103 19:1.0815569 20:-0.5014999 21:1.041616 22:0.43931672 23:0.89533352 24:0.17623387 25:0.75170369 26:-0.14603985 27:0.7153011 28:-0.57397622 29:0.75532643 30:-0.90554674 31:0.87261687 32:-0.99998039 33:1.0683621 34:-0.9461333 35:1.2838935 36:-0.83686004 37:1.5594872 38:-0.7168803 39:0.41394219 40:1 41:0.30882477 42:0.8995884 43:0.24983885 44:0.50729483 45:0.17109288 46:0.01749104 47:0.24598008 48:-0.51340853 49:0.36143596 50:-0.93851261 51:0.58605781 52:-1 53:0.36588183 54:-0.97275291 55:0.21317563 56:-0.71232782 57:0.16364876 58:-0.01749104 59:0.2146831 60:0.63092765 61:0.29469626 62:0.88943139 63:0.35494572 64:0.99830254 65:0.14625452 66:0.86115365 67:0.052682338 68:-0.14531723 69:0.14694848 70:-0.89966176 71:0.50425968 72:-0.99960375 73:0.14694848 74:-0.89966176 75:0.052682338 76:-0.14531723 77:0.14625452 78:0.86115365 79:0.94744174 80:0.99640681 81:0.94744174 82:0.9374973 83:0.79563382 84:0.98325619 85:0.89238658 86:0.99243878 87:0.85851189 88:0.89363774 89:0.13999729 90:0.17002236 91:0.30580657 92:-0.0073528888 93:0.00993662 94:-0.0073528888 95:0.077056632 96:-0.090810063 97:0.0096959272 98:0.0086994559 99:0.016393584 100:-0.040879564 101:-0.0060610378 102:-0.024061559 103:0.04397178 104:0.032240915 
54.18137844607219 0 0:0.26790745 1:0.35278929 2:0.30759771 3:2.0077179 4:0.70908603 5:1.6545995 6:0.8528596 7:1.3552946 8:0.96713719 9:1.1189045 10:0.99150219 11:0.92234252 12:0.82541445 13:0.83567681 14:0.41751833 15:0.97670961 16:-0.071309019 17:1.156235 18:-0.36840254 19:1.2555723 20:-0.56635136 21:1.0743704 22:0.26890626 23:0.9126326 24:0.10426694 25:0.66607325 26:-0.085357377 27:0.44181484 28:-0.50226751 29:0.37258162 30:-0.997179 31:0.5289956 32:-0.83876767 33:0.78936774 34:-0.65802075 35:1.0567887 36:-0.54508808 37:1.3416387 38:-0.44048577 39:0.62414462 40:1 41:0.38268059 42:0.9760464 43:0.19460068 44:0.86240363 45:0.045699465 46:0.011756523 47:0.19263713 48:-0.90365711 49:0.29817978 50:-0.9841742 51:0.37585538 52:-1 53:0.32638236 54:-0.8646415 55:0.28857725 56:-0.62940282 57:0.2223701 58:-0.011756523 59:0.27104432 60:0.64256608 61:0.39695695 62:0.92173364 63:0.54383311 64:0.99995954 65:0.17229816 66:0.99430295 67:0.053119349 68:0.092000575 69:0.17471587 70:-0.98756309 71:0.32833679 72:-0.99929518 73:0.17471587 74:-0.98756309 75:0.053119349 76:0.092000575 77:0.18006678 78:0.9416888 79:0.99471691 80:0.99548481 81:0.99471691 82:0.90131762 83:0.88504557 84:0.98383341 85:0.89966676 86:0.98007865 87:0.9445853 88:0.66990795 89:0.21722199 90:0.13174544 91:0.24024616 92:0.039922275 93:0.0090146198 94:0.039922275 95:0.040876955 96:-0.0013983113 97:0.010273142 98:0.015979636 99:0.0040334613 100:0.045193843 101:-0.22979083 102:0.053163147 103:0.0056948593 104:-0.033319495 
152.7369517933414 35.0742390198493 0:0.3772111 1:0.37962648 2:0.40959711 3:2.0333216 4:0.65018414 5:1.7716295 6:0.79598378 7:1.5292192 8:0.93796636 9:1.446478 10:0.99848833 11:1.2267057 12:0.9770706 13:0.99051941 14:0.8150827 15:0.86169823 16:0.4237272 17:0.95808311 18:-0.068767367 19:1.0866536 20:-0.38037458 21:1.1636775 22:0.50414708 23:0.96171197 24:0.33055063 25:0.70314275 26:0.20246784 27:0.41591614 28:-0.0029708 29:0.23242586 30:-0.82853293 31:0.45443928 32:-0.91660418 33:0.78297637 34:-0.67004948 35:1.0660744 36:-0.5340421 37:1.3375981 38:-0.40898053 39:0.73613106 40:1 41:0.37975175 42:0.97404796 43:0.18129353 44:0.57567725 45:0.086849119 46:-0.19971414 47:0.17245386 48:-0.70108653 49:0.2470141 50:-0.97063576 51:0.26386894 52:-1 53:0.25739875 54:-0.59870702 55:0.27843315 56:-0.17562155 57:0.30274484 58:0.19971414 59:0.32103279 60:0.57375456 61:0.45730869 62:0.89737131 63:0.63884866 64:0.99949157 65:0.15382363 66:0.95345647 67:0.0638801 68:0.35243761 69:0.098961103 70:-0.90694015 71:0.21276836 72:-0.99362755 73:0.098961103 74:-0.90694015 75:0.0638801 76:0.35243761 77:0.15382363 78:0.95345647 79:0.99005844 80:0.98951074 81:0.99005844 82:0.78948832 83:0.83644921 84:0.9784202 85:0.71591132 86:0.98581673 87:0.94960446 88:0.93855377 89:0.15915109 90:0.10422503 91:0.26344909 92:0.03526381 93:0.0030405475 94:0.03526381 95:-0.070952349 96:-0.049994679 97:0.0048599399 98:-0.16777581 99:0.009771534 100:0.050213008 101:0.038854986 102:-0.0049077537 103:-0.021825555 104:-0.010116566 
516.1986579385515 106.8980527377055 0:0.39716629 1:0.31643207 2:0.27354836 3:1.4166692 4:0.42883704 5:1.146158 6:0.53597779 7:0.82899356 8:0.68527813 9:0.55287222 10:0.90378342 11:0.39963359 12:0.94852945 13:0.50646395 14:0.40064626 15:0.80936684 16:0.067669068 17:1.0205363 18:-0.21592937 19:1.1840862 20:-0.45488504 21:1.1510056 22:0.40084676 23:1.0016647 24:0.12128434 25:0.75285697 26:-0.35878992 27:0.66045506 28:-0.77527857 29:0.73989341 30:-0.99323032 31:0.95816093 32:-0.95725416 33:1.2026637 34:-0.85199871 35:1.4596007 36:-0.7334009 37:1.7144422 38:-0.62985819 39:0.37953225 40:1 41:0.29014715 42:0.99101265 43:0.15148443 44:0.98901266 45:0.033396745 46:-0.10953904 47:0.19535188 48:-0.99857552 49:0.42688647 50:-0.99990538 51:0.62046775 52:-1 53:0.52960161 54:-0.88605439 55:0.475012 56:-0.54200126 57:0.43126727 58:-0.10953904 59:0.41358205 60:0.30233372 61:0.40759963 62:0.69613014 63:0.32893754 64:0.99934746 65:0.14625144 66:0.95457887 67:0.086758264 68:-0.17087888 69:0.20878024 70:-0.968403 71:0.55829185 72:-0.99866304 73:0.28764679 74:-0.76449044 75:0.20585458 76:-0.11094912 77:0.19731825 78:0.70124293 79:0.99835513 80:0.98666377 81:0.99835513 82:0.52408605 83:0.89292291 84:0.9885366 85:0.93296753 86:0.98346602 87:0.873598 88:0.91935459 89:0.12444801 90:0.16083399 91:0.31457372 92:0.043560495 93:0.0001935807 94:0.043560495 95:-0.33635461 96:0.006479026 97:0.014976336 98:0.04928041 99:0.0074208237 100:-0.02579346 101:0.019655807 102:-0.039610837 103:0.034783408 104:0.041008072 
284.5641473842767 0 0:0.28287477 1:0.35763946 2:0.31224387 3:1.2986994 4:0.40335508 5:1.018125 6:0.51814377 7:0.73232344 8:0.65660664 9:0.48143776 10:0.86381012 11:0.34216736 12:0.99345425 13:0.4017188 14:0.51431481 15:0.61026247 16:0.035150387 17:0.83341442 18:-0.25016342 19:1.0017348 20:-0.4831909 21:1.0175531 22:0.5070702 23:0.89259983 24:0.24966434 25:0.73820834 26:-0.063162939 27:0.63901902 28:-0.44970269 29:0.63828102 30:-0.8327897 31:0.72208196 32:-0.9994575 33:0.90824751 34:-0.89603444 35:1.2103016 36:-0.72362127 37:1.5581071 38:-0.58839067 39:0.41581153 40:1 41:0.28404346 42:0.99877652 43:0.14099474 44:0.99991191 45:0.037554984 46:-0.076091754 47:0.16080629 48:-0.999316 49:0.36826959 50:-0.99992613 51:0.58418847 52:-1 53:0.43496861 54:-0.87526271 55:0.36141521 56:-0.50776603 57:0.32131451 58:-0.076091754 59:0.3323024 60:0.37379369 61:0.33241862 62:0.86434799 63:0.34731217 64:0.99473033 65:0.16513138 66:0.83150499 67:0.12808227 68:-0.050368189 69:0.18836214 70:-0.86833892 71:0.50870023 72:-0.99878965 73:0.18836214 74:-0.86833892 75:0.12808227 76:-0.050368189 77:0.16513138 78:0.83150499 79:0.9971564 80:0.96660089 81:0.9971564 82:0.76744946 83:0.86420199 84:0.98486053 85:0.91125252 86:0.97942194 87:0.88042287 88:0.91841039 89:0.11828343 90:0.18473056 91:0.30904884 92:0.042361768 93:-0.019869303 94:0.042361768 95:-0.092991203 96:-0.022241899 97:0.011300269 98:0.027565398 99:0.0033767485 100:-0.018968586 101:0.018711611 102:-0.04577542 103:0.058679982 104:0.035483186 
222.6078644565105 0 0:0.22945759 1:0.40200549 2:0.33925242 3:1.3896772 4:0.52544596 5:1.1316071 6:0.61329247 7:0.86281041 8:0.7100129 9:0.62497741 10:0.84813527 11:0.40212998 12:0.99198793 13:0.28048288 14:0.68337441 15:0.44273447 16:-0.039179769 17:0.71015414 18:-0.36202714 19:0.88410932 20:-0.61742997 21:0.83060105 22:0.54674192 23:0.65484162 24:0.28487467 25:0.40782662 26:-0.14037568 27:0.35743028 28:-0.7836498 29:0.49261138 30:-0.9991165 31:0.66716457 32:-0.91540944 33:0.88238378 34:-0.77242066 35:1.1702613 36:-0.61672161 37:1.4135903 38:-0.49647392 39:0.47043342 40:1 41:0.30166175 42:0.99700184 43:0.14501947 44:0.9705142 45:0.0078615296 46:-0.090914822 47:0.15390847 48:-0.96666542 49:0.33680804 50:-0.99578149 51:0.52956658 52:-1 53:0.37325951 54:-0.92898329 55:0.28550549 56:-0.61959169 57:0.23659204 58:-0.090914822 59:0.2535871 60:0.49452757 61:0.33923871 62:0.91162981 63:0.41378305 64:0.99814068 65:0.14214932 66:0.93169284 67:0.092984855 68:-0.092251845 69:0.17018295 70:-0.94490837 71:0.4661803 72:-0.99901712 73:0.17018295 74:-0.94490837 75:0.092984855 76:-0.092251845 77:0.14214932 78:0.93169284 79:0.99993937 80:0.98333611 81:0.99993937 82:0.88270524 83:0.79251275 84:0.9805645 85:0.87638785 86:0.97807649 87:0.89580221 88:0.97958063 89:0.1820746 90:0.11437654 91:0.23658007 92:0.045144736 93:-0.0031340814 94:0.045144736 95:0.022264577 96:-0.093931132 97:0.0070042389 98:-0.0072992706 99:0.0020312944 100:-0.0035892458 101:0.079881843 102:0.018015755 103:-0.011674036 104:-0.036985583 
0 485.9524987325481 0:0.24228092 1:0.41782669 2:0.40107031 3:1.6161066 4:0.48704561 5:1.2619238 6:0.56700913 7:0.97026801 8:0.6656363 9:0.644503 10:0.77482732 11:0.36957106 12:0.94785882 13:0.24809119 14:0.8582934 15:0.39649877 16:0.069479529 17:0.62738636 18:-0.25374976 19:0.84569569 20:-0.62994332 21:0.80605242 22:0.57968892 23:0.62381929 24:0.31406334 25:0.39694808 26:0.034604605 27:0.20364211 28:-0.68819323 29:0.30232546 30:-0.91929974 31:0.57221253 32:-0.75489332 33:0.90442742 34:-0.64096323 35:1.2106661 36:-0.53716982 37:1.5008554 38:-0.45921046 39:0.50605248 40:1 41:0.31463071 42:0.99785297 43:0.14042478 44:0.98823018 45:0.028706977 46:-0.019663066 47:0.17123893 48:-0.98408507 49:0.33824363 50:-0.99943763 51:0.49394752 52:-1 53:0.38695947 54:-0.89783781 55:0.31179853 56:-0.58721981 57:0.27113919 58:-0.019663066 59:0.30546981 60:0.45873732 61:0.37526736 62:0.86147815 63:0.43486999 64:0.99970649 65:0.17082237 66:0.84309476 67:0.10352678 68:-0.034304922 69:0.19237442 70:-0.87165755 71:0.42062068 72:-0.9986502 73:0.19237442 74:-0.87165755 75:0.10352678 76:-0.034304922 77:0.17082237 78:0.84309476 79:0.99836772 80:0.97844429 81:0.99836772 82:0.84058813 83:0.92889146 84:0.90106154 85:0.87762557 86:0.9522811 87:0.93470963 88:0.962186 89:0.15064738 90:0.10887227 91:0.23701923 92:0.043573091 93:-0.0080258953 94:0.043573091 95:-0.019852536 96:0.042447573 97:-0.07249872 98:-0.0060615498 99:-0.023764095 100:0.035318179 101:0.062487217 102:-0.013411461 103:-0.017178312 104:-0.036546425 
0 109.0887856093241 0:0.27600473 1:0.29868863 2:0.32589179 3:1.4129981 4:0.6195595 5:1.1320278 6:0.74318183 7:0.9235582 8:0.86728959 9:0.77496437 10:0.97222913 11:0.68010203 12:0.99472415 13:0.58448613 14:0.87391165 15:0.54264762 16:0.37100646 17:0.68124833 18:-0.18320562 19:0.86147548 20:-0.53571363 21:0.90505894 22:0.59498428 23:0.71862928 24:0.30264481 25:0.57979762 26:-0.066863981 27:0.51111777 28:-0.57628269 29:0.56087967 30:-0.93734618 31:0.64546458 32:-0.99479623 33:0.8139863 34:-0.85660046 35:1.0282582 36:-0.7172278 37:1.2944437 38:-0.60557551 39:0.51374054 40:1 41:0.33076414 42:0.94990428 43:0.19893393 44:0.6280918 45:0.11696984 46:0.003066172 47:0.18582813 48:-0.66422107 49:0.31089452 50:-0.9442036 51:0.48625946 52:-1 53:0.32066548 54:-0.94848622 55:0.20952967 56:-0.63123423 57:0.15904064 58:-0.003066172 59:0.1950992 60:0.61955644 61:0.32361156 62:0.94432493 63:0.45853462 64:0.99999961 65:0.12160755 66:0.99998263 67:0.0038553584 68:0.90810776 69:0.12535584 70:-0.99743685 71:0.42649749 72:-0.99998994 73:0.12535584 74:-0.99743685 75:0.0038553584 76:0.90810776 77:0.12160755 78:0.99998263 79:0.97221752 80:0.99999513 81:0.97221752 82:0.94811411 83:0.92156187 84:0.98001316 85:0.88803673 86:0.98295036 87:0.96524722 88:0.95985235 89:0.15447212 90:0.11070387 91:0.25857676 92:0.017422891 93:0.013524942 94:0.017422891 95:0.087673447 96:0.035117988 97:0.0064528946 98:0.0043496033 99:0.0069051676 100:0.065855762 101:0.06015357 102:-0.0095867232 103:-0.015346711 104:-0.014988892 
180.4726234655856 151.8407610529711 0:0.10833977 1:0.30323028 2:0.29730722 3:1.8943804 4:0.68975383 5:1.581325 6:0.79387788 7:1.3402197 8:0.90975948 9:1.1506244 10:0.98570676 11:0.94911707 12:0.97693963 13:0.83071174 14:0.80601623 15:0.79148177 16:0.30739173 17:0.91410218 18:-0.12785153 19:1.0803589 20:-0.48319488 21:1.0597771 22:0.45101571 23:0.91709457 24:0.16533975 25:0.7345094 26:-0.20707982 27:0.62152564 28:-0.71903374 29:0.6443799 30:-0.98886136 31:0.79955622 32:-0.93538584 33:1.1007495 34:-0.75919144 35:1.3765066 36:-0.6202708 37:1.6398604 38:-0.51299177 39:0.53769341 40:1 41:0.32543703 42:0.98011553 43:0.17043836 44:0.88773943 45:0.041843687 46:0.090928516 47:0.18111574 48:-0.91492007 49:0.3101638 50:-0.98729249 51:0.46230659 52:-1 53:0.31673104 54:-0.99525734 55:0.17454131 56:-0.95299047 57:0.067230395 58:-0.090928516 59:0.15406845 60:0.96680971 61:0.31799434 62:0.99753598 63:0.46204603 64:0.99979649 65:0.15420359 66:0.98225168 67:0.0030472255 68:0.59106736 69:0.16516944 70:-0.99303635 71:0.40464644 72:-0.99999838 73:0.16516944 74:-0.99303635 75:0.0030472255 76:0.59106736 77:0.15420359 78:0.98225168 79:0.9963578 80:0.99997578 81:0.9963578 82:0.99132829 83:0.92550493 84:0.98138319 85:0.93486428 86:0.97651726 87:0.95853173 88:0.97270979 89:0.10397241 90:0.14744377 91:0.19190521 92:0.041563166 93:0.013505589 94:0.041563166 95:0.13088763 96:0.039061041 97:0.007822928 98:0.051177154 99:0.0004720627 100:0.059140276 101:0.073011012 102:-0.060086437 103:0.021393184 104:-0.081660438 
478.9916583122039 0 0:0.30597226 1:0.47566842 2:0.38494863 3:1.2729615 4:0.42647132 5:1.0100622 6:0.51732256 7:0.76154685 8:0.64893756 9:0.53948908 10:0.83492418 11:0.35241986 12:0.99967408 13:0.37397305 14:0.43330984 15:0.58851205 16:-0.044829937 17:0.89150398 18:-0.23029041 19:1.0656968 20:-0.41424744 21:1.1192789 22:0.49901574 23:0.9837611 24:0.25471901 25:0.75207025 26:-0.093816855 27:0.57355637 28:-0.70202525 29:0.66283675 30:-0.98817078 31:0.81833776 32:-0.96741349 33:1.008899 34:-0.84664767 35:1.2170947 36:-0.72179822 37:1.4472409 38:-0.61221929 39:0.41531601 40:1 41:0.27233328 42:0.98927452 43:0.11640409 44:0.78539478 45:0.039008147 46:0.0035510006 47:0.13281357 48:-0.8432933 49:0.33762512 50:-0.99811178 51:0.58468399 52:-1 53:0.40622735 54:-0.87665844 55:0.29159737 56:-0.44567374 57:0.26704867 58:-0.0035510006 59:0.2723547 60:0.39904839 61:0.32390454 62:0.82356912 63:0.34363138 64:0.99861244 65:0.12163958 66:0.80310962 67:0.089801434 68:-0.03279952 69:0.14219947 70:-0.84761645 71:0.51067974 72:-0.99796773 73:0.14219947 74:-0.84761645 75:0.089801434 76:-0.03279952 77:0.12163958 78:0.80310962 79:0.99787756 80:0.98140764 81:0.99787756 82:0.83724601 83:0.78106685 84:0.95441422 85:0.8798398 86:0.95446914 87:0.98054846 88:0.95017369 89:0.083975463 90:0.12425834 91:0.26945659 92:0.043082932 93:-0.0050625467 94:0.043082932 95:-0.023194658 96:-0.10537704 97:-0.019146047 98:-0.0038473249 99:-0.021576056 100:0.081157008 101:0.050474913 102:-0.080083383 103:-0.0017922422 104:-0.0041090616 
0 382.5537632555625 0:0.35307137 1:0.29878685 2:0.34716756 3:1.8575795 4:0.44433941 5:1.4128674 6:0.55297776 7:1.0349178 8:0.67217686 9:0.69396943 10:0.87868503 11:0.4192251 12:0.99694194 13:0.34036796 14:0.50612367 15:0.49216847 16:-0.098591604 17:0.67920785 18:-0.43587836 19:0.85058265 20:-0.63575954 21:0.8012233 22:0.57316601 23:0.63279688 24:0.31527634 25:0.39671749 26:-0.23172912 27:0.38460776 28:-0.90300688 29:0.55221034 30:-0.97972716 31:0.75273247 32:-0.84618561 33:0.99868413 34:-0.69408243 35:1.3659801 36:-0.5631795 37:1.7401101 38:-0.45367332 39:0.48962866 40:1 41:0.32318489 42:0.96299972 43:0.20285545 44:0.63386301 45:0.11750153 46:-0.025985676 47:0.22359272 48:-0.71748689 49:0.35882449 50:-0.97856841 51:0.51037134 52:-1 53:0.39500464 54:-0.89910806 55:0.29413554 56:-0.59318929 57:0.2352654 58:0.025985676 59:0.26712085 60:0.55647064 61:0.35585478 62:0.90962913 63:0.42098669 64:0.999931 65:0.13344496 66:0.99616719 67:0.028746834 68:-0.034482911 69:0.16615412 70:-0.99477814 71:0.45558255 72:-0.99988422 73:0.16615412 74:-0.99477814 75:0.028746834 76:-0.034482911 77:0.13344496 78:0.99616719 79:0.97217701 80:0.99829757 81:0.97217701 82:0.88165459 83:0.92901286 84:0.97053217 85:0.9037679 86:0.97169625 87:0.96646206 88:0.97053226 89:0.1744906 90:0.10269378 91:0.28040311 92:0.017382379 93:0.011827384 94:0.017382379 95:0.021213928 96:0.042568976 97:-0.003028098 98:0.020080778 99:-0.0043489477 100:0.067070604 101:0.070833474 102:0.010431759 103:-0.023356803 104:0.0068374604 
0 140.3268830954394 0:0.35469183 1:0.33351954 2:0.40184241 3:2.4299598 4:0.6696217 5:2.1500686 6:0.77753696 7:1.8618773 8:0.87610316 9:1.617009 10:0.96691112 11:1.2928847 12:0.99953346 13:0.94514904 14:0.90583837 15:0.72627003 16:0.46382454 17:0.83348507 18:-0.26005291 19:0.95607726 20:-0.5648912 21:0.91319465 22:0.50363892 23:0.71985347 24:0.29551951 25:0.43346085 26:0.16094847 27:0.1637752 28:-0.37099397 29:0.26984381 30:-0.67358024 31:0.61998601 32:-0.47731109 33:0.95605531 34:-0.41137236 35:1.2296722 36:-0.36145895 37:1.4123669 38:-0.28840784 39:0.7119652 40:1 41:0.42617865 42:0.93904189 43:0.254655 44:0.55067125 45:0.16340289 46:-0.088301342 47:0.25809834 48:-0.63005892 49:0.30291254 50:-0.90076517 51:0.2880348 52:-1 53:0.25347753 54:-0.91312529 55:0.23260117 56:-0.57853598 57:0.192418 58:0.088301342 59:0.25173824 60:0.63976968 61:0.42310787 62:0.9271643 63:0.60680301 64:0.99990072 65:0.15938231 66:0.92823128 67:0.051765748 68:0.076059261 69:0.15708748 70:-0.9173962 71:0.23187881 72:-0.99999447 73:0.15708748 74:-0.9173962 75:0.051765748 76:0.076059261 77:0.15938231 78:0.92823128 79:0.94422946 80:0.9942928 81:0.94422946 82:0.92494726 83:0.93578033 84:0.95406115 85:0.88562429 86:0.9363729 87:0.95297526 88:0.69661819 89:0.24358387 90:0.13043417 91:0.27541779 92:-0.010565168 93:0.0078226137 94:-0.010565168 95:0.064506598 96:0.049336447 97:-0.019499116 98:0.0019371723 99:-0.039672297 100:0.053583806 101:-0.20308059 102:0.079525021 103:0.0043835916 104:0.0018521414 
0 525.9507969630949 0:0.40663365 1:0.38526422 2:0.40896464 3:1.9886115 4:0.49065242 5:1.6066547 6:0.5865037 7:1.1727198 8:0.69560363 9:0.78359225 10:0.88179473 11:0.54288941 12:0.99489572 13:0.53680902 14:0.59243465 15:0.72572582 16:0.12272751 17:0.96769206 18:-0.19345126 19:1.1476583 20:-0.47937739 21:1.1030851 22:0.40780044 23:0.94216666 24:0.030669761 25:0.81214866 26:-0.4084665 27:0.78280021 28:-0.77641423 29:0.91012659 30:-0.9811636 31:1.0658652 32:-0.96739915 33:1.2441483 34:-0.84461776 35:1.5723751 36:-0.70334445 37:1.980883 38:-0.58048777 39:0.45940721 40:1 41:0.35075614 42:0.92753937 43:0.2635354 44:0.57458731 45:0.15684551 46:0.057409546 47:0.25535077 48:-0.55941277 49:0.35021422 50:-0.94601253 51:0.54059279 52:-1 53:0.39021782 54:-0.91475934 55:0.28259394 56:-0.62537307 57:0.24916447 58:-0.057409546 59:0.27353336 60:0.52278248 61:0.35005596 62:0.92022034 63:0.39517093 64:0.99991689 65:0.16419156 66:0.95434594 67:0.023556891 68:0.41930257 69:0.15909352 70:-0.94317341 71:0.47420281 72:-0.99999032 73:0.15909352 74:-0.94317341 75:0.023556891 76:0.41930257 77:0.16419156 78:0.95434594 79:0.9478632 80:0.99882935 81:0.9478632 82:0.86912653 83:0.7988227 84:0.98111548 85:0.82655756 86:0.95706735 87:0.96729729 88:0.97602633 89:0.12029505 90:0.12421938 91:0.27268764 92:-0.0069314289 93:0.012359163 94:-0.0069314289 95:0.0086858634 96:-0.087621186 97:0.0075552156 98:-0.057129564 99:-0.018977844 100:0.06790584 101:0.076327546 102:-0.043763799 103:-0.0018312023 104:-0.0008780105 
0 100.6966383465441 0:0.19922657 1:0.40841121 2:0.44255866 3:1.7689359 4:0.56300693 5:1.4085974 6:0.65406666 7:1.095476 8:0.77628368 9:0.81247365 10:0.94193635 11:0.57836511 12:0.99734654 13:0.39050716 14:0.74263376 15:0.4590527 16:-0.066351595 17:0.77552969 18:-0.49558535 19:0.99824379 20:-0.72341718 21:0.74309975 22:0.37391116 23:0.5836058 24:-0.014430896 25:0.49447451 26:-0.51695431 27:0.61173024 28:-0.89016392 29:0.82475892 30:-0.99999593 31:1.0855773 32:-0.92622956 33:1.3561836 34:-0.81270755 35:1.6390412 36:-0.73472474 37:1.9807567 38:-0.63780141 39:0.45903102 40:1 41:0.34529274 42:0.9941644 43:0.095251792 44:0.85617456 45:0.014955256 46:0.0078777511 47:0.11050038 48:-0.85244321 49:0.39065338 50:-0.99031268 51:0.54096898 52:-1 53:0.3967945 54:-0.9999998 55:0.21460591 56:-0.58086478 57:0.18420111 58:-0.0078777511 59:0.18996559 60:0.4912372 61:0.34798951 62:0.9947173 63:0.38612851 64:0.99935616 65:0.08572538 66:0.99620163 67:0.046739476 68:0.016805706 69:0.10557039 70:-0.98686431 71:0.48234721 72:-0.99926539 73:0.10557039 74:-0.98686431 75:0.046739476 76:0.016805706 77:0.08572538 78:0.99620163 79:0.99942487 80:0.99599582 81:0.99942487 82:0.93118669 83:0.82808537 84:0.94718358 85:0.87164741 86:0.93348781 87:0.92079667 88:0.9311755 89:0.15145241 90:0.19367695 91:0.28380559 92:0.044630243 93:0.0095256297 94:0.044630243 95:0.070746021 96:-0.058358519 97:-0.026376687 98:-0.012039713 99:-0.042557386 100:0.021405219 101:0.031476719 102:-0.01260644 103:0.067626366 104:0.01023994 
0 21.04989724802024 0:0.38920766 1:0.17049036 2:0.17215733 3:2.0417075 4:0.57669028 5:1.6933615 6:0.64813383 7:1.2866345 8:0.75827736 9:0.94033868 10:0.88830235 11:0.56421312 12:0.99900084 13:0.35645757 14:0.44235626 15:0.76202133 16:-0.40128007 17:0.99987243 18:-0.64557204 19:1.1988741 20:-0.8294873 21:0.66962481 22:0.0082870238 23:0.55688093 24:-0.64686262 25:0.67322354 26:-0.98363739 27:0.97199174 28:-0.97068857 29:1.2590656 30:-0.90460863 31:1.5741401 32:-0.80602913 33:1.8569538 34:-0.71598219 35:2.1399982 36:-0.62842855 37:2.4227404 38:-0.53517527 39:0.38146043 40:1 41:0.27998234 42:0.99660616 43:0.13234823 44:0.9918053 45:0.031458766 46:-0.079959586 47:0.15177416 48:-0.98219996 49:0.39662147 50:-0.99897955 51:0.61853957 52:-1 53:0.54762037 54:-0.78885758 55:0.47235749 56:-0.44375832 57:0.42104915 58:-0.079959586 59:0.40227674 60:0.33420125 61:0.37948698 62:0.78224759 63:0.33918967 64:0.99769715 65:0.14898267 66:0.83822696 67:0.11195013 68:-0.095963658 69:0.19236213 70:-0.90134119 71:0.5224995 72:-0.99915454 73:0.21790738 74:-0.82041862 75:0.11195013 76:-0.095963658 77:0.14898267 78:0.83822696 79:0.99841531 80:0.97619772 81:0.99841531 82:0.55071979 83:0.99951145 84:0.93761889 85:0.99994235 86:0.94838164 87:0.99963588 88:0.99947054 89:0.12484476 90:0.17564656 91:0.37482133 92:0.043620683 93:-0.010272467 94:0.043620683 95:-0.30972088 96:0.11306756 97:-0.035941378 98:0.11625522 99:-0.027663555 100:0.10024443 101:0.099771757 102:-0.039214085 103:0.049595978 104:0.10125568 
0 313.3860542871336 0:0.36379451 1:0.37720897 2:0.34874731 3:1.4353142 4:0.61080725 5:1.0968965 6:0.73939801 7:0.87476153 8:0.87165683 9:0.68524022 10:0.98965374 11:0.56798778 12:0.92882747 13:0.51481372 14:0.53723469 15:0.61196376 16:0.087864553 17:0.82386262 18:-0.23389504 19:0.98147576 20:-0.49655145 21:0.99427775 22:0.51559717 23:0.81457356 24:0.2644883 25:0.6169925 26:-0.050999851 27:0.52180817 28:-0.47773276 29:0.51331343 30:-0.86067178 31:0.58860401 32:-0.99971841 33:0.74436382 34:-0.88096192 35:0.98588047 36:-0.69459662 37:1.3136461 38:-0.53439165 39:0.51540484 40:1 41:0.35028418 42:0.92576402 43:0.2267514 44:0.52111733 45:0.17467025 46:-0.0008395021 47:0.24571076 48:-0.60546999 49:0.3481743 50:-0.96834417 51:0.48459516 52:-1 53:0.34478335 54:-0.93866377 55:0.23088732 56:-0.68219762 57:0.18912304 58:0.0008395021 59:0.21361122 60:0.62972207 61:0.3451956 62:0.94797275 63:0.4509603 64:0.99982727 65:0.12891997 66:0.91684431 67:0.027238523 68:-0.059121388 69:0.15275182 70:-0.93962012 71:0.42855768 72:-0.99994909 73:0.15275182 74:-0.93962012 75:0.027238523 76:-0.059121388 77:0.12891997 78:0.91684431 79:0.93694476 80:0.99851203 81:0.93694476 82:0.92576005 83:0.87431904 84:0.96750314 85:0.88671801 86:0.97499565 87:0.93000981 88:0.94559589 89:0.18409412 90:0.11335655 91:0.27583458 92:-0.017849873 93:0.012041847 94:-0.017849873 95:0.065319388 96:-0.012124846 97:-0.0060571242 98:0.0030308832 99:-0.0010495416 100:0.030618357 101:0.045897105 102:0.020035272 103:-0.012694028 104:0.0022689258 
221.915919333415 0 0:0.41203771 1:0.3628233 2:0.29373383 3:1.1142925 4:0.37056041 5:0.89755928 6:0.48760781 7:0.65195708 8:0.59190323 9:0.43931465 10:0.72929654 11:0.22757365 12:0.99079396 13:0.2670186 14:0.40391543 15:0.50306972 16:-0.075101618 17:0.80547592 18:-0.24560872 19:0.98825858 20:-0.46437547 21:1.0289844 22:0.52583591 23:0.90204386 24:0.28342762 25:0.7895035 26:-0.076775221 27:0.75946177 28:-0.63331052 29:0.88639275 30:-0.95349992 31:1.0904879 32:-0.99100416 33:1.2770353 34:-0.90617024 35:1.5222557 36:-0.7965286 37:1.7787752 38:-0.70137494 39:0.31281035 40:1 41:0.28040479 42:0.93170371 43:0.17036065 44:0.51582848 45:0.12495067 46:0.0018464793 47:0.17937444 48:-0.65761404 49:0.3912588 50:-0.97050389 51:0.68718965 52:-1 53:0.45578353 54:-0.88118692 55:0.30841539 56:-0.40454979 57:0.28708475 58:-0.0018464793 59:0.2739872 60:0.39364904 61:0.2969932 62:0.82092658 63:0.22305574 64:1 65:0.096898365 66:0.98898121 67:0.020756005 68:-0.024986827 69:0.12199064 70:-0.9935008 71:0.60962359 72:-0.99974362 73:0.15861054 74:-0.72890784 75:0.095367722 76:-0.096566985 77:0.11315081 78:0.846506 79:0.96789014 80:0.99907654 81:0.96789014 82:0.81976375 83:0.81613843 84:0.99300019 85:0.90208787 86:0.99177837 87:0.88925648 88:0.96833827 89:0.13318544 90:0.096879473 91:0.29100784 92:0.01309551 93:0.012606355 94:0.01309551 95:-0.040676917 96:-0.070305457 97:0.019439928 98:0.018400749 99:0.015733175 100:-0.01013497 101:0.068639486 102:-0.030873409 103:-0.029171107 104:0.017442188 
127.4192744160581 0 0:0.3995338 1:0.41069297 2:0.30537619 3:1.1741099 4:0.33641157 5:0.86641115 6:0.51867113 7:0.55430003 8:0.70822604 9:0.35762816 10:0.97638158 11:0.36193104 12:0.77491903 13:0.53367792 14:0.32933836 15:0.77887826 16:0.014813261 17:0.92215414 18:-0.2043898 19:1.0441408 20:-0.44787377 21:1.074683 22:0.49536164 23:0.93763466 24:0.16488606 25:0.77867791 26:-0.19666092 27:0.73668664 28:-0.67438979 29:0.84544766 30:-0.94274654 31:0.92746306 32:-0.99993291 33:1.04152 34:-0.95805064 35:1.2143988 36:-0.85795502 37:1.4282205 38:-0.73994215 39:0.35668724 40:1 41:0.29687621 42:0.86637109 43:0.27448673 44:0.49569496 45:0.19445567 46:0.052190084 47:0.24630934 48:-0.52116355 49:0.4324549 50:-0.96079433 51:0.64331276 52:-1 53:0.46495631 54:-0.93954754 55:0.25973574 56:-0.58274886 57:0.20806852 58:-0.052190084 59:0.23836743 60:0.56136278 61:0.28357844 62:0.90919439 63:0.27134939 64:0.99996607 65:0.14774957 66:0.86127656 67:0.064180185 68:-0.030254851 69:0.15762903 70:-0.86822651 71:0.55259544 72:-0.99994963 73:0.13712486 74:-0.99597987 75:0.020953927 76:-0.33288532 77:0.12558602 78:0.99053583 79:0.93573402 80:0.99543544 81:0.93573402 82:0.89485291 83:0.84204269 84:0.98185938 85:0.87430156 86:0.99474425 87:0.8192855 88:0.93777987 89:0.13061752 90:0.12641975 91:0.29624298 92:-0.019060607 93:0.0089652488 94:-0.019060607 95:0.034412239 96:-0.044401199 97:0.0082991134 98:-0.0093855649 99:0.01869906 100:-0.080105953 101:0.038081084 102:-0.033441323 103:0.0003691715 104:0.022677326 
1000 0 0:0.36916827 1:0.26333024 2:0.22184548 3:1.2094661 4:0.40283618 5:0.98011678 6:0.55349722 7:0.73634285 8:0.73008611 9:0.54511394 10:0.91979382 11:0.48523036 12:0.96919527 13:0.54644819 14:0.6471322 15:0.69724321 16:0.28644784 17:0.86335358 18:-0.044299621 19:1.00356 20:-0.38107154 21:1.1145745 22:0.55408752 23:0.93786571 24:0.24014459 25:0.80582782 26:-0.20336482 27:0.77519752 28:-0.62475736 29:0.79137 30:-0.90901319 31:0.86976773 32:-0.99990261 33:0.98645539 34:-0.94829024 35:1.1725372 36:-0.85085191 37:1.364784 38:-0.73778712 39:0.42248262 40:1 41:0.31526429 42:0.91363302 43:0.21747996 44:0.56767308 45:0.14351818 46:-0.022295627 47:0.21603666 48:-0.61173821 49:0.35675233 50:-0.93908039 51:0.57751738 52:-1 53:0.37485594 54:-0.90727853 55:0.25500015 56:-0.46323041 57:0.2263891 58:0.022295627 59:0.25095471 60:0.52647842 61:0.33723982 62:0.87184395 63:0.32456499 64:0.99908334 65:0.14011617 66:0.89926813 67:0.049971966 68:-0.0072057873 69:0.13669838 70:-0.93215062 71:0.46977161 72:-0.99998448 73:0.13590874 74:-0.91700629 75:0.062552176 76:-0.0099635596 77:0.14048608 78:0.931104 79:0.95437007 80:0.99370275 81:0.95437007 82:0.89813979 83:0.90320785 84:0.99706754 85:0.92511411 86:0.99739943 87:0.90630588 88:0.9450101 89:0.16844336 90:0.096984703 91:0.26941516 92:-0.0004245659 93:0.0072325608 94:-0.0004245659 95:0.037699119 96:0.016763964 97:0.023507277 98:0.041426987 99:0.021354234 100:0.0069144296 101:0.045311316 102:0.0043845098 103:-0.029065878 104:-0.0041504876 
1000 0 0:0.40405614 1:0.36294373 2:0.33807171 3:1.1344962 4:0.54181835 5:0.9138103 6:0.68712449 7:0.69704551 8:0.82524291 9:0.5249172 10:0.97888068 11:0.46220604 12:0.93560933 13:0.53106771 14:0.51894453 15:0.6397189 16:0.013778939 17:0.81577444 18:-0.33290829 19:0.99744391 20:-0.58947226 21:0.90496593 22:0.45530386 23:0.74172974 24:0.12819257 25:0.64410576 26:-0.27502566 27:0.61144071 28:-0.6268439 29:0.60463186 30:-0.93124091 31:0.65154644 32:-0.99827036 33:0.79657654 34:-0.9050177 35:0.98487594 36:-0.78019923 37:1.1881197 38:-0.64747773 39:0.5406773 40:1 41:0.37520796 42:0.9026665 43:0.24233694 44:0.57044653 45:0.16449125 46:0.061953635 47:0.21797056 48:-0.45684979 49:0.33134719 50:-0.90699745 51:0.4593227 52:-1 53:0.33675443 54:-0.85343168 55:0.2554676 56:-0.51869069 57:0.24017183 58:-0.061953635 59:0.25452478 60:0.49856892 61:0.37545512 62:0.90071149 63:0.45553188 64:0.99959324 65:0.15174128 66:0.92400095 67:0.046533813 68:0.2291982 69:0.1272328 70:-0.84436687 71:0.41577482 72:-0.99993418 73:0.13774954 74:-0.83538113 75:0.087986533 76:0.029774444 77:0.15311377 78:0.86753025 79:0.94469991 80:0.99592529 81:0.94469991 82:0.87717206 83:0.87924136 84:0.9855281 85:0.9067677 86:0.98272098 87:0.93906513 88:0.9542037 89:0.17377576 90:0.097235368 91:0.31353628 92:-0.010094722 93:0.0094551002 94:-0.010094722 95:0.016731395 96:-0.0072025252 97:0.011967837 98:0.023080575 99:0.0066757825 100:0.039673674 101:0.054504914 102:0.0097169125 103:-0.028815212 104:0.039970623 
0 135.5785873958931 0:0.51435381 1:0.4747884 2:0.40610636 3:2.0579884 4:0.46648575 5:1.6494398 6:0.58267172 7:1.2005214 8:0.71270132 9:0.78989699 10:0.88280337 11:0.53186933 12:0.98625248 13:0.59313159 14:0.5346447 15:0.90940835 16:0.082319909 17:1.1703883 18:-0.17001134 19:1.3791837 20:-0.38763079 21:1.3538536 22:0.34374907 23:1.2227673 24:-0.069240028 25:1.2123004 26:-0.49687884 27:1.3236232 28:-0.81973322 29:1.6026408 30:-0.97086621 31:1.8561844 32:-0.99822323 33:2.107288 34:-0.9427653 35:2.487225 36:-0.8384032 37:2.9523423 38:-0.72495218 39:0.33683469 40:1 41:0.32771344 42:0.79487749 43:0.32083195 44:0.38324165 45:0.24473157 46:0.093767024 47:0.30114033 48:-0.38859803 49:0.37594898 50:-0.88680969 51:0.66316531 52:-1 53:0.44384406 54:-0.92851737 55:0.31865543 56:-0.59099949 57:0.27334251 58:-0.093767024 59:0.26493839 60:0.38326343 61:0.2958345 62:0.87078717 63:0.26910012 64:0.98750771 65:0.15374638 66:0.7106163 67:0.079301201 68:-0.088533551 69:0.17364271 70:-0.8035437 71:0.55663961 72:-0.99971039 73:0.17364271 74:-0.8035437 75:0.079301201 76:-0.088533551 77:0.15374638 78:0.7106163 79:0.87928812 80:0.98887677 81:0.87928812 82:0.83356767 83:0.82351158 84:0.92730859 85:0.89656747 86:0.93877251 87:0.92367236 88:0.96220888 89:0.13608803 90:0.1169245 91:0.2691335 92:-0.075506513 93:0.0024065858 94:-0.075506513 95:-0.026872997 96:-0.062932304 97:-0.04625167 98:0.012880346 99:-0.037272681 100:0.02428091 101:0.062510098 102:-0.027970813 103:-0.0091260854 104:-0.0044321493 
721.4384044988049 0 0:0.18526561 1:0.23435709 2:0.24285882 3:1.3261826 4:0.72614318 5:1.0808298 6:0.84470791 7:0.91191558 8:0.94182021 9:0.7768117 10:0.99981046 11:0.73700334 12:0.92043983 13:0.70397313 14:0.65032916 15:0.73059625 16:0.13227215 17:0.82501692 18:-0.30091649 19:0.98878723 20:-0.58837109 21:0.90230403 22:0.46350916 23:0.72043208 24:0.1529477 25:0.62973443 26:-0.24543862 27:0.57090151 28:-0.62264989 29:0.50943446 30:-0.91207979 31:0.50691742 32:-0.98319712 33:0.69687638 34:-0.81989444 35:0.96205344 36:-0.69684658 37:1.1808961 38:-0.57741466 39:0.55787437 40:1 41:0.34641621 42:0.99130167 43:0.14608189 44:0.8645281 45:0.047234387 46:0.033619126 47:0.14948723 48:-0.88229656 49:0.31173486 50:-0.99556235 51:0.44212563 52:-1 53:0.32384114 54:-0.94745217 55:0.19999558 56:-0.73651896 57:0.13834187 58:-0.033619126 59:0.17199082 60:0.70363696 61:0.35775755 62:0.97035271 63:0.49084069 64:0.99999525 65:0.12270134 66:0.99248531 67:0.026220274 68:-0.016125958 69:0.13439034 70:-0.9937946 71:0.38632512 72:-0.99797239 73:0.13439034 74:-0.9937946 75:0.026220274 76:-0.016125958 77:0.12270134 78:0.99248531 79:0.99517382 80:0.99881887 81:0.99517382 82:0.96218313 83:0.93371081 84:0.99328382 85:0.92894291 86:0.99210471 87:0.90717193 88:0.96119313 89:0.20151562 90:0.12917828 91:0.22250111 92:0.04037919 93:0.012348685 94:0.04037919 95:0.10174246 96:0.047266921 97:0.019723552 98:0.045255785 99:0.016059519 100:0.0077804744 101:0.061494347 102:0.037456778 103:0.0031276977 104:-0.051064547 
0 69.10248873787134 0:0.50520985 1:0.25052092 2:0.24911869 3:1.1263236 4:0.38694291 5:0.90646812 6:0.55301964 7:0.67502063 8:0.70398863 9:0.43669787 10:0.85928683 11:0.29191923 12:0.95925891 13:0.3656634 14:0.27365192 15:0.58371059 16:-0.11188474 17:0.84077585 18:-0.3111166 19:1.0246137 20:-0.49652202 21:1.0160446 22:0.48349919 23:0.8298489 24:0.23019473 25:0.64465637 26:-0.1200974 27:0.5593793 28:-0.62162726 29:0.63559168 30:-0.94657077 31:0.77198996 32:-0.97419506 33:0.93784029 34:-0.86615169 35:1.1652247 36:-0.74286124 37:1.4163442 38:-0.63547466 39:0.41588483 40:1 41:0.35846532 42:0.87718378 43:0.27101528 44:0.45533233 45:0.21258213 46:0.017606746 47:0.27511249 48:-0.5102756 49:0.42306575 50:-0.9306935 51:0.58411517 52:-1 53:0.44272616 54:-0.90171393 55:0.32887269 56:-0.49959949 57:0.29257482 58:-0.017606746 59:0.31173785 60:0.43476046 61:0.35915577 62:0.87971975 63:0.3549188 64:0.99951463 65:0.13770237 66:0.86354096 67:0.061649072 68:-0.033066591 69:0.15693649 70:-0.92028642 71:0.50877804 72:-0.99999365 73:0.15080977 74:-0.975636 75:0.04300882 76:0.0009067328 77:0.12731686 78:0.97307492 79:0.90392529 80:0.99207436 81:0.90392529 82:0.81266632 83:0.93249626 84:0.99142129 85:0.9416564 86:0.98895067 87:0.89084701 88:0.93683707 89:0.1736619 90:0.1232471 91:0.36018947 92:-0.050869338 93:0.0056041698 94:-0.050869338 95:-0.047774343 96:0.04605238 97:0.017861021 98:0.057969278 99:0.012905481 100:-0.0085444432 101:0.037138289 102:0.00960305 103:-0.0028034855 104:0.086623816 
842.7200582928074 303.0207474158589 0:0.47207999 1:0.27523984 2:0.28024104 3:1.2653375 4:0.44753441 5:1.0473607 6:0.59621263 7:0.79628933 8:0.7261764 9:0.55045892 10:0.90406229 11:0.3991138 12:0.95092174 13:0.45630317 14:0.41479814 15:0.69914552 16:-0.060386988 17:0.92339984 18:-0.2815116 19:1.0828106 20:-0.50117971 21:1.0426473 22:0.43861166 23:0.84957321 24:0.17295572 25:0.68219391 26:-0.21456573 27:0.57232914 28:-0.7150633 29:0.63591994 30:-0.99170248 31:0.77799295 32:-0.9465678 33:0.96166916 34:-0.82349519 35:1.1614325 36:-0.71294024 37:1.3818368 38:-0.61138886 39:0.45381132 40:1 41:0.35379158 42:0.90902137 43:0.25901482 44:0.57511986 45:0.19100827 46:-0.0058770663 47:0.24466007 48:-0.495251 49:0.36196537 50:-0.90445794 51:0.54618868 52:-1 53:0.40604858 54:-0.87255171 55:0.30324068 56:-0.48258636 57:0.28103409 58:0.0058770663 59:0.3053286 60:0.43856778 61:0.37927522 62:0.86330531 63:0.34996619 64:0.99989408 65:0.14813165 66:0.92175079 67:0.051591986 68:0.12052398 69:0.14328945 70:-0.86567508 71:0.44471396 72:-0.99929892 73:0.17199326 74:-0.80294487 75:0.11026012 76:0.12189928 77:0.16598379 78:0.76991059 79:0.92477165 80:0.99491662 81:0.92477165 82:0.82602229 83:0.92833277 84:0.98442357 85:0.92489184 86:0.98508076 87:0.87408815 88:0.92858279 89:0.18161801 90:0.14641091 91:0.35323583 92:-0.03002298 93:0.0084464343 94:-0.03002298 95:-0.034418373 96:0.041888885 97:0.010863302 98:0.04120472 99:0.0090355641 100:-0.025303309 101:0.028884003 102:0.017559165 103:0.020360328 104:0.079670179 
0 32.93741796059687 0:0.45753301 1:0.374425 2:0.30516125 3:1.4319523 4:0.37348184 5:1.1868064 6:0.49769054 7:0.87945783 8:0.63632178 9:0.55138088 10:0.83193767 11:0.32492163 12:0.98585299 13:0.36229422 14:0.4217502 15:0.62329208 16:-0.13078993 17:0.83273028 18:-0.41083176 19:0.97483738 20:-0.60737293 21:0.87528752 22:0.46602991 23:0.72361924 24:0.17853481 25:0.55165906 26:-0.30589103 27:0.46217924 28:-0.7590031 29:0.52700762 30:-0.99914287 31:0.74180361 32:-0.9124477 33:1.0152802 34:-0.76572938 35:1.2375339 36:-0.6616521 37:1.4529552 38:-0.54817068 39:0.49382442 40:1 41:0.3355885 42:0.92865213 43:0.1980588 44:0.69350901 45:0.10585473 46:-0.056857206 47:0.19149032 48:-0.7422859 49:0.36010309 50:-0.97804956 51:0.50617558 52:-1 53:0.41945189 54:-0.79987136 55:0.38135526 56:-0.35694378 57:0.34919178 58:0.056857206 59:0.36543446 60:0.45687792 61:0.41712678 62:0.80839163 63:0.42046379 64:0.99974379 65:0.14116039 66:0.97636896 67:0.046718921 68:-0.017448094 69:0.15207505 70:-0.94816177 71:0.4328909 72:-0.99996036 73:0.17269867 74:-0.82105604 75:0.10315022 76:0.059173939 77:0.16749889 78:0.86247064 79:0.97741523 80:0.99550024 81:0.97741523 82:0.71045944 83:0.87551055 84:0.96956052 85:0.93969225 86:0.96844449 87:0.91480984 88:0.93216542 89:0.17375901 90:0.093139641 91:0.32458371 92:0.022620597 93:0.0090300565 94:0.022620597 95:-0.14998122 96:-0.010933338 97:-0.0039997484 98:0.056005128 99:-0.0076007053 100:0.015418386 101:0.032466639 102:0.0097001622 103:-0.032910939 104:0.05101806 
397.5471832199139 0 0:0.32639428 1:0.35178613 2:0.32530272 3:1.3545105 4:0.44788753 5:1.106515 6:0.55599873 7:0.87378569 8:0.69461285 9:0.63555759 10:0.87459527 11:0.48729135 12:0.99971184 13:0.48832796 14:0.81414029 15:0.57031621 16:0.29332917 17:0.77833401 18:-0.12711576 19:0.95576351 20:-0.46791431 21:1.0094816 22:0.54759254 23:0.83563249 24:0.26464629 25:0.6686922 26:-0.17842238 27:0.57290908 28:-0.65886301 29:0.58065815 30:-0.96928818 31:0.69988167 32:-0.96794495 33:0.89464228 34:-0.84917237 35:1.1474832 36:-0.72529861 37:1.4141798 38:-0.6124154 39:0.476429 40:1 41:0.27426208 42:0.9681062 43:0.14856014 44:0.72931102 45:0.073233985 46:0.041438405 47:0.15577526 48:-0.75474824 49:0.30473561 50:-0.96952105 51:0.523571 52:-1 53:0.36404723 54:-0.88128021 55:0.28632581 56:-0.5128071 57:0.25330837 58:-0.041438405 59:0.25696214 60:0.38075414 61:0.32107065 62:0.81432026 63:0.40928084 64:0.99885816 65:0.10971554 66:0.99417289 67:0.014233622 68:-0.020688327 69:0.12621661 70:-0.99873872 71:0.45728067 72:-0.99963287 73:0.15365518 74:-0.83099053 75:0.09206097 76:-0.10278765 77:0.13162297 78:0.80638759 79:0.98915687 80:0.99960777 81:0.98915687 82:0.86257705 83:0.83791366 84:0.99101566 85:0.81707867 86:0.99747913 87:0.92419564 88:0.96329912 89:0.13619502 90:0.11094086 91:0.26702815 92:0.034362236 93:0.013137577 94:0.034362236 95:0.0021363802 96:-0.048530223 97:0.017455395 98:-0.066608453 99:0.02143394 100:0.024804185 101:0.06360034 102:-0.027863822 103:-0.015109724 104:-0.0065375037 
855.5128818120966 0 0:0.22962754 1:0.32517123 2:0.33731044 3:1.3010186 4:0.51721961 5:1.0274277 6:0.6288628 7:0.73765694 8:0.7638873 9:0.49702663 10:0.92724188 11:0.30239418 12:0.98055918 13:0.28993309 14:0.38709736 15:0.46513459 16:-0.10154073 17:0.67185782 18:-0.34864913 19:0.843116 20:-0.57517664 21:0.86079227 22:0.59835501 23:0.71438188 24:0.38550373 25:0.44628117 26:0.07897758 27:0.29452876 28:-0.62106245 29:0.37536235 30:-0.99994093 31:0.60113367 32:-0.86177569 33:0.85519593 34:-0.72683048 35:1.122825 36:-0.60552853 37:1.4073246 38:-0.50522644 39:0.50136986 40:1 41:0.28664347 42:0.94251092 43:0.15694356 44:0.70106701 45:0.12782842 46:-0.042576646 47:0.18111685 48:-0.88498162 49:0.32389442 50:-0.98202443 51:0.49863014 52:-1 53:0.40273841 54:-0.81930952 55:0.37467647 56:-0.47146959 57:0.35734624 58:-0.042576646 59:0.35966224 60:0.36051622 61:0.37634352 62:0.74439764 63:0.42732519 64:0.98496912 65:0.20019157 66:0.56335772 67:0.17817771 68:-0.037289538 69:0.22297737 70:-0.73528277 71:0.44046687 72:-0.99368103 73:0.22297737 74:-0.73528277 75:0.17817771 76:-0.037289538 77:0.20019157 78:0.56335772 79:0.96671168 80:0.93424612 81:0.96671168 82:0.69899837 83:0.93911535 84:0.95869102 85:0.91425714 86:0.96283693 87:0.97811113 88:0.99672036 89:0.16713861 90:0.060267916 91:0.20048605 92:0.011917049 93:-0.052224066 94:0.011917049 95:-0.1614423 96:0.052671468 97:-0.014869247 98:0.030570021 99:-0.01320826 100:0.078719674 101:0.097021575 102:0.0030797675 103:-0.065782665 104:-0.073079602 
0 234.6368103376514 0:0.4757389 1:0.37019497 2:0.37672916 3:1.934805 4:0.6594425 5:1.5910457 6:0.78315401 7:1.2299555 8:0.90929552 9:0.92936721 10:0.99346117 11:0.76151968 12:0.95932896 13:0.69467271 14:0.71286263 15:0.71417918 16:0.25161011 17:0.84625492 18:-0.12991805 19:1.0153115 20:-0.45119731 21:1.0557679 22:0.51327017 23:0.88131596 24:0.21500014 25:0.65589459 26:-0.17909316 27:0.48718193 28:-0.68274717 29:0.48742206 30:-0.99505826 31:0.63955668 32:-0.93479104 33:0.87461452 34:-0.80310783 35:1.1551283 36:-0.67506044 37:1.4617411 38:-0.5784813 39:0.55270969 40:1 41:0.36781263 42:0.85994984 43:0.30483774 44:0.37468798 45:0.23421083 46:-0.021980814 47:0.31343537 48:-0.48043482 49:0.356615 50:-0.89332847 51:0.44729031 52:-1 53:0.35596325 54:-0.86708868 55:0.28116792 56:-0.50417552 57:0.24100721 58:0.021980814 59:0.28081258 60:0.48896296 61:0.40560196 62:0.86572655 63:0.42859042 64:0.99833246 65:0.15481059 66:0.77803306 67:0.090074152 68:-0.061789836 69:0.15403018 70:-0.85625817 71:0.35540202 72:-0.99816668 73:0.14034288 74:-0.99106708 75:0.0046976434 76:-0.30246919 77:0.1260111 78:0.9979704 79:0.87979656 80:0.98237955 81:0.87979656 82:0.87937632 83:0.89760565 84:0.97392801 85:0.83068461 86:0.9821852 87:0.94055798 88:0.90934752 89:0.14475729 90:0.10483828 91:0.2945306 92:-0.07499807 93:-0.0040906384 94:-0.07499807 95:0.018935651 96:0.011161763 97:0.000367746 98:-0.05300251 99:0.0061400119 100:0.041166528 101:0.0096487346 102:-0.01930156 103:-0.021212302 104:0.020964943 
0 196.5794830862395 0:0.25604803 1:0.36385665 2:0.39546473 3:1.6899501 4:0.60526149 5:1.3825493 6:0.71380859 7:1.0961937 8:0.83966515 9:0.90979163 10:0.96006044 11:0.79162579 12:0.99013907 13:0.69303308 14:0.79098655 15:0.64540253 16:0.36227711 17:0.82477006 18:-0.20701185 19:1.0267878 20:-0.54311536 21:0.96900192 22:0.45648597 23:0.81003266 24:0.13375815 25:0.72571912 26:-0.41263535 27:0.80061035 28:-0.80001585 29:0.96785029 30:-0.94312039 31:1.1161885 32:-0.9999895 33:1.3148623 34:-0.95893394 35:1.6063587 36:-0.87077588 37:1.8802943 38:-0.78867158 39:0.47828552 40:1 41:0.24002084 42:0.9132154 43:0.22154798 44:0.24131271 45:0.20295685 46:-0.29619216 47:0.27256951 48:-0.59709799 49:0.30674628 50:-0.95193108 51:0.52171448 52:-1 53:0.29294938 54:-0.99608146 55:0.15360719 56:-0.92958639 57:0.060215654 58:0.29619216 59:0.14885422 60:0.93195164 61:0.29453867 62:0.99516745 63:0.35731033 64:0.98113534 65:0.11342966 66:0.79328816 67:0.054496187 68:-0.27512738 69:0.15678686 70:-0.95829624 71:0.44407282 72:-0.9997333 73:0.15678686 74:-0.95829624 75:0.054496187 76:-0.27512738 77:0.11342966 78:0.79328816 79:0.9198309 80:0.99457957 81:0.9198309 82:0.99280034 83:0.89933922 84:0.96385989 85:0.87904039 86:0.96872603 87:0.94612701 88:0.93586891 89:0.21780452 90:0.12258858 91:0.22899527 92:-0.034963734 93:0.0081093796 94:-0.034963734 95:0.13235967 96:0.012895331 97:-0.0097003723 98:-0.0046467342 99:-0.0073191585 100:0.046735555 101:0.036170125 102:0.053745677 103:-0.0034619984 104:-0.044570383 
0 364.9725453940271 0:0.34895142 1:0.39906263 2:0.37513354 3:1.8136607 4:0.60862348 5:1.4881467 6:0.72492423 7:1.186126 8:0.87116969 9:0.91235922 10:0.97790854 11:0.72441695 12:0.97473929 13:0.59427816 14:0.67129824 15:0.63738011 16:0.1350349 17:0.82733164 18:-0.30545774 19:1.0555772 20:-0.61756457 21:0.90026054 22:0.3866802 23:0.77105997 24:-0.011678582 25:0.68656841 26:-0.46591038 27:0.67064909 28:-0.81811215 29:0.73123157 30:-0.99097724 31:0.84911644 32:-0.95105816 33:1.0527779 34:-0.81851561 35:1.3018232 36:-0.66736358 37:1.6154941 38:-0.5400082 39:0.48325745 40:1 41:0.41083792 42:0.81213494 43:0.33180052 44:0.43887463 45:0.26705126 46:0.17855197 47:0.29155642 48:-0.28634531 49:0.31324791 50:-0.81268217 51:0.51674255 52:-1 53:0.33332797 54:-0.96481859 55:0.17653368 56:-0.85943626 57:0.087201525 58:-0.17855197 59:0.12251188 60:0.78116102 61:0.2878173 62:0.98143454 63:0.39181208 64:0.99454471 65:0.21959094 66:0.58648913 67:0.17257956 68:0.21204325 69:0.18719649 70:-0.4756398 71:0.412653 72:-0.9988303 73:0.12356543 74:-0.9424787 75:0.035925506 76:0.14247463 77:0.12904647 78:0.94298058 79:0.85028851 80:0.9411568 81:0.85028851 82:0.98516915 83:0.86745576 84:0.9748852 85:0.82445468 86:0.98233314 87:0.98051731 88:0.98932442 89:0.14248006 90:0.12572985 91:0.26937493 92:-0.10450612 93:-0.045313385 94:-0.10450612 95:0.12472848 96:-0.018988128 97:0.0013249373 98:-0.059232441 99:0.006287945 100:0.081125856 101:0.089625639 102:-0.021578786 103:-0.0003207259 104:-0.0041907213 
40.19534201075139 0 0:0.65072524 1:0.41759785 2:0.4120189 3:1.9138174 4:0.50042381 5:1.4951013 6:0.61047223 7:1.0738361 8:0.74603633 9:0.78318394 10:0.92704508 11:0.58505942 12:0.98332667 13:0.54523656 14:0.59628308 15:0.69791845 16:0.098538196 17:0.89882779 18:-0.23723992 19:1.0703932 20:-0.49058167 21:1.0466666 22:0.45371156 23:0.87394611 24:0.1428047 25:0.69778191 26:-0.27316722 27:0.66073542 28:-0.73475398 29:0.77129773 30:-0.9667074 31:0.9846242 32:-0.98780956 33:1.2168809 34:-0.87452073 35:1.5416947 36:-0.73225724 37:1.9334619 38:-0.60483892 39:0.49924172 40:1 41:0.36770542 42:0.89010841 43:0.29005152 44:0.39980105 45:0.23938523 46:0.031821868 47:0.28761128 48:-0.42595376 49:0.38241491 50:-0.9030486 51:0.50075828 52:-1 53:0.43267396 54:-0.78140317 55:0.41796805 56:-0.3673208 57:0.41125853 58:-0.031821868 59:0.42873436 60:0.32254986 61:0.44428923 62:0.78810243 63:0.41785259 64:0.99997596 65:0.17834819 66:0.66874909 67:0.11003707 68:0.13209655 69:0.17147352 70:-0.67524228 71:0.41968812 72:-0.99999664 73:0.21002264 74:-0.63050581 75:0.17901152 76:0.046416032 77:0.22016958 78:0.6006437 79:0.877891 80:0.97578032 81:0.877891 82:0.56863498 83:0.87254635 84:0.95636647 85:0.83610086 86:0.96746082 87:0.93430847 88:0.92493628 89:0.17672519 90:0.10084925 91:0.36602935 92:-0.076903634 93:-0.010689872 94:-0.076903634 95:-0.29180569 96:-0.01389753 97:-0.017193796 98:-0.04758626 99:-0.0085843709 100:0.034917016 101:0.025237502 102:0.01266634 103:-0.025201329 104:0.0924637 
555.8083779182564 598.8112028683213 0:0.31165159 1:0.26672145 2:0.27581466 3:1.206886 4:0.53540738 5:1.0063349 6:0.63550952 7:0.82923141 8:0.76084957 9:0.64951906 10:0.92384866 11:0.51196498 12:0.99757869 13:0.49049949 14:0.78944163 15:0.60570887 16:0.24405621 17:0.85240086 18:-0.16936502 19:1.0300949 20:-0.52463516 21:0.99007449 22:0.46418325 23:0.85262211 24:0.10477341 25:0.68452718 26:-0.25981328 27:0.73724397 28:-0.76360455 29:0.91423854 30:-0.97589445 31:1.0453772 32:-0.99224463 33:1.2264339 34:-0.88788499 35:1.4470723 36:-0.73693314 37:1.7493047 38:-0.58990288 39:0.41125073 40:1 41:0.30639437 42:0.96120568 43:0.20070438 44:0.76085365 45:0.065407827 46:-0.02738696 47:0.21871799 48:-0.85966974 49:0.40035378 50:-0.97843184 51:0.58874927 52:-1 53:0.42923186 54:-0.94184685 55:0.28763593 56:-0.62670709 57:0.24601328 58:0.02738696 59:0.28889869 60:0.57377711 61:0.34438133 62:0.9004657 63:0.32954456 64:0.99954603 65:0.17039037 66:0.92046788 67:0.026849454 68:0.088455593 69:0.18639021 70:-0.98342552 71:0.50572623 72:-0.99999575 73:0.19123784 74:-0.94875442 75:0.10267928 76:0.10536071 77:0.17894432 78:0.9080468 79:0.99232156 80:0.99893834 81:0.99232156 82:0.86624561 83:0.93260502 84:0.97856132 85:0.95372727 86:0.97164496 87:0.90877504 88:0.96621249 89:0.11845804 90:0.1347961 91:0.28399628 92:0.037526926 93:0.01246815 94:0.037526926 95:0.005804945 96:0.046161139 97:0.0050010528 98:0.070040145 99:-0.0044002376 100:0.0093835827 101:0.066513707 102:-0.045600806 103:0.0087455147 104:0.010430625 
0 831.3328203074304 0:0.27543922 1:0.30422011 2:0.32174452 3:1.4677264 4:0.54650253 5:1.1994006 6:0.65055416 7:0.92957537 8:0.77545506 9:0.68262472 10:0.91836968 11:0.52161251 12:0.99505791 13:0.48848158 14:0.71596574 15:0.60250728 16:0.20169795 17:0.79261294 18:-0.18544524 19:0.98374514 20:-0.52906747 21:0.9627146 22:0.49810448 23:0.81477803 24:0.15821929 25:0.62075229 26:-0.2935488 27:0.5857582 28:-0.79374334 29:0.66972671 30:-0.99871443 31:0.81861166 32:-0.92615853 33:1.062316 34:-0.77335617 35:1.3553586 36:-0.6553885 37:1.628587 38:-0.53884815 39:0.45472809 40:1 41:0.32598582 42:0.97556694 43:0.17441753 44:0.80361767 45:0.0451464 46:0.11919998 47:0.19970135 48:-0.85475831 49:0.38202231 50:-0.98893767 51:0.54527191 52:-1 53:0.41442669 54:-0.92268937 55:0.29887422 56:-0.66279359 57:0.23239981 58:-0.11919998 59:0.25829291 60:0.58116383 61:0.3457511 62:0.91771295 63:0.37324186 64:0.99906506 65:0.14715013 66:0.93466531 67:0.061750868 68:-0.11430985 69:0.185675 70:-0.98406163 71:0.48392624 72:-0.99978128 73:0.185675 74:-0.98406163 75:0.061750868 76:-0.11430985 77:0.14715013 78:0.93466531 79:0.99600867 80:0.99240812 81:0.99600867 82:0.88707681 83:0.91148775 84:0.96648672 85:0.9031039 86:0.97776906 87:0.95001137 88:0.96861843 89:0.11777098 90:0.1262314 91:0.25919425 92:0.041214035 93:0.0059379361 94:0.041214035 95:0.026636139 96:0.025043868 97:-0.0070735489 98:0.019416776 99:0.001723864 100:0.050619918 101:0.068919648 102:-0.046287863 103:0.0001808185 104:-0.014371406 
1.14238761073319 0 0:0.27914088 1:0.34769322 2:0.37534251 3:1.3350386 4:0.61623396 5:1.0272823 6:0.74301654 7:0.79426838 8:0.8794531 9:0.60348888 10:0.98681785 11:0.44945825 12:0.95579451 13:0.34144545 14:0.62639561 15:0.3727665 16:0.081006675 17:0.53558075 18:-0.29702749 19:0.73582026 20:-0.643603 21:0.77089507 22:0.68287358 23:0.56365912 24:0.45586056 25:0.3549007 26:0.16361416 27:0.28402844 28:-0.57705851 29:0.34960573 30:-0.98421594 31:0.46812704 32:-0.94351723 33:0.66212447 34:-0.73106491 35:0.91230209 36:-0.59452601 37:1.1696041 38:-0.52458203 39:0.5346763 40:1 41:0.35572897 42:0.96771044 43:0.16040911 44:0.69882107 45:0.070124105 46:-0.048393704 47:0.14389293 48:-0.79901913 49:0.29656014 50:-0.98546469 51:0.46532369 52:-1 53:0.31187759 54:-0.91389583 55:0.22652516 56:-0.5074901 57:0.2086602 58:0.048393704 59:0.23041762 60:0.53857855 61:0.37871397 62:0.93810238 63:0.44204456 64:0.99979528 65:0.11904596 66:0.99994342 67:0.030276995 68:0.053609126 69:0.11409212 70:-0.99220684 71:0.37834384 72:-0.99932882 73:0.11409212 74:-0.99220684 75:0.030276995 76:0.053609126 77:0.12582829 78:0.97073587 79:0.98958646 80:0.99836737 81:0.98958646 82:0.91012123 83:0.88208372 84:0.97784345 85:0.87044306 86:0.97404449 87:0.92477612 88:0.86483447 89:0.19560239 90:0.12797242 91:0.30198978 92:0.03479183 93:0.011897177 94:0.03479183 95:0.049680559 96:-0.0043601594 97:0.0042831818 98:-0.01324406 99:-0.0020007068 100:0.025384661 101:-0.034864317 102:0.031543548 103:0.0019218374 104:0.028424129 
0 186.3942195705521 0:0.3098419 1:0.18570349 2:0.1663774 3:1.3510865 4:0.40552822 5:1.1304719 6:0.46869377 7:0.85145119 8:0.55870703 9:0.58998677 10:0.69341221 11:0.36870013 12:0.88653135 13:0.22921984 14:0.85372522 15:0.38726023 16:-0.028627963 17:0.77517474 18:-0.33943057 19:0.98809655 20:-0.55339992 21:0.93952631 22:0.48235738 23:0.79383983 24:0.063279624 25:0.66772855 26:-0.46870663 27:0.72073322 28:-0.9007533 29:0.93023455 30:-0.99859519 31:1.1822488 32:-0.9413053 33:1.4376617 34:-0.82856771 35:1.7482164 36:-0.6889594 37:2.1420763 38:-0.55848646 39:0.31391726 40:1 41:0.21642382 42:0.99512285 43:0.098148441 44:0.96173584 45:0.0043819971 46:-0.12091507 47:0.10105094 48:-0.96689861 49:0.37462719 50:-0.99921182 51:0.68608274 52:-1 53:0.48077592 54:-0.8503938 55:0.36120691 56:-0.47776033 57:0.31949027 58:-0.12091507 59:0.28409683 60:0.22159919 61:0.27675815 62:0.72399975 63:0.2412387 64:0.99465683 65:0.10098864 66:0.8179028 67:0.080423802 68:-0.15354587 69:0.12820668 70:-0.8915111 71:0.60716355 72:-0.99987994 73:0.15528339 74:-0.76042611 75:0.10230751 76:-0.14338339 77:0.11100293 78:0.72669416 79:0.99929756 80:0.98257191 81:0.99929756 82:0.75375194 83:0.98010423 84:0.98814526 85:0.99446647 86:0.97661179 87:0.99624299 88:0.99153783 89:0.12532352 90:0.13678162 91:0.28401542 92:0.044502925 93:-0.0038982784 94:0.044502925 95:-0.10668872 96:0.093660341 97:0.014584991 98:0.11077935 99:0.0005665987 100:0.096851532 101:0.091839047 102:-0.038735322 103:0.010731035 104:0.010449772 
14.6623274480213 0 0:0.22412307 1:0.35458738 2:0.40797039 3:1.7141289 4:0.71665344 5:1.4270516 6:0.83667527 7:1.2126752 8:0.94552343 9:1.0190083 10:0.99987861 11:0.96318593 12:0.93000581 13:0.84386581 14:0.69675182 15:0.82838893 16:0.2549992 17:0.99016444 18:-0.23949921 19:1.1733371 20:-0.52557937 21:1.0692785 22:0.35848306 23:0.88418541 24:0.12550357 25:0.68923502 26:-0.13863962 27:0.45119601 28:-0.54612993 29:0.34764189 30:-0.99112548 31:0.52103293 32:-0.84778397 33:0.77039009 34:-0.68404758 35:1.0019128 36:-0.53870913 37:1.2332365 38:-0.42465791 39:0.6601586 40:1 41:0.37519498 42:0.99461605 43:0.13369986 44:0.9334429 45:0.019319538 46:0.037362166 47:0.14675777 48:-0.92688314 49:0.29485007 50:-0.98854104 51:0.3398414 52:-1 53:0.30095423 54:-0.86761782 55:0.23448029 56:-0.57629294 57:0.20504013 58:-0.037362166 59:0.24205927 60:0.51174668 61:0.41594744 62:0.91235198 63:0.58939795 64:0.99958748 65:0.15669109 66:0.82778928 67:0.084522905 68:0.015611929 69:0.14674277 70:-0.90361221 71:0.27797658 72:-0.99271528 73:0.14674277 74:-0.90361221 75:0.084522905 76:0.015611929 77:0.15669109 78:0.82778928 79:0.99913212 80:0.98612653 81:0.99913212 82:0.91360948 83:0.85164724 84:0.98299314 85:0.82077783 86:0.9709655 87:0.87815135 88:0.92029698 89:0.19742901 90:0.11868688 91:0.21233504 92:0.044337492 93:-0.0003436582 94:0.044337492 95:0.053168812 96:-0.034796647 97:0.009432877 98:-0.062909288 99:-0.0050796949 100:-0.021240102 101:0.0205982 102:0.033370167 103:-0.0073636964 104:-0.061230616 
0 287.7726752512073 0:0.43222795 1:0.30760026 2:0.34176386 3:1.4318391 4:0.71772643 5:1.1629087 6:0.83916254 7:0.97670699 8:0.94947652 9:0.84308762 10:0.99999187 11:0.73128756 12:0.9170501 13:0.69334692 14:0.65323799 15:0.70817478 16:0.14606919 17:0.82437513 18:-0.30044844 19:0.96135115 20:-0.57911004 21:0.90041092 22:0.49229956 23:0.72617222 24:0.22653993 25:0.48742934 26:-0.10499507 27:0.33811021 28:-0.56561715 29:0.31637221 30:-0.99092355 31:0.4400373 32:-0.88402235 33:0.64233308 34:-0.69025244 35:0.90040782 36:-0.54204208 37:1.1317359 38:-0.41154064 39:0.5653993 40:1 41:0.38010567 42:0.87744473 43:0.28642473 44:0.42580812 45:0.21147664 46:0.0057232953 47:0.28230439 48:-0.47592279 49:0.33903784 50:-0.87134259 51:0.4346007 52:-1 53:0.34205818 54:-0.90569461 55:0.25025691 56:-0.57039898 57:0.22076688 58:-0.0057232953 59:0.26302581 60:0.57924297 61:0.38768013 62:0.91913531 63:0.43687225 64:0.9998316 65:0.17581357 66:0.78585859 67:0.087959973 68:-0.036579061 69:0.1711185 70:-0.7668502 71:0.32702302 72:-0.99974981 73:0.13884595 74:-0.97467802 75:0.047182576 76:0.070069322 77:0.14838071 78:0.96948335 79:0.90594879 80:0.98434122 81:0.90594879 82:0.89747338 83:0.91516562 84:0.9858037 85:0.88546139 86:0.98154111 87:0.88774492 88:0.85291361 89:0.17204992 90:0.093028423 91:0.30192244 92:-0.048845839 93:-0.0021289674 94:-0.048845839 95:0.037032713 96:0.028721731 97:0.012243434 98:0.0017742666 99:0.0054959166 100:-0.011646535 101:-0.046785177 102:0.007991071 103:-0.033022157 104:0.028356787 
0 780.2046133997802 0:0.32375623 1:0.43532535 2:0.45635488 3:1.1292204 4:0.49927541 5:0.90211837 6:0.60254392 7:0.69031213 8:0.74502805 9:0.50597588 10:0.93332658 11:0.43381911 12:0.98060854 13:0.4410931 14:0.70857719 15:0.54234555 16:0.16428378 17:0.78137214 18:-0.28625655 19:0.99137707 20:-0.59463863 21:0.89655245 22:0.45785263 23:0.74141969 24:0.085756488 25:0.66283057 26:-0.46116177 27:0.75166895 28:-0.8112421 29:0.86096479 30:-0.9676698 31:0.97658402 32:-0.99577094 33:1.1556111 34:-0.93753909 35:1.4038174 36:-0.84352949 37:1.6272283 38:-0.72634678 39:0.40782801 40:1 41:0.31772453 42:0.89415858 43:0.24683053 44:0.56152716 45:0.19420007 46:-0.0052211206 47:0.2456174 48:-0.62271065 49:0.37772481 50:-0.95268709 51:0.59217199 52:-1 53:0.37373361 54:-0.97042765 55:0.2058969 56:-0.77331149 57:0.12945784 58:0.0052211206 59:0.17579042 60:0.79956918 61:0.29573233 62:0.97997577 63:0.30846228 64:0.9991125 65:0.16054755 66:0.88286179 67:0.076052948 68:0.0063342236 69:0.16648205 70:-0.90040931 71:0.49943227 72:-0.99981335 73:0.16648205 74:-0.90040931 75:0.076052948 76:0.0063342236 77:0.16054755 78:0.88286179 79:0.9260866 80:0.99003277 81:0.9260866 82:0.96280382 83:0.79545562 84:0.95115602 85:0.78469491 86:0.97914894 87:0.92133207 88:0.96431146 89:0.2836506 90:0.094411762 91:0.25345887 92:-0.028708034 93:0.0035625849 94:-0.028708034 95:0.10236315 96:-0.090988268 97:-0.022404246 98:-0.09899221 99:0.0031037449 100:0.021940618 101:0.064612682 102:0.11959176 103:-0.031638818 104:-0.020106785 
520.1206412746174 233.2043505967109 0:0.16414897 1:0.30326646 2:0.33900407 3:1.7489962 4:0.6299115 5:1.5065192 6:0.72487779 7:1.2706525 8:0.84277464 9:1.0645991 10:0.9527373 11:0.8187182 12:0.99036168 13:0.70391774 14:0.78303848 15:0.75533162 16:0.29362084 17:0.91748656 18:-0.16695437 19:1.0625191 20:-0.47689915 21:1.0561808 22:0.4670465 23:0.8945678 24:0.26281995 25:0.5791072 26:0.039839069 27:0.32734525 28:-0.59049726 29:0.31209707 30:-0.99935244 31:0.49722163 32:-0.79073804 33:0.77959202 34:-0.57786494 35:1.0216789 36:-0.46305675 37:1.2467417 38:-0.38014117 39:0.58299737 40:1 41:0.36460273 42:0.99847366 43:0.092794437 44:0.99549646 45:0.041123817 46:-0.012210603 47:0.10721737 48:-0.99999401 49:0.2663932 50:-0.99942273 51:0.41700263 52:-1 53:0.30352997 54:-0.88061817 55:0.22440313 56:-0.49979442 57:0.20524696 58:-0.012210603 59:0.22451151 60:0.44255637 61:0.39895206 62:0.94171609 63:0.52354896 64:0.99943298 65:0.12841737 66:0.73822873 67:0.091571765 68:0.021430945 69:0.13011928 70:-0.83421403 71:0.33782863 72:-0.99624496 73:0.13011928 74:-0.83421403 75:0.091571765 76:0.021430945 77:0.12841737 78:0.73822873 79:0.99634556 80:0.98251562 81:0.99634556 82:0.91040792 83:0.89745978 84:0.9857342 85:0.83509082 86:0.98504812 87:0.94264604 88:0.72717749 89:0.15159303 90:0.15067806 91:0.22533431 92:0.041550931 93:-0.0039545634 94:0.041550931 95:0.04996725 96:0.011015891 97:0.012173933 98:-0.048596303 99:0.0090029292 100:0.043254588 101:-0.17252129 102:-0.012465811 103:0.024627484 104:-0.048231338 
37.687262080935 0 0:0.31500698 1:0.2934614 2:0.30487299 3:1.2523019 4:0.5907484 5:0.89193487 6:0.74585077 7:0.65550794 8:0.94335752 9:0.56841174 10:0.97400923 11:0.59377907 12:0.69591278 13:0.69989795 14:0.36060469 15:0.87035489 16:0.013898253 17:1.0326271 18:-0.22219065 19:1.182918 20:-0.44384383 21:1.161565 22:0.40890451 23:1.0273717 24:0.18758883 25:0.77755506 26:-0.13240561 27:0.68033709 28:-0.55316954 29:0.70671743 30:-0.89502518 31:0.74873176 32:-0.99923315 33:0.90335593 34:-0.91007962 35:1.16667 36:-0.76400288 37:1.4318133 38:-0.65473939 39:0.49600311 40:1 41:0.285536 42:0.95936009 43:0.19390486 44:0.55993225 45:0.12363446 46:0.043520539 47:0.21570754 48:-0.60223962 49:0.31225259 50:-0.96172211 51:0.50399689 52:-1 53:0.33122879 54:-0.92471148 55:0.22839871 56:-0.62336396 57:0.19189828 58:-0.043520539 59:0.21811375 60:0.58612452 61:0.32189498 62:0.90384993 63:0.41289202 64:0.99968623 65:0.10731491 66:0.99870346 67:0.0015744854 68:0.24097616 69:0.13045983 70:-0.99712744 71:0.43222955 72:-0.99911749 73:0.13045983 74:-0.99712744 75:0.0015744854 76:0.24097616 77:0.10731491 78:0.99870346 79:0.96908557 80:0.99999488 81:0.96908557 82:0.92362843 83:0.92226911 84:0.98434291 85:0.92499505 86:0.98500365 87:0.83689061 88:0.86319757 89:0.16344401 90:0.13991838 91:0.26803683 92:0.014290936 93:0.01352469 94:0.014290936 95:0.063187765 96:0.03582523 97:0.01078264 98:0.041307927 99:0.0089584585 100:-0.062500844 101:-0.036501212 102:-0.0006148323 103:0.013867801 104:-0.0055288183 
520.7421680584907 0 0:0.25261913 1:0.4426265 2:0.44325314 3:1.1357054 4:0.39944382 5:0.87627686 6:0.54988521 7:0.62060842 8:0.73306133 9:0.42044762 10:0.96022292 11:0.37980365 12:0.91959055 13:0.47403909 14:0.49708995 15:0.6481254 16:0.078869848 17:0.83953751 18:-0.16225697 19:1.0049169 20:-0.39714022 21:1.1007598 22:0.54590213 23:0.93173347 24:0.28647562 25:0.76053777 26:-0.11908 27:0.76682444 28:-0.60852697 29:0.84386502 30:-0.92311217 31:0.96676755 32:-0.99989237 33:1.1160513 34:-0.93949638 35:1.2732776 36:-0.83588567 37:1.50528 38:-0.69822342 39:0.38601044 40:1 41:0.23295262 42:0.9959214 43:0.12932563 44:0.92004407 45:0.0041297625 46:0.064039004 47:0.13479898 48:-0.93176448 49:0.36833725 50:-0.99686281 51:0.61398956 52:-1 53:0.41655851 54:-0.90124337 55:0.2792932 56:-0.53562934 57:0.24976534 58:-0.064039004 59:0.25133121 60:0.41865272 61:0.29035025 62:0.81004981 63:0.31805212 64:0.99808854 65:0.13705023 66:0.77834438 67:0.10317922 68:-0.11987466 69:0.16468085 70:-0.83932318 71:0.54726071 72:-0.99900431 73:0.16468085 74:-0.83932318 75:0.10317922 76:-0.11987466 77:0.13705023 78:0.77834438 79:0.9999972 80:0.97676662 81:0.9999972 82:0.86159046 83:0.77811817 84:0.97470357 85:0.8565747 86:0.96686449 87:0.84614758 88:0.93805847 89:0.14750814 90:0.10877649 91:0.22812612 92:0.04520257 93:-0.0097035711 94:0.04520257 95:0.0011497945 96:-0.10832572 97:0.001143306 98:-0.027112425 99:-0.0091807043 100:-0.053243875 101:0.038359689 102:-0.016550709 103:-0.017274093 104:-0.045439535 
0 94.33289847808074 0:0.46615433 1:0.55059457 2:0.45423824 3:1.4465138 4:0.30244386 5:1.1458652 6:0.40782284 7:0.78418348 8:0.51308113 9:0.42462507 10:0.6971672 11:0.17989062 12:0.97773536 13:0.36637612 14:0.08945697 15:0.67240151 16:-0.13434937 17:0.95580132 18:-0.25735171 19:1.1531016 20:-0.49200119 21:1.0931553 22:0.39580163 23:0.96480252 24:-0.0015315754 25:0.89810131 26:-0.56821865 27:1.0243903 28:-0.91320478 29:1.2763119 30:-0.99856446 31:1.5453263 32:-0.9482302 33:1.8110404 34:-0.86492156 35:2.0583171 36:-0.77111091 37:2.3406626 38:-0.67386042 39:0.26547932 40:1 41:0.301838 42:0.84110331 43:0.29299798 44:0.55095199 45:0.20567582 46:0.16343697 47:0.28878466 48:-0.50985175 49:0.45060608 50:-0.93759002 51:0.73452068 52:-1 53:0.54342458 54:-0.93139614 55:0.35594949 56:-0.6703556 57:0.27504033 58:-0.16343697 59:0.25606143 60:0.39348758 61:0.24227191 62:0.82577126 63:0.18457608 64:0.9986548 65:0.13054718 66:0.94455031 67:0.0092498154 68:-0.38574521 69:0.18890153 70:-0.99443494 71:0.63197775 72:-0.99949996 73:0.18890153 74:-0.99443494 75:0.0092498154 76:-0.38574521 77:0.13054718 78:0.94455031 79:0.93654546 80:0.9995335 81:0.93654546 82:0.81335871 83:0.78614012 84:0.9110735 85:0.93237026 86:0.87656382 87:0.56845107 88:0.94187831 89:0.12606295 90:0.11344634 91:0.29448063 92:-0.018249173 93:0.013063313 94:-0.018249173 95:-0.047081956 96:-0.10030376 97:-0.062486768 98:0.048683137 99:-0.099481378 100:-0.33094039 101:0.042179524 102:-0.037995896 103:-0.012604238 104:0.020914975 
36.47583559191671 264.8195951283415 0:0.21892234 1:0.31562634 2:0.21760484 3:1.1647234 4:0.43515026 5:0.91562943 6:0.56640035 7:0.65128273 8:0.69272838 9:0.37851776 10:0.90484531 11:0.24480217 12:0.80864399 13:0.39404296 14:0.031082234 15:0.61891474 16:-0.19248099 17:0.83945855 18:-0.31664161 19:1.030701 20:-0.54736622 21:0.96643817 22:0.45096427 23:0.8163943 24:0.15385741 25:0.64038104 26:-0.18661432 27:0.52378714 28:-0.69998895 29:0.59292963 30:-0.98747039 31:0.798118 32:-0.96275656 33:1.0165738 34:-0.85576458 35:1.2736982 36:-0.71847711 37:1.5234904 38:-0.57507661 39:0.38285736 40:1 41:0.25700821 42:0.99362645 43:0.13983988 44:0.91878455 45:0.089754378 46:0.097882792 47:0.15545449 48:-0.96644778 49:0.37852296 50:-0.99038805 51:0.61714264 52:-1 53:0.4356528 54:-0.87902768 55:0.34684244 56:-0.45580128 57:0.30921924 58:0.097882792 59:0.31357332 60:0.51354728 61:0.28560642 62:0.82300057 63:0.33391155 64:0.99169897 65:0.17958063 66:0.78381295 67:0.14034173 68:0.068251717 69:0.18478117 70:-0.83334618 71:0.56513441 72:-0.99890406 73:0.18478117 74:-0.83334618 75:0.14034173 76:0.068251717 77:0.17958063 78:0.78381295 79:0.98280585 80:0.95821113 81:0.98280585 82:0.78263041 83:0.94421683 84:0.97409338 85:0.98477354 86:0.96852202 87:0.76187588 88:0.95459422 89:0.15129283 90:0.1481432 91:0.2529064 92:0.02801122 93:-0.028259057 94:0.02801122 95:-0.077810254 96:0.057772942 97:0.0005331126 98:0.10108641 99:-0.0075231744 100:-0.13751557 101:0.054895438 102:-0.012766016 103:0.022092616 104:-0.020659253 
9.301339276397574 46.57059132299699 0:0.62280644 1:0.65462469 2:0.50927452 3:1.4398738 4:0.30304866 5:1.1272492 6:0.35411779 7:0.84033651 8:0.40850067 9:0.53296896 10:0.44949019 11:0.22573464 12:0.43546245 13:0.32137083 14:-0.34695278 15:0.67635488 16:-0.45509577 17:1.0952769 18:-0.44447503 19:1.335309 20:-0.61364393 21:1.0696923 22:0.16882965 23:0.98926683 24:-0.23961325 25:1.0069366 26:-0.78814298 27:1.336736 28:-0.97867102 29:1.7527434 30:-0.9977022 31:1.9874685 32:-0.95339363 33:2.2207326 34:-0.86768782 35:2.4607419 36:-0.78939261 37:2.7330279 38:-0.72469991 39:0.32348239 40:1 41:0.42342816 42:0.68412708 43:0.27918869 44:0.50301076 45:0.18154107 46:0.17809164 47:0.20631156 48:-0.36534496 49:0.4145231 50:-0.98547469 51:0.67651761 52:-1 53:0.61456276 54:-0.79004459 55:0.49814245 56:-0.40545613 57:0.47251597 58:-0.17809164 59:0.41559994 60:0.11428571 61:0.28973636 62:0.64521584 63:0.27318625 64:0.99902373 65:0.13353747 66:0.89120341 67:0.028238627 68:0.32381263 69:0.14936428 70:-0.98478839 71:0.57889435 72:-0.99315751 73:0.21638095 74:-0.71274632 75:0.13466418 76:-0.17536866 77:0.1395081 78:0.72428733 79:0.95920567 80:0.99991736 81:0.95920567 82:0.26984525 83:0.62293693 84:0.93418475 85:0.85062278 86:0.91347046 87:0.86002748 88:0.95821735 89:0.095124688 90:0.1160824 91:0.36074098 92:0.0044110385 93:0.013447176 94:0.0044110385 95:-0.59059542 96:-0.26350695 97:-0.039375516 98:-0.03306434 99:-0.06257473 100:-0.03936398 101:0.05851857 102:-0.068934158 103:-0.0099681791 104:0.087175324 
1000 0 0:0.4476278 1:0.24214885 2:0.31706733 3:1.4255624 4:0.55375437 5:1.1682235 6:0.66672784 7:0.89880353 8:0.81059005 9:0.69492331 10:0.96551315 11:0.55503204 12:0.96988503 13:0.53039786 14:0.54576746 15:0.59625072 16:0.036071203 17:0.77111328 18:-0.27003517 19:0.93267969 20:-0.52881489 21:0.93992637 22:0.53917531 23:0.73650998 24:0.23471242 25:0.51209602 26:-0.15526913 27:0.45257138 28:-0.72805383 29:0.52443574 30:-0.98011858 31:0.65727181 32:-0.96483242 33:0.81808107 34:-0.84460845 35:1.0120506 36:-0.71831292 37:1.2225443 38:-0.62319999 39:0.53994715 40:1 41:0.32361278 42:0.9933629 43:0.1241937 44:0.82984767 45:0.041035629 46:-0.089243974 47:0.13668863 48:-0.87227532 49:0.29865776 50:-0.99964521 51:0.46005285 52:-1 53:0.38015992 54:-0.6998655 55:0.38353222 56:-0.27917923 57:0.40636773 58:0.089243974 59:0.42857984 60:0.36680216 61:0.46220015 62:0.77419527 63:0.46908266 64:0.99888386 65:0.124108 66:0.93578733 67:0.05182381 68:0.063584114 69:0.12583666 70:-0.92208018 71:0.37593735 72:-0.992713 73:0.21782668 74:-0.5064432 75:0.1911349 76:0.087310947 77:0.2244154 78:0.58267582 79:0.99628359 80:0.9950127 81:0.99628359 82:0.58764083 83:0.94787723 84:0.97423051 85:0.92760539 86:0.97593811 87:0.97789462 88:0.96921099 89:0.15869062 90:0.083334148 91:0.32714868 92:0.041488956 93:0.0085425107 94:0.041488956 95:-0.27279984 96:0.061433342 97:0.0006702424 98:0.043918265 99:-0.0001070835 100:0.078503163 101:0.069512209 102:-0.0053682296 103:-0.042716433 104:0.053583026 
0 254.6444255351201 0:0.50749065 1:0.44645736 2:0.39992386 3:1.3752035 4:0.61604253 5:1.1470772 6:0.72470681 7:0.94727364 8:0.83811639 9:0.76023314 10:0.95778802 11:0.66362012 12:0.99316572 13:0.67522414 14:0.82464454 15:0.76826047 16:0.47412167 17:0.89114172 18:-0.039401185 19:1.0233686 20:-0.48698742 21:1.0249625 22:0.48941533 23:0.84714491 24:0.048643909 25:0.76234464 26:-0.36970873 27:0.80609294 28:-0.6764479 29:0.83891347 30:-0.86490504 31:0.84729659 32:-0.98414024 33:0.93034877 34:-0.97897675 35:1.1483624 36:-0.84673478 37:1.3875916 38:-0.71933431 39:0.46202226 40:1 41:0.40323263 42:0.80918223 43:0.3673611 44:0.38840646 45:0.32176825 46:0.023621634 47:0.36653818 48:-0.40558361 49:0.41301284 50:-0.8368792 51:0.53797774 52:-1 53:0.40360869 54:-0.94337035 55:0.25073651 56:-0.73314046 57:0.18601915 58:-0.023621634 59:0.22896338 60:0.66695053 61:0.34686501 62:0.92979391 63:0.33867706 64:0.99828219 65:0.21808312 66:0.66347591 67:0.16339709 68:-0.0030456556 69:0.22271832 70:-0.72210808 71:0.40116892 72:-0.99973298 73:0.165493 74:-0.99728904 75:0.010536879 76:0.078004453 77:0.14884824 78:0.99421398 79:0.76655516 80:0.94543059 81:0.76655516 82:0.92791058 83:0.58743519 84:0.99786416 85:0.69142711 86:0.99811718 87:0.9137288 88:0.91554681 89:0.14192788 90:0.091913875 91:0.30068835 92:-0.18823947 93:-0.041039599 94:-0.18823947 95:0.067469914 96:-0.29900869 97:0.024303892 98:-0.19226001 99:0.022071989 100:0.014337342 101:0.015848028 102:-0.022130967 103:-0.034136706 104:0.0271227 
13.7501887845373 0 0:0.23197923 1:0.294812 2:0.28161921 3:1.3924537 4:0.34689816 5:1.1392601 6:0.48982273 7:0.8572972 8:0.67168847 9:0.63570629 10:0.89893678 11:0.50067041 12:0.98360433 13:0.47910047 14:0.54678614 15:0.66078748 16:0.058363969 17:0.8603054 18:-0.23619547 19:1.0232562 20:-0.50182217 21:1.0099841 22:0.48169805 23:0.8297954 24:0.19899638 25:0.64524808 26:-0.13885416 27:0.53983195 28:-0.64700141 29:0.53197204 30:-0.96843611 31:0.69900058 32:-0.96610993 33:0.86362621 34:-0.84971127 35:1.0311205 36:-0.70865518 37:1.2461085 38:-0.59732463 39:0.48951119 40:1 41:0.32991545 42:0.97862235 43:0.1518827 44:0.67114679 45:0.092279139 46:0.036106602 47:0.15199025 48:-0.71800376 49:0.32666116 50:-0.97916165 51:0.51048881 52:-1 53:0.34436184 54:-0.96754574 55:0.18431402 56:-0.62453676 57:0.14021055 58:-0.036106602 59:0.17954537 60:0.6150005 61:0.32838075 62:0.9592816 63:0.42069438 64:0.99999972 65:0.11079444 66:0.96988766 67:0.014289442 68:0.21039551 69:0.10849161 70:-0.98560837 71:0.44321786 72:-0.99910172 73:0.11156939 74:-0.97494654 75:0.029693089 76:0.039833314 77:0.10811276 78:0.97498824 79:0.98306518 80:0.99964121 81:0.98306518 82:0.95979491 83:0.89792338 84:0.99572921 85:0.89811674 86:0.99483681 87:0.82525594 88:0.86916348 89:0.15756473 90:0.12886768 91:0.2310634 92:0.028270544 93:0.013171021 94:0.028270544 95:0.099354247 96:0.011479497 97:0.02216895 98:0.014429615 99:0.018791616 100:-0.074135513 101:-0.030535298 102:-0.0064941119 103:0.0028170985 104:-0.042502248 
