svm_type c_svc
kernel_type rbf
gamma 0.03125
nr_class 3
total_sv 378
rho -0.32333 -4.8954 -1.23623
label -1 1 0
nr_sv 160 77 141
SV
0 7 1:0.22938972 2:0.22503389 3:0.22489777 4:1.9719734 5:0.45065477 6:1.5911584 7:0.54017658 8:1.2173158 9:0.63286114 10:0.8885663 11:0.76704179 12:0.59958864 13:0.92879354 14:0.36857707 15:0.97814684 16:0.32772249 17:0.28254993 18:0.54479993 19:-0.32101903 20:0.74703089 21:-0.62229908 22:0.79265496 23:0.67510253 24:0.58847174 25:0.37784522 26:0.38851434 27:-0.13598002 28:0.40960883 29:-0.88795823 30:0.60668745 31:-0.9913694 32:0.85671598 33:-0.89466424 34:1.1477244 35:-0.76911195 36:1.4919717 37:-0.66937847 38:1.8432791 39:-0.58503048 40:0.52564915 41:1 42:0.298268 43:0.99593983 44:0.14013233 45:0.83450317 46:0.042709286 47:-0.092696063 48:0.15794696 49:-0.86126671 50:0.29418139 51:-0.99722119 52:0.47435086 53:-1 54:0.29949738 55:-0.94414465 56:0.19772877 57:-0.58081746 58:0.18745441 59:0.092696063 60:0.22248325 61:0.67500562 62:0.32520041 63:0.94559201 64:0.41722427 65:0.99966862 66:0.14323306 67:0.97552561 68:0.054433758 69:0.1272438 70:0.13176884 71:-0.95196547 72:0.39038948 73:-0.99944006 74:0.12507482 75:-0.99943362 76:0.01831605 77:-0.25576869 78:0.12817694 79:0.99839602 80:0.99632502 81:0.99419408 82:0.99632502 83:0.92778054 84:0.97445519 85:0.97435094 86:0.96920591 87:0.97906583 88:0.97318602 89:0.96341115 90:0.2116861 91:0.12183679 92:0.24367359 93:0.023258598 94:-0.002240443 95:0.023258598 96:0.017306818 97:0.075062036 98:-0.001299927 99:0.070345791 100:0.0022837617 101:0.052933225 102:0.040330614 103:0.060895426 104:-0.01690316 105:-0.024407629 
0 7 1:0.37931034 2:0.20325203 3:0.25806452 4:1.657536 5:0.66314518 6:1.3743685 7:0.776114 8:1.0944551 9:0.89883983 10:0.89108807 11:0.99084127 12:0.72508293 13:0.95307293 14:0.68471504 15:0.67679926 16:0.76118578 17:0.19652692 18:0.88498465 19:-0.23517931 20:1.0548636 21:-0.56108671 22:0.96384505 23:0.42343951 24:0.79052656 25:0.026739407 26:0.61639744 27:-0.39041435 28:0.52678912 29:-0.83957016 30:0.53748385 31:-0.99227788 32:0.73066773 33:-0.82339207 34:0.97807953 35:-0.63838392 36:1.2702559 37:-0.48770659 38:1.562605 39:-0.36420317 40:0.51788269 41:1 42:0.35886136 43:0.92658859 44:0.25064312 45:0.61953054 46:0.15777586 47:0.025742539 48:0.22919101 49:-0.5782243 50:0.33746428 51:-0.92272167 52:0.48211731 53:-1 54:0.37317381 55:-0.88235501 56:0.26994661 57:-0.62946592 58:0.22121152 59:-0.025742539 60:0.26505507 61:0.5122289 62:0.37484999 63:0.91309308 64:0.42196026 65:0.9999703 66:0.14752789 67:0.97540164 68:0.032896866 69:-0.76623534 70:0.16894684 71:-0.98652423 72:0.39154688 73:-0.99875753 74:0.14878398 75:-1 76:0.0097925225 77:-0.74756657 78:0.16185865 79:0.99954576 80:0.94936468 81:0.99926574 82:0.94936468 83:0.89580642 84:0.98799724 85:0.96771877 86:0.97600638 87:0.95692884 88:0.9556962 89:0.94052918 90:0.2039801 91:0.12437811 92:0.28855721 93:-0.023701746 94:0.0028312181 95:-0.023701746 96:-0.014667308 97:0.088604083 98:-0.0079320985 99:0.077146258 100:-0.019853234 101:0.035443405 102:0.017448644 103:0.053189429 104:-0.014361844 105:0.020476 
0 7 1:0.265625 2:0.1875 3:0.1875 4:1.5623093 5:0.5874283 6:1.2487729 7:0.71478517 8:0.959263 9:0.85519441 10:0.72693565 11:0.98614781 12:0.63614963 13:0.91508859 14:0.6939538 15:0.53110504 16:0.84725576 17:0.10774351 18:1.0458141 19:-0.22381962 20:1.1976912 21:-0.49521689 22:1.1172423 23:0.36418517 24:0.96875775 25:0.031746028 26:0.8155494 27:-0.33011045 28:0.70736562 29:-0.71806237 30:0.68332058 31:-0.98015247 32:0.810295 33:-0.94976213 34:1.0249511 35:-0.80205282 36:1.3202207 37:-0.65095884 38:1.6183292 39:-0.52501436 40:0.49219467 41:1 42:0.35579408 43:0.93883002 44:0.23208241 45:0.69572215 46:0.133148 47:0.043118722 48:0.23207227 49:-0.71779382 50:0.35578054 51:-0.94912681 52:0.50780533 53:-1 54:0.34029151 55:-0.98443818 56:0.21442513 57:-0.82923008 58:0.13290369 59:-0.043118722 60:0.20152738 61:0.82300645 62:0.34315709 63:0.98193844 64:0.42971547 65:0.9994191 66:0.17852756 67:0.91262861 68:0.07085697 69:-0.12565723 70:0.185235 71:-0.89270191 72:0.43027321 73:-0.99923367 74:0.17851438 75:-0.92494261 76:0.055355684 77:-0.15643578 78:0.17852756 79:0.91262861 80:0.96407643 81:0.99006293 82:0.96407643 83:0.96407643 84:0.92702481 85:1 86:0.9390612 87:0.9995116 88:0.88333088 89:0.90246212 90:0.12048193 91:0.12048193 92:0.22289157 93:-0.0089899935 94:-0.0063715923 95:-0.0089899935 96:0.053602704 97:0.027631657 98:0.024349136 99:0.04020108 100:0.022729529 101:-0.03692192 102:-0.020618417 103:-0.030308742 104:-0.018258025 105:-0.045189648 
7 7 1:0.37986411 2:0.17080745 3:0.16212121 4:1.3970151 5:0.51889133 6:1.1181515 7:0.63098554 8:0.85765704 9:0.78206299 10:0.63968274 11:0.94780624 12:0.49542913 13:0.9764543 14:0.46880918 15:0.60309179 16:0.6248527 17:0.073392305 18:0.87084269 19:-0.26762421 20:1.0478933 21:-0.50525879 22:1.0193948 23:0.46159022 24:0.85416693 25:0.20802064 26:0.62516248 27:-0.1173341 28:0.4438986 29:-0.58758616 30:0.43119238 31:-0.98387812 32:0.57861046 33:-0.92279381 34:0.81543445 35:-0.73104173 36:1.0827621 37:-0.57374691 38:1.3702277 39:-0.46088743 40:0.5024028 41:1 42:0.32115032 43:0.97752125 44:0.17812908 45:0.73910133 46:0.085877965 47:0.023148012 48:0.17598942 49:-0.73649764 50:0.32745271 51:-0.97849465 52:0.4975972 53:-1 54:0.37127712 55:-0.87715079 56:0.31188336 57:-0.4714623 58:0.29409883 59:-0.023148012 60:0.3014829 61:0.45467485 62:0.35714056 63:0.88846169 64:0.41932542 65:0.99931265 66:0.13014206 67:0.97507301 68:0.040780967 69:-0.023148012 70:0.1376416 71:-0.97625443 72:0.42520136 73:-0.99879003 74:0.15946708 75:-0.82668188 76:0.10024055 77:-0.057981152 78:0.15341141 79:0.84772829 80:0.98514738 81:0.99667074 82:0.98514738 83:0.80884835 84:0.96410316 85:0.99710119 86:0.96122722 87:0.99874922 88:0.94747114 89:0.93533524 90:0.1565569 91:0.10803004 92:0.28567302 93:0.012080956 94:0.0002362157 95:0.012080956 96:-0.10162537 97:0.064710008 98:0.021450322 99:0.062367095 100:0.021967147 101:0.027218344 102:0.012254711 103:0.0057662334 104:-0.030709912 105:0.017591807 
0 7 1:0.30594059 2:0.44078947 3:0.3990461 4:2.0254739 5:0.50398936 6:1.6639981 7:0.59818213 8:1.2960113 9:0.71597412 10:0.95957215 11:0.86777302 12:0.71469864 13:0.99410535 14:0.55966313 15:0.85413204 16:0.63227264 17:0.30302749 18:0.86624795 19:-0.13973894 20:1.0928378 21:-0.48186458 22:1.0682204 23:0.44316711 24:0.90509566 25:0.048981647 26:0.74571508 27:-0.43476352 28:0.70955588 29:-0.87472049 30:0.86089104 31:-0.99903663 32:1.1267067 33:-0.91320383 34:1.435654 35:-0.77576069 36:1.7876903 37:-0.66289022 38:2.1578513 39:-0.56275462 40:0.48171501 41:1 42:0.30770828 43:0.94283787 44:0.1858697 45:0.59643494 46:0.096776836 47:-0.017651726 48:0.19912129 49:-0.69974218 50:0.33413561 51:-0.96156149 52:0.51828499 53:-1 54:0.33972408 55:-0.9230486 56:0.24558396 57:-0.5500889 58:0.20897628 59:0.017651726 60:0.24490256 61:0.58331811 62:0.33172816 63:0.89548654 64:0.38434487 65:0.99957687 66:0.12129714 67:0.99658006 68:0.015047227 69:-0.31848515 70:0.14323065 71:-0.99970657 72:0.40727123 73:-0.99997133 74:0.12934721 75:-0.99971571 76:0.017238088 77:0.52708063 78:0.13510468 79:0.99745245 80:0.98137943 81:0.99955877 82:0.98137943 83:0.90761572 84:0.84721511 85:0.93662673 86:0.85808151 87:0.95176232 88:0.9584656 89:0.96674121 90:0.13159938 91:0.13043478 92:0.2503882 93:0.0083130043 94:0.0031242451 95:0.0083130043 96:-0.0028580035 97:-0.052178047 98:-0.039024135 99:-0.040778614 100:-0.025019749 101:0.038212806 102:0.04366068 103:-0.019191291 104:-0.0083051704 105:-0.017693015 
7 7 1:0.22548899 2:0.11619329 3:0.11904762 4:0.91170729 5:0.60602534 6:0.70706429 7:0.78456941 8:0.5622525 9:0.96302171 10:0.51535723 11:0.96472076 12:0.57005346 13:0.71256682 14:0.68518233 15:0.38052043 16:0.81485133 17:0.055306651 18:0.96694559 19:-0.20084628 20:1.0921379 21:-0.45446143 22:1.095489 23:0.45976311 24:0.957767 25:0.20992325 26:0.80751785 27:-0.049855968 28:0.67082487 29:-0.37415349 30:0.56523699 31:-0.73532899 32:0.51102495 33:-0.98465783 34:0.58158456 35:-0.93576325 36:0.7416158 37:-0.75765862 38:0.94891129 39:-0.59442311 40:0.51896368 41:1 42:0.32572373 43:0.99776765 44:0.15580946 45:0.99136608 46:0.0040443214 47:-0.095185502 48:0.15014326 49:-0.98508113 50:0.30471893 51:-0.9943354 52:0.48103632 53:-1 54:0.35619608 55:-0.91204034 56:0.27336808 57:-0.61929304 58:0.23004342 59:-0.095185502 60:0.25898772 61:0.57344576 62:0.35162255 63:0.90599163 64:0.46509622 65:0.99941374 66:0.16266623 67:0.95290227 68:0.058286275 69:0.000611838 70:0.15376966 71:-0.95833265 72:0.43536703 73:-0.99751957 74:0.18603191 75:-0.87353237 76:0.11366705 77:-0.13237486 78:0.17187985 79:0.8584717 80:0.99995968 81:0.99307517 82:0.99995968 83:0.88794058 84:0.98270622 85:0.99756688 86:0.98169182 87:0.99886557 88:0.94895434 89:0.94769491 90:0.1241025 91:0.074698636 92:0.19544167 93:0.026893256 94:-0.0033593495 95:0.026893256 96:-0.022533142 97:0.083313062 98:0.021916018 99:0.082831696 100:0.022083499 101:0.028701547 102:0.024614379 103:-0.026688174 104:-0.064041317 105:-0.072639544 
7 7 1:0.18202765 2:0.27918782 3:0.23809524 4:1.2513899 5:0.50396744 6:0.9711225 7:0.6114475 8:0.71979945 9:0.77371702 10:0.51873066 11:0.94768102 12:0.38738183 13:0.96177558 14:0.41088048 15:0.48644471 16:0.58991086 17:-0.0021929772 18:0.79617455 19:-0.32984374 20:0.98926973 21:-0.59696184 22:0.89305209 23:0.45847687 24:0.7379914 25:0.092906281 26:0.59155331 27:-0.3116316 28:0.52369471 29:-0.80530412 30:0.58991086 31:-0.9999976 32:0.74148901 33:-0.91595701 34:0.93791765 35:-0.74205838 36:1.1956151 37:-0.59618454 38:1.4498963 39:-0.48359617 40:0.48409894 41:1 42:0.30232803 43:0.99575915 44:0.12498084 45:0.96996474 46:0.011122327 47:-0.15021931 48:0.16075293 49:-0.99218991 50:0.34007072 51:-0.99778165 52:0.51590106 53:-1 54:0.36950211 55:-0.93406179 56:0.26327553 57:-0.69918006 58:0.19627637 59:-0.15021931 60:0.23579712 61:0.53057474 62:0.32129476 63:0.91885852 64:0.408535 65:0.99971794 66:0.13853749 67:0.94508332 68:0.067832413 69:-0.30116685 70:0.18465418 71:-0.94783325 72:0.43726339 73:-0.99936959 74:0.18465418 75:-0.94783325 76:0.067832413 77:-0.30116685 78:0.13853749 79:0.94508332 80:0.99973451 81:0.9916404 82:0.99973451 83:0.92203909 84:0.96023651 85:0.96023651 86:0.95672144 87:0.98270364 88:0.93195534 89:0.95951611 90:0.1626506 91:0.12168675 92:0.21686747 93:0.026668088 94:-0.0047941276 95:0.026668088 96:0.011565367 97:0.06084336 98:-0.01541435 99:0.057861323 100:0.0059215711 101:0.011702539 102:0.036435578 103:0.011859932 104:-0.017053206 105:-0.051213744 
0 7 1:0.32621951 2:0.35864174 3:0.38639537 4:1.8202438 5:0.57410836 6:1.4808437 7:0.68782188 8:1.1563857 9:0.82494264 10:0.89985362 11:0.96350149 12:0.7192334 13:0.98138091 14:0.66996606 15:0.71450508 16:0.75894815 17:0.24541109 18:0.93024157 19:-0.16697433 20:1.0831681 21:-0.47366463 22:1.0710445 23:0.45464178 24:0.87726144 25:0.13631926 26:0.67778529 27:-0.32245713 28:0.60543548 29:-0.82641943 30:0.72668022 31:-0.99969761 32:0.95596038 33:-0.89940319 34:1.2374918 35:-0.74727141 36:1.5465292 37:-0.61061239 38:1.8667219 39:-0.49206939 40:0.51210526 41:1 42:0.32517755 43:0.95874277 44:0.19841152 45:0.6308287 46:0.1145613 47:-0.047315369 48:0.20589911 49:-0.68056834 50:0.32246831 51:-0.95992138 52:0.48789474 53:-1 54:0.33466497 55:-0.89002555 56:0.24510873 57:-0.54506097 58:0.21226523 59:0.047315369 60:0.2496094 61:0.61983621 62:0.35127468 63:0.92273305 64:0.42105399 65:0.99996669 66:0.13669982 67:0.98348363 68:0.0030923546 69:-0.97498902 70:0.14014664 71:-0.98760983 72:0.38963856 73:-0.99993427 74:0.1316993 75:-0.99877032 76:0.013981824 77:0.84120789 78:0.14914289 79:0.99820396 80:0.97358619 81:0.99999959 82:0.97358619 83:0.90560635 84:0.87434163 85:0.97263127 86:0.86916951 87:0.96050102 88:0.95642748 89:0.96608238 90:0.10078546 91:0.12408437 92:0.2515665 93:0.000519772 94:0.0035650677 95:0.000519772 96:-0.0048673702 97:-0.025051527 98:-0.0030195928 99:-0.029690606 100:-0.016281055 101:0.036174685 102:0.043001851 103:-0.050005214 104:-0.014655583 105:-0.016514715 
7 0 1:0.58208955 2:0.4516129 3:0.43333333 4:1.3216332 5:0.45172514 6:1.0393248 7:0.57442575 8:0.7812688 9:0.72595268 10:0.54329178 11:0.93405183 12:0.42030232 13:0.95879811 14:0.46099836 15:0.48564293 16:0.64248487 17:0.046461399 18:0.84707246 19:-0.24667928 20:1.0017805 21:-0.47676304 22:1.0238849 23:0.51020191 24:0.85492558 25:0.27932954 26:0.627576 27:-0.047565149 28:0.47198174 29:-0.56920998 30:0.47784509 31:-0.96827732 32:0.62775346 33:-0.95103407 34:0.83914584 35:-0.78260105 36:1.1142168 37:-0.6295835 38:1.3848462 39:-0.50654905 40:0.47761194 41:1 42:0.35477207 43:0.92554696 44:0.24479432 45:0.60971076 46:0.1641791 47:0 48:0.24479432 49:-0.60971076 50:0.37432645 51:-0.91707006 52:0.52238806 53:-1 54:0.44776119 55:-0.8 56:0.42136102 57:-0.38963999 58:0.41791045 59:0 60:0.43514566 61:0.37729689 62:0.44526668 63:0.77096175 64:0.41791045 65:1 66:0.17405827 67:0.85749293 68:0.074626866 69:0 70:0.17405827 71:-0.85749293 72:0.46292724 73:-0.99948011 74:0.27762799 75:-0.59136366 76:0.25373134 77:0 78:0.26907099 79:0.5547002 80:0.94455327 81:0.98879893 82:0.94455327 83:0.54900221 84:0.79015798 85:0.96612769 86:0.77387912 87:0.96378882 88:0.89354201 89:0.93085664 90:0.13533835 91:0.067669173 92:0.36090226 93:-0.028513148 94:-0.0076355945 95:-0.028513148 96:-0.36147151 97:-0.10923517 98:-0.0095231779 99:-0.124981 100:-0.012993251 101:-0.026710785 102:0.0077761066 103:-0.015452324 104:-0.07107078 105:0.092821042 
7 7 1:0.20096386 2:0.1961824 3:0.1875 4:1.335895 5:0.48368611 6:1.0725096 7:0.58697697 8:0.80986229 9:0.71579121 10:0.58124535 11:0.89251335 12:0.41584021 13:0.99446483 14:0.38813162 15:0.56126876 16:0.55647241 17:-0.02432908 18:0.81168391 19:-0.31691003 20:1.0073575 21:-0.54919008 22:0.95305178 23:0.4687775 24:0.8147109 25:0.16390902 26:0.66313939 27:-0.24777248 28:0.60530984 29:-0.71368409 30:0.67482191 31:-0.97575601 32:0.8183285 33:-0.97609851 34:0.99078834 35:-0.85836854 36:1.2165525 37:-0.72335554 38:1.4738751 39:-0.59497789 40:0.46055046 41:1 42:0.28391858 43:0.98705329 44:0.14187779 45:0.86919656 46:0.030336031 47:0.10943058 48:0.12940783 49:-0.84933872 50:0.31005546 51:-0.99358007 52:0.53944954 53:-1 54:0.3512205 55:-0.94896423 56:0.21066288 57:-0.67364065 58:0.17211054 59:-0.10943058 60:0.19392908 61:0.53118385 62:0.27884026 63:0.91675205 64:0.37289388 65:0.99907904 66:0.12537039 67:0.94437462 68:0.059039772 69:0.13961379 70:0.12264789 71:-0.93629134 72:0.46134536 73:-0.99989235 74:0.13066258 75:-0.96834507 76:0.048123792 77:-0.07168058 78:0.11105203 79:0.96084962 80:0.99824157 81:0.993005 82:0.99824157 83:0.93946291 84:0.97513013 85:0.98550072 86:0.9775539 87:0.98657539 88:0.94356419 89:0.9747981 90:0.1681478 91:0.14031805 92:0.2378391 93:0.025175144 94:-0.0034295221 95:0.025175144 96:0.028989188 97:0.075736978 98:0.009849853 99:0.07869378 100:0.0097933209 101:0.023311391 102:0.051717565 103:0.017357132 104:0.0015781013 105:-0.030242112 
2.266854700367809 7 1:0.34770889 2:0.31971154 3:0.20038536 4:1.1207824 5:0.41073665 6:0.89080178 7:0.49784614 8:0.64543838 9:0.63837669 10:0.43176093 11:0.90891482 12:0.39711815 13:0.93885158 14:0.55425757 15:0.52629799 16:0.79107372 17:0.22528028 18:1.046982 19:-0.072701039 20:1.2682577 21:-0.34177192 22:1.3196848 23:0.42930337 24:1.2144676 25:0.10433313 26:1.0911093 27:-0.24980222 28:1.0375801 29:-0.60532827 30:1.0513264 31:-0.87444342 32:1.1095426 33:-0.99616468 34:1.2378857 35:-0.9602635 36:1.4504895 37:-0.85470785 38:1.7135313 39:-0.72935469 40:0.36553525 41:1 42:0.3121877 43:0.90662614 44:0.21234571 45:0.66965739 46:0.12364114 47:0.15477031 48:0.1917144 49:-0.63481236 50:0.39760752 51:-0.95490893 52:0.63446475 53:-1 54:0.44033706 55:-0.93366745 56:0.2856429 57:-0.68934947 58:0.22975107 59:-0.15477031 60:0.21048252 61:0.4157317 62:0.25971009 63:0.86693739 64:0.31402158 65:0.99567608 66:0.14580804 67:0.81582377 68:0.07000278 69:-0.14334413 70:0.16308694 71:-0.88877679 72:0.5935621 73:-0.99980068 74:0.16548822 75:-0.87312617 76:0.067439861 77:-0.22989297 78:0.11168642 79:0.9630441 80:0.97168056 81:0.99123966 82:0.97168056 83:0.88837452 84:0.93179663 85:0.96506265 86:0.97728137 87:0.99112302 88:0.77419047 89:0.93679763 90:0.12099411 91:0.14159581 92:0.26814912 93:-0.0013858586 94:-0.0051948612 95:-0.0013858586 96:-0.022099205 97:0.032403477 98:-0.010588212 99:0.078421248 100:0.014340947 101:-0.14606232 102:0.0137171 103:-0.029796556 104:0.0028558613 105:6.7903e-05 
0 7 1:0.39634146 2:0.3567681 3:0.37077426 4:2.1703165 5:0.59540381 6:1.7756299 7:0.69651783 8:1.43703 9:0.80992186 10:1.1660867 11:0.93561312 12:0.94272525 13:0.99928876 14:0.81859825 15:0.85637971 16:0.86072416 17:0.44853476 18:1.0183178 19:-0.019200371 20:1.1939532 21:-0.39808366 22:1.2144702 23:0.43204579 24:1.0292557 25:0.10914255 26:0.79569585 27:-0.27342272 28:0.61327882 29:-0.73326816 30:0.58479368 31:-0.99998503 32:0.8278824 33:-0.84591718 34:1.1599735 35:-0.67146684 36:1.5650375 37:-0.55946115 38:1.9597805 39:-0.46727087 40:0.49955157 41:1 42:0.36338277 43:0.87384297 44:0.28273633 45:0.53089245 46:0.20761764 47:-0.0098649908 48:0.29308373 49:-0.51642217 50:0.38042934 51:-0.90245619 52:0.50044843 53:-1 54:0.38044275 55:-0.93232574 56:0.23372799 57:-0.71449122 58:0.18877563 59:0.0098649908 60:0.23311266 61:0.65763058 62:0.36627367 63:0.93876777 64:0.42545117 65:0.99870021 66:0.19309214 67:0.75526987 68:0.13233361 69:-0.036967818 70:0.20794907 71:-0.74836036 72:0.42467447 73:-0.99929026 74:0.17038046 75:-0.95510187 76:0.057435766 77:-0.20896269 78:0.14592175 79:0.95556565 80:0.90973542 81:0.9644097 82:0.90973542 83:0.92601184 84:0.84541952 85:0.98357816 86:0.83034349 87:0.97543588 88:0.91439905 89:0.91914386 90:0.146865 91:0.16663529 92:0.30126153 93:-0.063331002 94:-0.032024822 95:-0.063331002 96:0.015538119 97:-0.053973635 98:0.0079272978 99:-0.06851663 100:-0.0013461859 101:-0.0058537469 102:-0.0039366682 103:-0.003925673 104:0.027895332 105:0.033180319 
7 0 1:0.38843931 2:0.20249221 3:0.25301205 4:1.2424251 5:0.51301983 6:1.0044412 7:0.66765796 8:0.77037122 9:0.84894908 10:0.59273545 11:0.99323237 12:0.4798615 13:0.89293816 14:0.54473471 15:0.40310369 16:0.73246059 17:0.017825368 18:0.96987258 19:-0.24843424 20:1.1008494 21:-0.46416814 22:1.0908304 23:0.44830137 24:0.94035791 25:0.23792948 26:0.73246059 27:0.017825368 28:0.4968745 29:-0.24365961 30:0.32774746 31:-0.77500504 32:0.37818872 33:-0.95253341 34:0.58568482 35:-0.67181494 36:0.84460234 37:-0.50662087 38:1.0908304 39:-0.35690012 40:0.48780488 41:1 42:0.29627062 43:0.99346019 44:0.12180783 45:0.9985628 46:0.049316731 47:-0.048722554 48:0.1482827 49:-0.99276555 50:0.34196966 51:-0.9997048 52:0.51219512 53:-1 54:0.44958666 55:-0.78944756 56:0.43973951 57:-0.37795343 58:0.43909716 59:-0.048722554 60:0.43973951 61:0.28604906 62:0.43410755 63:0.75457681 64:0.43850339 65:0.99874541 66:0.14235605 67:0.82941289 68:0.098039285 69:-0.048722554 70:0.163687 71:-0.91384072 72:0.46548412 73:-0.99835281 74:0.30576768 75:-0.52026229 76:0.2929295 77:-0.048722554 78:0.28460853 79:0.47115832 80:0.99504536 81:0.98049745 82:0.99504536 83:0.48176477 84:0.96515408 85:0.99056114 86:0.96586763 87:0.98297582 88:0.95724693 89:0.93989507 90:0.14461538 91:0.052923077 92:0.25969231 93:0.02197894 94:-0.015937072 95:0.02197894 96:-0.42870895 97:0.065760929 98:0.014910271 99:0.067007508 100:0.0061937542 101:0.036994137 102:0.016814534 103:-0.0061752855 104:-0.085816876 105:-0.0083889064 
0 7 1:0.37894737 2:0.53254024 3:0.43134872 4:1.6626197 5:0.41755676 6:1.3509015 7:0.52208106 8:1.0335663 9:0.65051939 10:0.71142341 11:0.80003386 12:0.43464685 13:0.97922564 14:0.35422706 15:0.71695557 16:0.5335558 17:0.059074937 18:0.85309174 19:-0.20944873 20:1.0580425 21:-0.46488596 22:1.0656996 23:0.47680498 24:0.89006202 25:0.11300585 26:0.78699018 27:-0.50994923 28:0.94774111 29:-0.91194132 30:1.2284684 31:-0.99999979 32:1.5373944 33:-0.9569376 34:1.8474767 35:-0.86293819 36:2.1653214 37:-0.75332861 38:2.5276627 39:-0.64811863 40:0.25714286 41:1 42:0.27498303 43:0.84751161 44:0.2515385 45:0.50827826 46:0.17448213 47:0.12752174 48:0.24741132 49:-0.46347932 50:0.42053068 51:-0.94199932 52:0.74285714 53:-1 54:0.4415889 55:-0.94708797 56:0.27145597 57:-0.67388247 58:0.2080831 59:-0.12752174 60:0.22038611 61:0.46989913 62:0.22729229 63:0.88224603 64:0.20384996 65:0.99453594 66:0.12452813 67:0.86708141 68:0.049051411 69:-0.16441795 70:0.15927203 71:-0.94433294 72:0.61457362 73:-0.99999354 74:0.12759947 75:-0.98678115 76:0.023399788 77:0.70206368 78:0.12269517 79:0.96512111 80:0.9401573 81:0.99575829 82:0.9401573 83:0.90883582 84:0.76753445 85:0.91547305 86:0.83925216 87:0.9548514 88:0.93342917 89:0.95994645 90:0.1412836 91:0.11558232 92:0.25833456 93:-0.032909122 94:-0.0006762378 95:-0.032909122 96:-0.001637907 97:-0.1318587 98:-0.060177811 99:-0.059607955 100:-0.021930673 101:0.01317637 102:0.036865916 103:-0.0095070749 104:-0.023157635 105:-0.0097466569 
7 0 1:0.4805409 2:0.30507246 3:0.28896552 4:1.2105296 5:0.48545154 6:0.92712828 7:0.60809168 8:0.67905721 9:0.75740996 10:0.47165567 11:0.94656539 12:0.37417485 13:0.93976681 14:0.43868603 15:0.44004659 16:0.62960446 17:-0.0005417117 18:0.86563149 19:-0.26398411 20:1.0416382 21:-0.47411935 22:1.0475154 23:0.48318063 24:0.89645543 25:0.24843942 26:0.66542204 27:-0.032290844 28:0.47084146 29:-0.49691883 30:0.4269646 31:-0.95457942 32:0.55810107 33:-0.93622868 34:0.78314657 35:-0.74253575 36:1.0736837 37:-0.59592623 38:1.3881687 39:-0.48205079 40:0.46248222 41:1 42:0.30876027 43:0.99526419 44:0.13461989 45:0.91966756 46:0.02493499 47:0.054683349 48:0.1486205 49:-0.90647694 50:0.35172036 51:-0.99297746 52:0.53751778 53:-1 54:0.4856088 55:-0.7725792 56:0.46715665 57:-0.36723437 58:0.45531975 59:-0.054683349 60:0.45527646 61:0.27343315 62:0.42711105 63:0.70510677 64:0.4058243 65:0.99674001 66:0.12882584 67:0.9954477 68:0.021244833 69:-0.096358132 70:0.13950638 71:-0.99992528 72:0.47498747 73:-0.99880724 74:0.329053 75:-0.48819469 76:0.30749258 77:-0.075426497 78:0.30373182 79:0.38740226 80:0.99860667 81:0.99921649 82:0.99860667 83:0.41829475 84:0.91460529 85:0.9826429 86:0.91347424 87:0.98538451 88:0.90431265 89:0.89725528 90:0.13424252 91:0.096615182 92:0.33601709 93:0.025540247 94:0.0027819662 95:0.025540247 96:-0.49217897 97:0.015212135 98:0.0069920324 99:0.014614125 100:0.0086024431 101:-0.015940149 102:-0.02582525 103:-0.016548146 104:-0.042124771 105:0.067935874 
0 7 1:0.31944444 2:0.24242424 3:0.26470588 4:1.5518511 5:0.54685814 6:1.2559889 7:0.67705653 8:0.99304339 9:0.81502859 10:0.77412418 11:0.95671002 12:0.60694358 13:0.9898923 14:0.54949516 15:0.73593101 16:0.60694358 17:0.22367759 18:0.78756463 19:-0.20612138 20:0.97385423 21:-0.50600873 22:0.98124135 23:0.51691794 24:0.81448943 25:0.19434262 26:0.63288165 27:-0.22272566 28:0.58100758 29:-0.73678257 30:0.64209483 31:-0.98878405 32:0.82517672 33:-0.95492736 34:1.0576489 35:-0.81221756 36:1.3503393 37:-0.66868105 38:1.6851088 39:-0.53789551 40:0.4801444 41:1 42:0.32256781 43:0.96017852 44:0.19777241 45:0.71311294 46:0.091369609 47:0.045080477 48:0.18749807 49:-0.65587436 50:0.32845481 51:-0.96010021 52:0.5198556 53:-1 54:0.36343762 55:-0.91696137 56:0.26439717 57:-0.62024845 58:0.22900231 59:-0.045080477 60:0.24505849 61:0.52129165 62:0.33882409 63:0.90217547 64:0.39697063 65:0.99996188 66:0.14681107 67:1 68:0.02149882 69:0.40656146 70:0.13099582 71:-0.99610266 72:0.45054077 73:-0.99997945 74:0.15879683 75:-0.99997353 76:0.0097895596 77:-0.64146175 78:0.11918332 79:0.99429796 80:0.98356479 81:0.99913157 82:0.98356479 83:0.88878038 84:0.95298092 85:0.98333217 86:0.94621811 87:0.98430591 88:0.92548352 89:0.8828277 90:0.18518519 91:0.14814815 92:0.29012346 93:0.010498366 94:0.002697043 95:0.010498366 96:-0.021693349 97:0.053587767 98:0.0076813022 99:0.047357994 100:0.0075238431 101:0.0052307219 102:-0.040252828 103:0.034394515 104:0.0094081952 105:0.022042243 
0 7 1:0.53658537 2:0.3785558 3:0.35760019 4:1.5952691 5:0.51674492 6:1.2887056 7:0.6260898 8:0.99858757 9:0.74883467 10:0.72887806 11:0.90974207 12:0.56341032 13:0.99755443 14:0.52897686 15:0.71308482 16:0.6688977 17:0.1761923 18:0.91014823 19:-0.18175051 20:1.1045872 21:-0.47859696 22:1.0783361 23:0.43710668 24:0.90204817 25:0.05867616 26:0.77546171 27:-0.41307601 28:0.79006713 29:-0.83294245 30:0.91978949 31:-0.99022382 32:1.1022848 33:-0.97820813 34:1.3338331 35:-0.88939844 36:1.6314222 37:-0.78270546 38:1.9365372 39:-0.68460272 40:0.41488103 41:1 42:0.34393413 43:0.85294439 44:0.31532918 45:0.43235709 46:0.24594501 47:0.071983148 48:0.30860133 49:-0.40251172 50:0.39644598 51:-0.89221385 52:0.58511897 53:-1 54:0.43215312 55:-0.89834854 56:0.32079396 57:-0.5354868 58:0.29228965 59:-0.071983148 60:0.29281249 61:0.38920334 62:0.31857853 63:0.84019665 64:0.32289271 65:0.99944802 66:0.16998297 67:0.72773456 68:0.11970541 69:0.051210289 70:0.17764642 71:-0.72187345 72:0.47576644 73:-0.99992959 74:0.15578955 75:-0.95814248 76:0.048637013 77:-0.13368776 78:0.11667051 79:0.95562792 80:0.87213183 81:0.97128847 82:0.87213183 83:0.81182575 84:0.82483605 85:0.98455871 86:0.87029533 87:0.98397149 88:0.92663969 89:0.94503876 90:0.12953095 91:0.12974199 92:0.34216219 93:-0.10093459 94:-0.025146056 95:-0.10093459 96:-0.098647971 97:-0.074557103 98:0.0089078446 99:-0.028564786 100:0.0071894232 101:0.0063868948 102:0.021958229 103:-0.021259725 104:-0.0089979596 105:0.074080977 
7 0 1:0.29023508 2:0.2367688 3:0.14164905 4:1.080306 5:0.35615928 6:0.84619356 7:0.46811897 8:0.6030762 9:0.6242643 10:0.37554189 11:0.82795644 12:0.18713978 13:0.9837483 14:0.28070967 15:0.14920604 16:0.53109643 17:-0.18891349 18:0.80756011 19:-0.31939061 20:0.98461905 21:-0.49771688 22:0.99466157 23:0.51267536 24:0.85813388 25:0.23604197 26:0.68535488 27:-0.1722882 28:0.6323807 29:-0.66830292 30:0.74427933 31:-0.95538633 32:0.90966832 33:-0.99655114 34:1.0887064 35:-0.91221815 36:1.3141265 37:-0.7746468 38:1.5802406 39:-0.65033498 40:0.33738848 41:1 42:0.24591385 43:0.99766348 44:0.12371201 45:0.98851735 46:0.010249131 47:-0.11997067 48:0.14102672 49:-0.98694143 50:0.40155295 51:-0.99778045 52:0.66261152 53:-1 54:0.45971478 55:-0.91220797 56:0.34188998 57:-0.5559117 58:0.30413702 59:-0.11997067 60:0.29186649 61:0.35089508 62:0.28222449 63:0.80474493 64:0.27700061 65:0.9941903 66:0.13766833 67:0.76454824 68:0.1024952 69:-0.025848795 70:0.18573744 71:-0.84236718 72:0.57170541 73:-0.99841442 74:0.20433116 75:-0.76802963 76:0.13426739 77:-0.13781167 78:0.14788202 79:0.71014346 80:0.99940959 81:0.97576827 82:0.99940959 83:0.78866106 84:0.97290677 85:0.98080601 86:0.98485826 87:0.9939386 88:0.93505702 89:0.96027083 90:0.15314886 91:0.10400763 92:0.25715649 93:0.026343166 94:-0.020666257 95:0.026343166 96:-0.12181266 97:0.07351362 98:0.0051551474 99:0.085998135 100:0.017156534 101:0.014804221 102:0.037190296 103:0.0023581848 104:-0.034732319 105:-0.010924725 
7 0 1:0.75630551 2:0.076173605 3:0.10685663 4:1.2124565 5:0.43038856 6:0.93243854 7:0.56943643 8:0.6725963 9:0.76074627 10:0.46151373 11:0.9745023 12:0.37619522 13:0.83658908 14:0.5287664 15:0.31103906 16:0.77275957 17:-0.021020322 18:1.0048613 19:-0.2434864 20:1.1436872 21:-0.44827849 22:1.1325368 23:0.43028151 24:0.96749192 25:0.23190424 26:0.71304025 27:0.031323653 28:0.46589252 29:-0.33122387 30:0.33870461 31:-0.89621839 32:0.45285333 33:-0.93933439 34:0.68545439 35:-0.7361081 36:0.94100066 37:-0.58906943 38:1.2182204 39:-0.47335421 40:0.50926174 41:1 42:0.38950931 43:0.91126711 44:0.24448789 45:0.56316957 46:0.16346959 47:-0.014763491 48:0.26504432 49:-0.61431038 50:0.40896288 51:-0.91447661 52:0.49073826 53:-1 54:0.52367998 55:-0.69476534 56:0.58127904 57:-0.25914702 58:0.59295803 59:0.014763491 60:0.60470058 61:0.27302654 62:0.54828281 63:0.69367073 64:0.45379228 65:0.99918884 66:0.19373521 67:0.73690416 68:0.1205643 69:-0.11264441 70:0.20963439 71:-0.75246877 72:0.43298927 73:-0.99972508 74:0.44321293 75:-0.33071196 76:0.46416548 77:0.029795996 78:0.45646336 79:0.36836471 80:0.94508639 81:0.97091323 82:0.94508639 83:0.63725889 84:0.99345083 85:0.99748633 86:0.99455791 87:0.99398371 88:0.93975072 89:0.94207764 90:0.14854336 91:0.06097561 92:0.42157859 93:-0.027980027 94:-0.025521294 95:-0.027980027 96:-0.27321483 97:0.09405768 98:0.021835466 99:0.095697792 100:0.017201635 101:0.019497927 102:0.018997111 103:-0.0022473097 104:-0.077764343 105:0.15349738 
0 7 1:0.30909091 2:0.33333333 3:0.35294118 4:1.9427339 5:0.52409743 6:1.5819227 7:0.60915516 8:1.2085098 9:0.70710678 10:0.89257729 11:0.83517086 12:0.59972445 13:0.9701425 14:0.38225084 15:0.90373784 16:0.40655781 17:0.17888544 18:0.63245553 19:-0.31622777 20:0.82921849 21:-0.61394061 22:0.81818182 23:0.6 24:0.62191387 25:0.26311741 26:0.4024717 27:-0.31622777 28:0.41975987 29:-0.95292578 30:0.64436528 31:-0.9593655 32:0.91777669 33:-0.83205029 34:1.2214339 35:-0.69962479 36:1.5819227 37:-0.60915516 38:1.9332668 39:-0.51725917 40:0.50909091 41:1 42:0.33966439 43:0.96351791 44:0.20570379 45:0.70710678 46:0.090909091 47:0 48:0.19327538 49:-0.65850461 50:0.3175318 51:-0.97341717 52:0.49090909 53:-1 54:0.34160535 55:-0.9048187 56:0.26222191 57:-0.5547002 58:0.21818182 59:0 60:0.24729946 61:0.5881717 62:0.35114923 63:0.93200467 64:0.41818182 65:1 66:0.14545455 67:1 68:0.018181818 69:0 70:0.12727273 71:-1 72:0.40041301 73:-0.99896854 74:0.12727273 75:-1 76:0.018181818 77:0 78:0.14545455 79:1 80:0.98333217 81:0.99933862 82:0.98333217 83:0.8997704 84:0.93154098 85:0.96209139 86:0.92401636 87:0.95576922 88:0.97578094 89:0.97792521 90:0.14159292 91:0.12389381 92:0.27433628 93:0.010265744 94:0.0029040999 95:0.010265744 96:-0.010703322 97:0.032147824 98:-0.013559478 99:0.025156237 100:-0.021012846 101:0.055528141 102:0.054844676 103:-0.0091977498 104:-0.014846148 105:0.0062550691 
0 7 1:0.37335353 2:0.30493312 3:0.34079388 4:1.6701996 5:0.64422376 6:1.4007986 7:0.76354458 8:1.1614592 9:0.88862703 10:0.98114175 11:0.98721033 12:0.85112867 13:0.97292105 14:0.7521994 15:0.76524951 16:0.73585176 17:0.32263905 18:0.87502562 19:-0.13737792 20:1.0468571 21:-0.47284196 22:1.0516244 23:0.48021138 24:0.87461174 25:0.18270526 26:0.6577745 27:-0.15673724 28:0.46922166 29:-0.63144009 30:0.43295269 31:-0.99605757 32:0.60261822 33:-0.86120108 34:0.85718883 35:-0.66588892 36:1.1232365 37:-0.53183066 38:1.3873313 39:-0.42374677 40:0.57011494 41:1 42:0.39722125 43:0.90090347 44:0.27313146 45:0.50175598 46:0.18372113 47:-0.024418005 48:0.28959934 49:-0.58246271 50:0.362505 51:-0.9008039 52:0.42988506 53:-1 54:0.33005969 55:-0.95099969 56:0.23697383 57:-0.6780847 58:0.1897307 59:0.024418005 60:0.24061993 61:0.64445483 62:0.39094144 63:0.94446337 64:0.48730023 65:0.99998604 66:0.16819991 67:0.81971967 68:0.085187787 69:-0.027789065 70:0.1885428 71:-0.86279104 72:0.35718624 73:-0.99974285 74:0.1578655 75:-0.98831965 76:0.045660365 77:0.20014467 78:0.15310443 79:0.97569187 80:0.93000527 81:0.9853547 82:0.93000527 83:0.92533077 84:0.89675263 85:0.98762174 86:0.867429 87:0.98292123 88:0.95308816 89:0.94420209 90:0.11941531 91:0.1307463 92:0.29006249 93:-0.043061152 94:-0.011079823 95:-0.043061152 96:0.014857041 97:-0.0026405214 98:0.011970875 99:-0.031431117 100:0.0061391592 101:0.032835362 102:0.021121559 103:-0.031375356 104:-0.0079936522 105:0.021981277 
7 0 1:0.35179182 2:0.19295325 3:0.21237813 4:0.81647411 5:0.4943286 6:0.63722089 7:0.62250144 8:0.45517752 9:0.81332145 10:0.32715142 11:0.99383769 12:0.30125897 13:0.77397684 14:0.40628403 15:0.21053934 16:0.58263963 17:-0.16937286 18:0.77821521 19:-0.38625006 20:0.93574676 21:-0.58849763 22:0.87991619 23:0.51063414 24:0.73897432 25:0.2925864 26:0.5607645 27:0.059288223 28:0.39264227 29:-0.28262168 30:0.27878753 31:-0.74601333 32:0.27316294 33:-0.99294609 34:0.3951019 35:-0.77538051 36:0.55474447 37:-0.55664958 38:0.72404523 39:-0.40438276 40:0.50688274 41:1 42:0.31740283 43:0.99408974 44:0.13721835 45:0.96540817 46:0.01195789 47:0.019518243 48:0.13965812 49:-0.96774505 50:0.32463055 51:-0.995139 52:0.49311726 53:-1 54:0.41156376 55:-0.82870029 56:0.36123314 57:-0.43296287 58:0.33999607 59:-0.019518243 60:0.35228246 61:0.40935093 62:0.39543736 63:0.82392104 64:0.45035314 65:0.99884921 66:0.13751323 67:0.98287183 68:0.03965882 69:-0.03686358 70:0.14065182 71:-0.9762489 72:0.43759203 73:-0.9993381 74:0.24400861 75:-0.60405778 76:0.20393947 77:-0.01062341 78:0.232466 79:0.57837838 80:0.99970967 81:0.99687203 82:0.99970967 83:0.73368634 84:0.96441537 85:0.99267429 86:0.94205699 87:0.99829572 88:0.89967856 89:0.9129538 90:0.14144825 91:0.10202923 92:0.3420101 93:0.026643244 94:0.0004375011 95:0.026643244 96:-0.17678738 97:0.065022219 98:0.017023422 99:0.043196868 100:0.021513646 101:-0.020574237 102:-0.01012673 103:-0.009342417 104:-0.036710725 105:0.073928887 
0 7 1:0.354314 2:0.34649123 3:0.36982249 4:1.7941756 5:0.49251454 6:1.4871695 7:0.59706559 8:1.1671576 9:0.711096 10:0.87884785 11:0.85671062 12:0.63735836 13:0.99266733 14:0.50714736 15:0.88002726 16:0.56897751 17:0.32278532 18:0.77560068 19:-0.13144074 20:0.95216321 21:-0.4699518 22:1.0058196 23:0.54933227 24:0.81163715 25:0.19224247 26:0.61276944 27:-0.31813211 28:0.62782436 29:-0.85341968 30:0.81331335 31:-0.999897 32:1.0521425 33:-0.93158067 34:1.3080118 35:-0.78861482 36:1.6194345 37:-0.65690414 38:1.9691196 39:-0.54439784 40:0.4467618 41:1 42:0.33056388 43:0.86655117 44:0.27827846 45:0.44908944 46:0.18424629 47:-0.079875689 48:0.30737682 49:-0.58967936 50:0.38434414 51:-0.89780736 52:0.5532382 53:-1 54:0.35950182 55:-0.94469488 56:0.22488852 57:-0.66236392 58:0.17136466 59:0.079875689 60:0.2301923 61:0.68320111 62:0.31434906 63:0.94467071 64:0.36544071 65:0.9999949 66:0.12201035 67:0.80741325 68:0.054790054 69:-0.56687682 70:0.20003692 71:-0.94305973 72:0.47191669 73:-0.99999694 74:0.163877 75:-0.88759314 76:0.039760864 77:0.65741106 78:0.15530882 79:0.97002121 80:0.92992427 81:0.99589433 82:0.92992427 83:0.94010792 84:0.88535675 85:0.96064536 86:0.90260328 87:0.96307569 88:0.96408637 89:0.96752837 90:0.1453018 91:0.14747978 92:0.3033603 93:-0.043142147 94:-0.0005401899 95:-0.043142147 96:0.029634199 97:-0.014036406 98:-0.015005505 99:0.0037431568 100:-0.013706376 101:0.043833573 102:0.044447841 103:-0.0054888656 104:0.008739823 105:0.035279085 
0 7 1:0.32474387 2:0.3655006 3:0.34088127 4:1.4489825 5:0.55583568 6:1.1730419 7:0.67217918 8:0.91844523 9:0.81309416 10:0.69833553 11:0.95635329 12:0.53776586 13:0.9838376 14:0.4862826 15:0.70949429 16:0.58327334 17:0.19274073 18:0.75375732 19:-0.21806298 20:0.92450319 21:-0.53370268 22:0.93160426 23:0.54378258 24:0.76000588 25:0.22728766 26:0.59001355 27:-0.21261513 28:0.50259059 29:-0.73120915 30:0.55479695 31:-0.99751654 32:0.7406836 33:-0.92972749 34:0.98775257 35:-0.78053175 36:1.2856786 37:-0.65321156 38:1.5967287 39:-0.54509416 40:0.49188157 41:1 42:0.32093328 43:0.96977602 44:0.18401733 45:0.6978384 46:0.10544852 47:0.010505628 48:0.2042611 49:-0.71272311 50:0.35091126 51:-0.9605966 52:0.50811843 53:-1 54:0.36126687 55:-0.92147246 56:0.25570057 57:-0.59117532 58:0.2192709 59:-0.010505628 60:0.25527508 61:0.58261695 62:0.34904188 63:0.90678386 64:0.41568344 65:0.99903075 66:0.14247941 67:0.99923219 68:0.010653015 69:-0.81302366 70:0.14522979 71:-0.99921937 72:0.43373719 73:-0.99988727 74:0.14635382 75:-0.99896166 76:0.019871601 77:0.13378041 78:0.14144922 79:0.99883603 80:0.97746133 81:0.99992289 82:0.97746133 83:0.89879306 84:0.8475222 85:0.98436946 86:0.85774471 87:0.98136234 88:0.94819395 89:0.94623409 90:0.17139531 91:0.093554489 92:0.24574422 93:0.0043949035 94:0.0034883631 95:0.0043949035 96:-0.011680668 97:-0.051870958 98:0.0087185913 99:-0.041115413 100:0.0045802737 101:0.027941154 102:0.023153558 103:0.020604645 104:-0.045185464 105:-0.022336998 
7 0 1:0.41061393 2:0.1879609 3:0.18714521 4:1.2414645 5:0.6693902 6:0.98651152 7:0.80063683 8:0.77325093 9:0.93916621 10:0.64164555 11:0.99776006 12:0.59073377 13:0.84338639 14:0.58296257 15:0.45757797 16:0.66855238 17:-0.014020623 18:0.83374089 19:-0.35564112 20:1.0037801 21:-0.58104485 22:0.91711068 23:0.45442576 24:0.76792657 25:0.19201247 26:0.58751945 27:-0.11076759 28:0.44128151 29:-0.52674851 30:0.36624155 31:-0.93766453 32:0.4235456 33:-0.92637561 34:0.61574215 35:-0.70769598 36:0.84455388 37:-0.5407387 38:1.0707791 39:-0.41461777 40:0.59216501 41:1 42:0.37629217 43:0.94841245 44:0.22542094 45:0.58785725 46:0.16626109 47:0.019314491 48:0.21303613 49:-0.45899685 50:0.29361036 51:-0.90833187 52:0.40783499 53:-1 54:0.32813981 55:-0.83506395 56:0.26485014 57:-0.44189113 58:0.24388327 59:-0.019314491 60:0.27211907 61:0.47827697 62:0.40504627 63:0.89074688 64:0.5359871 65:0.99999983 66:0.14432677 67:0.91335101 68:0.053935817 69:0.047835279 70:0.12022205 71:-0.86611903 72:0.34612215 73:-0.99985149 74:0.14699221 75:-0.71460842 76:0.11467156 77:0.014242542 78:0.17081297 79:0.76618408 80:0.9473512 81:0.99543928 82:0.9473512 83:0.86542904 84:0.95077066 85:0.99420198 86:0.9544731 87:0.99581654 88:0.95255133 89:0.93677112 90:0.18486965 91:0.10018648 92:0.31123624 93:-0.025715219 94:-0.0009952479 95:-0.025715219 96:-0.045044686 97:0.051377507 98:0.018551114 99:0.055612976 100:0.019034465 101:0.032298538 102:0.013690587 103:0.034078978 104:-0.038553474 105:0.043155029 
7 0 1:0.35096154 2:0.18181818 3:0.24175824 4:1.5303094 5:0.50479668 6:1.2156478 7:0.61315711 8:0.92911856 9:0.73669756 10:0.67337814 11:0.87585839 12:0.47656268 13:0.99847301 14:0.39891799 15:0.7623766 16:0.52332622 17:0.18845751 18:0.71470658 19:-0.18362461 20:0.88493171 21:-0.490198 22:0.95682842 23:0.59175526 24:0.75351175 25:0.36815176 26:0.52031425 27:0.069475923 28:0.33228388 29:-0.51675464 30:0.35125372 31:-0.99894768 32:0.55820369 33:-0.8637023 34:0.83017739 35:-0.68108624 36:1.1081055 37:-0.55068412 38:1.4061331 39:-0.44877776 40:0.52855543 41:1 42:0.33247843 43:0.99647345 44:0.14520427 45:0.92322639 46:0.0070801421 47:-0.045864339 48:0.16072053 49:-0.96037658 50:0.32084246 51:-0.99054843 52:0.47144457 53:-1 54:0.38968427 55:-0.82463256 56:0.35932588 57:-0.45143082 58:0.34417358 59:0.045864339 60:0.37423337 61:0.42751296 62:0.41593926 63:0.84564786 64:0.44254773 65:0.99901411 66:0.14064955 67:0.88886944 68:0.07465622 69:0.0009135377 70:0.16832924 71:-0.94264328 72:0.41392603 73:-0.99941591 74:0.20993872 75:-0.75394145 76:0.15638575 77:0.0029486611 78:0.20903134 79:0.69207542 80:0.99989598 81:0.9888314 82:0.99989598 83:0.72618438 84:0.97263864 85:0.99134094 86:0.96753234 87:0.98442159 88:0.9542628 89:0.9548869 90:0.21026895 91:0.11491443 92:0.29339853 93:0.02682956 94:-0.0076031247 95:0.02682956 96:-0.18428935 97:0.073245482 98:0.015690077 99:0.068672219 100:0.0076395156 101:0.034010005 102:0.031806371 103:0.059478279 104:-0.023825528 105:0.025317319 
7 0 1:0.66460044 2:0.40532081 3:0.3635507 4:1.0265113 5:0.47247249 6:0.79543048 7:0.61498113 8:0.58611852 9:0.80227893 10:0.39816653 11:0.97397659 12:0.3094459 13:0.83742582 14:0.42898648 15:0.23692391 16:0.64371333 17:-0.086575862 18:0.86703754 19:-0.28554436 20:1.0214047 21:-0.47480191 22:1.0360202 23:0.49712843 24:0.893848 25:0.30490186 26:0.6747065 27:0.10562561 28:0.45281906 29:-0.24813924 30:0.31744048 31:-0.84075417 32:0.39542996 33:-0.96322682 34:0.60195139 35:-0.74515421 36:0.84338189 37:-0.56409013 38:1.1064311 39:-0.43363402 40:0.46913642 41:1 42:0.34904201 43:0.94844615 44:0.18652175 45:0.72175261 46:0.10676027 47:0.01447521 48:0.18118682 49:-0.72465492 50:0.367514 51:-0.95518539 52:0.53086358 53:-1 54:0.54114273 55:-0.69674406 56:0.5624506 57:-0.28137731 58:0.55799364 59:-0.01447521 60:0.55581661 61:0.26649207 62:0.50603472 63:0.67149801 64:0.41720018 65:0.99963574 66:0.13899827 67:0.96467368 68:0.025849401 69:0.041688361 70:0.137211 71:-0.96055779 72:0.48483346 73:-0.99970239 74:0.41049348 75:-0.35517842 76:0.40190686 77:-0.0034704969 78:0.40574516 79:0.35303606 80:0.9770667 81:0.99869368 82:0.9770667 83:0.49603716 84:0.84235183 85:0.96959422 86:0.8612957 87:0.96952165 88:0.84092892 89:0.88265005 90:0.18484048 91:0.080182559 92:0.43518726 93:0.0040002745 94:0.0022591535 95:0.0040002745 96:-0.41443656 97:-0.057041329 98:-0.0060566452 99:-0.037564415 100:-0.0072604206 101:-0.079323877 102:-0.040430486 103:0.034049815 104:-0.058557394 105:0.16710604 
0 7 1:0.29418472 2:0.33490566 3:0.33846154 4:1.567178 5:0.47219311 6:1.2627612 7:0.60121439 8:0.98605082 9:0.78181673 10:0.76831223 11:0.97079162 12:0.71553282 13:0.94634986 14:0.72441257 15:0.64939726 16:0.80023971 17:0.2483273 18:0.91893014 19:-0.12638913 20:1.0511683 21:-0.46476437 22:1.0620092 23:0.48159134 24:0.89811262 25:0.12279347 26:0.78511729 27:-0.35082596 28:0.80752983 29:-0.76398655 30:0.88345956 31:-0.96848878 32:0.99143911 33:-0.99305121 34:1.1577724 35:-0.91756682 36:1.3796991 37:-0.80511407 38:1.662043 39:-0.69302543 40:0.44808743 41:1 42:0.28836071 43:0.87400913 44:0.23756673 45:0.26476055 46:0.19898787 47:-0.23544802 48:0.28486652 49:-0.65072657 50:0.38386396 51:-0.94091322 52:0.55191257 53:-1 54:0.3100772 55:-0.98097124 56:0.13754025 57:-0.83257421 58:0.10196073 59:0.23544802 60:0.17097368 61:0.91007819 62:0.31306724 63:0.98712263 64:0.38321117 65:0.99829378 66:0.10358951 67:0.59690182 68:0.098828905 69:-0.63039742 70:0.20131514 71:-0.88903913 72:0.47194643 73:-0.99898001 74:0.15579208 75:-0.86840294 76:0.084384803 77:-0.1322044 78:0.14446727 79:0.78203331 80:0.92227053 81:0.98808115 82:0.92227053 83:0.97942172 84:0.92017409 85:0.96512419 86:0.93107213 87:0.96695554 88:0.94158544 89:0.941909 90:0.12475149 91:0.13667992 92:0.26491054 93:-0.050795891 94:-0.0083533712 95:-0.050795891 96:0.068947998 97:0.02078094 98:-0.010526669 99:0.032212005 100:-0.0098265291 101:0.021332644 102:0.018828465 103:-0.026039179 104:-0.0020600325 105:-0.0031706773 
7 7 1:0.3136646 2:0.24151967 3:0.23738063 4:1.3877729 5:0.62590956 6:1.1179972 7:0.73453239 8:0.87288952 9:0.84987904 10:0.67433305 11:0.97707489 12:0.56514966 13:0.9560934 14:0.51580231 15:0.63198551 16:0.62570342 17:0.093145085 18:0.78364077 19:-0.28950589 20:0.96036021 21:-0.55509575 22:0.92526104 23:0.50462314 24:0.74817306 25:0.1962854 26:0.54437586 27:-0.19960448 28:0.43701023 29:-0.8001808 30:0.51324248 31:-0.99825663 32:0.68858705 33:-0.86647204 34:0.92615029 35:-0.69292396 36:1.1933578 37:-0.5606712 38:1.499204 39:-0.44782846 40:0.48580442 41:1 42:0.30686888 43:0.96934123 44:0.17872402 45:0.68975399 46:0.080040813 47:0.026279039 48:0.15645803 49:-0.64527744 50:0.3044766 51:-0.98693252 52:0.51419558 53:-1 54:0.34137243 55:-0.8928032 56:0.2570555 57:-0.45295524 58:0.23320533 59:-0.026279039 60:0.24243418 61:0.53293849 62:0.31967573 63:0.91711721 64:0.41107279 65:0.99996792 66:0.11328307 67:0.989383 68:0.03034936 69:-0.060886689 70:0.13190618 71:-0.98505466 72:0.42167019 73:-0.9999997 74:0.099015983 75:-0.95311269 76:0.03747113 77:0.42520288 78:0.13350295 79:0.99985095 80:0.9867724 81:0.99825762 82:0.9867724 83:0.88519646 84:0.93519303 85:0.99165747 86:0.93445893 87:0.99293132 88:0.95775895 89:0.97054047 90:0.12388856 91:0.11529342 92:0.2649674 93:0.013705976 94:0.0018230912 95:0.013705976 96:-0.025277261 97:0.035799871 98:0.01600661 99:0.035598806 100:0.016149251 101:0.03750615 102:0.047459935 103:-0.026902111 104:-0.023446533 105:-0.0031138163 
0 7 1:0.39350181 2:0.33566434 3:0.36296296 4:1.7724304 5:0.55248731 6:1.4439202 7:0.65989115 8:1.1467756 9:0.76835612 10:0.87953676 11:0.92244099 12:0.69635168 13:0.99982011 14:0.59081012 15:0.83352131 16:0.63245553 17:0.31622777 18:0.80094284 19:-0.17432285 20:1 21:-0.52830189 22:0.97128586 23:0.48564293 24:0.78668159 25:0.15349885 26:0.60501053 27:-0.31809832 28:0.60344921 29:-0.84107687 30:0.69635168 31:-0.99982011 32:0.93263676 33:-0.90431373 34:1.1982692 35:-0.75423251 36:1.5203028 37:-0.63418347 38:1.8269471 39:-0.51328023 40:0.49038462 41:1 42:0.32290118 43:0.96941773 44:0.18176566 45:0.50763939 46:0.10968157 47:0.067155746 48:0.19290274 49:-0.64649015 50:0.35265673 51:-0.96355475 52:0.50961538 53:-1 54:0.36806224 55:-0.89246674 56:0.28810149 57:-0.5245541 58:0.28365923 59:-0.067155746 60:0.2777781 61:0.54953493 62:0.3714966 63:0.87308168 64:0.44699237 65:0.99999109 66:0.10125269 67:0.9858363 68:0.037881143 69:-0.80172083 70:0.1630341 71:-0.98481715 72:0.42283977 73:-0.99996018 74:0.12010338 75:-0.97551423 76:0.065861511 77:0.22642841 78:0.15644686 79:0.92748169 80:0.975451 81:0.99889811 82:0.975451 83:0.82386437 84:0.90771817 85:0.96779276 86:0.84118931 87:0.98270364 88:0.94670654 89:0.96209139 90:0.19879518 91:0.12650602 92:0.29066265 93:0.0023845746 94:0.0024635901 95:0.0023845746 96:-0.086609359 97:0.0083250132 98:-0.0078581082 99:-0.057670812 100:0.0059215711 101:0.026453747 102:0.039010853 103:0.048004511 104:-0.012233929 105:0.022581436 
7 7 1:0.24074074 2:0.20833333 3:0.25 4:1.4596162 5:0.60486908 6:1.1925855 7:0.71962903 8:0.96886461 9:0.86034894 10:0.7730477 11:0.97372999 12:0.62838126 13:0.97990418 14:0.56283285 15:0.74841558 16:0.60618954 17:0.24970715 18:0.7730477 19:-0.15505255 20:0.92990646 21:-0.48539276 22:0.980809 23:0.55936491 24:0.83931642 25:0.27827603 26:0.6909394 27:-0.097147865 28:0.55517491 29:-0.56997957 30:0.5442728 31:-0.94005036 32:0.64638086 33:-0.98122734 34:0.84763975 35:-0.82905471 36:1.13022 37:-0.6666177 38:1.4186864 39:-0.54024507 40:0.51851852 41:1 42:0.35917765 43:0.97070489 44:0.19979178 45:0.81261668 46:0.09184375 47:-0.037011661 48:0.18271436 49:-0.73459582 50:0.3100105 51:-0.96541796 52:0.48148148 53:-1 54:0.33384734 55:-0.92931279 56:0.20985478 57:-0.67875693 58:0.14873204 59:0.037011661 60:0.22329565 61:0.77002475 62:0.36375691 63:0.97543133 64:0.44455436 65:0.99998101 66:0.17046795 67:0.96847447 68:0.017820429 69:-0.037011661 70:0.1345378 71:-0.97219185 72:0.40751809 73:-0.9999774 74:0.12954262 75:-0.99910502 76:0.019191231 77:0.037011661 78:0.16655388 79:0.99945868 80:0.98270364 81:0.99931389 82:0.98270364 83:0.95509607 84:0.90905934 85:0.99913157 86:0.88878038 87:0.99913157 88:0.94770457 89:0.89580642 90:0.12605042 91:0.11764706 92:0.22689076 93:0.0096372199 94:0.0028793692 95:0.0096372199 96:0.044622346 97:0.0096661886 98:0.023480703 99:-0.010079745 100:0.022349497 101:0.027451776 102:-0.027274116 103:-0.02474025 104:-0.021092894 105:-0.041190458 
1.309752391281484 7 1:0.18446602 2:0.15422886 3:0.18128655 4:1.6525369 5:0.54302162 6:1.3722176 7:0.66014448 8:1.1028006 9:0.80462353 10:0.87432071 11:0.93862365 12:0.67743894 13:0.99878818 14:0.55332352 15:0.81482304 16:0.55332352 17:0.30403257 18:0.68622787 19:-0.17941636 20:0.82995246 21:-0.50017698 22:0.92659314 23:0.63121218 24:0.76648016 25:0.40882732 26:0.57646891 27:0.096771175 28:0.42219941 29:-0.4691678 30:0.39966209 31:-0.97543722 32:0.56211474 33:-0.93078447 34:0.78848213 35:-0.72712811 36:1.089281 37:-0.57434814 38:1.4191358 39:-0.45866248 40:0.50236967 41:1 42:0.33448565 43:0.98919821 44:0.16336228 45:0.91290152 46:0.030751996 47:0.17272003 48:0.15147445 49:-0.88995989 50:0.2988317 51:-0.9885418 52:0.49763033 53:-1 54:0.34585251 55:-0.97259711 56:0.22256689 57:-0.80640131 58:0.15597236 59:-0.17272003 60:0.17764205 61:0.6702341 62:0.31266717 63:0.9411392 64:0.42720595 65:0.9999624 66:0.14567727 67:0.99829686 68:0.030295227 69:-0.018885785 70:0.13864502 71:-0.99903116 72:0.40785328 73:-0.99999301 74:0.16994053 75:-0.99970317 76:0.024907144 77:-0.69664365 78:0.1140631 79:0.9998832 80:0.99815729 81:0.99815729 82:0.99815729 83:0.9513046 84:0.99159858 85:0.98879893 86:0.98449038 87:0.9883733 88:0.93570436 89:0.93076225 90:0.19330855 91:0.13258984 92:0.2267658 93:0.025090873 94:0.0017227703 95:0.025090873 96:0.040830875 97:0.092205424 98:0.013148066 99:0.085630255 100:0.011591227 101:0.015451559 102:0.0076817138 103:0.04251788 104:-0.0061501141 105:-0.041315415 
1.209716252107816 0 1:0.79602888 2:0.12875536 3:0.12 4:1.4111875 5:0.50099953 6:1.0964653 7:0.62081048 8:0.80792686 9:0.76681824 10:0.55980689 11:0.93516534 12:0.36673592 13:0.97557134 14:0.42295215 15:0.45094163 16:0.67315705 17:0.00830455 18:0.9155387 19:-0.21011775 20:1.0741959 21:-0.43776007 22:1.1015519 23:0.48092145 24:0.94051977 25:0.25838071 26:0.70931232 27:0.0041724254 28:0.47078405 29:-0.33876894 30:0.35765689 31:-0.89644078 32:0.46622174 33:-0.95289799 34:0.71093308 35:-0.74423639 36:0.99141332 37:-0.58277457 38:1.2937509 39:-0.45522749 40:0.46823432 41:1 42:0.39308875 43:0.89921028 44:0.26360639 45:0.52755279 46:0.19721993 47:0.049855417 48:0.26214749 49:-0.50941325 50:0.40086825 51:-0.88438371 52:0.53176568 53:-1 54:0.55739523 55:-0.71154676 56:0.61905964 57:-0.31133101 58:0.60087876 59:-0.049855417 60:0.59151427 61:0.22898696 62:0.52448417 63:0.62816802 64:0.41399466 65:0.99995457 66:0.21366987 67:0.71086773 68:0.12471385 69:0.036652341 70:0.20675696 71:-0.67133333 72:0.47752351 73:-0.99996586 74:0.42821477 75:-0.4162947 76:0.41960657 77:-0.04004583 78:0.41469466 79:0.31472908 80:0.92009437 81:0.9689409 82:0.92009437 83:0.66397783 84:0.96512145 85:1 86:0.96977523 87:1 88:0.95532217 89:0.95840484 90:0.096054889 91:0.060034305 92:0.43825043 93:-0.052972049 94:-0.027493628 95:-0.052972049 96:-0.2464959 97:0.065728295 98:0.024349136 99:0.070915112 100:0.02321793 101:0.03506937 102:0.035324309 103:-0.054735782 104:-0.078705648 105:0.17016921 
0 7 1:0.31385855 2:0.32703618 3:0.34064272 4:1.7310286 5:0.57465906 6:1.4494851 7:0.69120544 8:1.1636075 9:0.82136997 10:0.89169361 11:0.94946068 12:0.69348949 13:0.99218281 14:0.60276041 15:0.76101919 16:0.66404224 17:0.27526733 18:0.81879807 19:-0.14460339 20:0.93747139 21:-0.49529738 22:0.97478118 23:0.5495314 24:0.78344949 25:0.2816897 26:0.59604023 27:-0.059184205 28:0.45853384 29:-0.62264769 30:0.50785709 31:-0.99011704 32:0.70643755 33:-0.92760425 34:0.98920015 35:-0.77251762 36:1.2918372 37:-0.63382418 38:1.5746117 39:-0.50852689 40:0.56531882 41:1 42:0.34922078 43:0.9470055 44:0.20887794 45:0.5670617 46:0.14096796 47:-0.02565252 48:0.20688286 49:-0.60306386 50:0.28804995 51:-0.92744299 52:0.43468118 53:-1 54:0.28600364 55:-0.91978129 56:0.20024853 57:-0.61664331 58:0.17308106 59:0.02565252 60:0.23132139 61:0.63499239 62:0.37286179 63:0.92919176 64:0.46951912 65:0.99969817 66:0.13921382 67:0.89335043 68:0.039204656 69:0.033857266 70:0.14197636 71:-0.89853706 72:0.34958534 73:-0.99952783 74:0.13785207 75:-0.91833596 76:0.030937986 77:-0.17606597 78:0.13322596 79:0.95549126 80:0.95989725 81:0.99703262 82:0.95989725 83:0.93772998 84:0.88569549 85:0.98147545 86:0.88209182 87:0.97724834 88:0.95216523 89:0.94610033 90:0.14295 91:0.085194299 92:0.22261943 93:-0.013169167 94:0.0005980996 95:-0.013169167 96:0.02725625 97:-0.013697661 98:0.005824585 99:-0.016768297 100:0.0004662663 101:0.031912433 102:0.023019802 103:-0.0078406725 104:-0.053545654 105:-0.04546178 
7 7 1:0.3289225 2:0.088333333 3:0.081538462 4:1.2902311 5:0.44271004 6:1.0547862 7:0.53006763 8:0.79120637 9:0.62956936 10:0.52783866 11:0.79761155 12:0.32945985 13:0.99327252 14:0.29549729 15:0.56826401 16:0.50839275 17:-0.015854244 18:0.76197233 19:-0.3071161 20:0.95083323 21:-0.57276046 22:0.90270952 23:0.50448158 24:0.73028448 25:0.17328161 26:0.56520077 27:-0.27428162 28:0.50494598 29:-0.80184784 30:0.59008465 31:-0.99986565 32:0.76408501 33:-0.92864634 34:0.98046475 35:-0.79577128 36:1.1983555 37:-0.65534015 38:1.4507868 39:-0.54483212 40:0.44844517 41:1 42:0.28753051 43:0.98684754 44:0.1644266 45:0.8237196 46:0.058504736 47:0.083180457 48:0.16840202 49:-0.85018122 50:0.34336544 51:-0.98816978 52:0.55155483 53:-1 54:0.40878287 55:-0.90101625 56:0.30751259 57:-0.55382509 58:0.27095512 59:-0.083180457 60:0.29533797 61:0.42311922 62:0.34079132 63:0.84365469 64:0.36861996 65:0.99570661 66:0.13315306 67:0.9122616 68:0.057504056 69:-0.16767301 70:0.16310553 71:-0.96509231 72:0.46958206 73:-0.99948657 74:0.16789207 75:-0.93597761 76:0.073677647 77:-0.12721912 78:0.13315306 79:0.9122616 80:0.99288315 81:0.99376093 82:0.99288315 83:0.84246418 84:0.99173109 85:0.95235235 86:0.98736515 87:0.94689652 88:0.98334885 89:0.98371396 90:0.22574191 91:0.11303768 92:0.2870957 93:0.019816726 94:-0.0026735906 95:0.019816726 96:-0.068009547 97:0.092337936 98:-0.023298513 99:0.088505031 100:-0.029885551 101:0.063096057 102:0.060633427 103:0.074951244 104:-0.025702274 105:0.019014485 
0 7 1:0.31779661 2:0.31638323 3:0.30859311 4:1.9851782 5:0.53760388 6:1.6187706 7:0.61905196 8:1.2497807 9:0.71869359 10:0.91157547 11:0.83761584 12:0.62822297 13:0.96452504 14:0.39738358 15:0.93357924 16:0.40613313 17:0.22148681 18:0.63260753 19:-0.30148593 20:0.8418366 21:-0.60471762 22:0.83098857 23:0.59077416 24:0.64114615 25:0.24639281 26:0.41193585 27:-0.34600277 28:0.44191518 29:-0.96677444 30:0.67422012 31:-0.95192929 32:0.94818279 33:-0.82131058 34:1.2718467 35:-0.68921619 36:1.6263439 37:-0.59913656 38:1.9968127 39:-0.51355727 40:0.51162791 41:1 42:0.33010958 43:0.96483744 44:0.20015022 45:0.70266644 46:0.089234745 47:0.0077517051 48:0.1838735 49:-0.66878206 50:0.31117772 51:-0.96965769 52:0.48837209 53:-1 54:0.33456667 55:-0.90689954 56:0.25327886 57:-0.49643065 58:0.22858516 59:-0.0077517051 60:0.25902884 61:0.56220082 62:0.34552465 63:0.91674936 64:0.41129294 65:0.99850609 66:0.13958204 67:0.99939186 68:0.027040832 69:-0.007751705 70:0.12408504 71:-0.99974096 72:0.38775694 73:-0.99975786 74:0.12409067 75:-0.99921136 76:0.020788442 77:0.36568149 78:0.13958704 79:0.9997865 80:0.98392427 81:0.99854375 82:0.98392427 83:0.88946308 84:0.93046072 85:0.96382298 86:0.92872331 87:0.96589134 88:0.97939504 89:0.97648395 90:0.14910281 91:0.12268266 92:0.27510657 93:0.01085785 94:0.0021092267 95:0.01085785 96:-0.021010641 97:0.03106757 98:-0.011827888 99:0.029863186 100:-0.010890731 101:0.059142243 102:0.053403414 103:-0.0016878646 104:-0.016057292 105:0.0070253587 
7 0 1:0.35964986 2:0.14577778 3:0.13696397 4:0.99627043 5:0.45866143 6:0.7442231 7:0.57774986 8:0.52294351 9:0.74181503 10:0.37672887 11:0.9654964 12:0.32196964 13:0.88642015 14:0.39337892 15:0.34133146 16:0.58526246 17:-0.066035274 18:0.8130726 19:-0.30540498 20:0.96538018 21:-0.51248792 22:0.97080767 23:0.52044739 24:0.80408863 25:0.32143612 26:0.56518479 27:0.083177967 28:0.38721906 29:-0.34115335 30:0.31363178 31:-0.86700023 32:0.35141505 33:-0.97902599 34:0.48876738 35:-0.7641982 36:0.69307028 37:-0.59181958 38:0.93258164 39:-0.46832134 40:0.51026646 41:1 42:0.33424062 43:0.99985456 44:0.1458618 45:0.98787429 46:0.052465778 47:0.022361267 48:0.14216786 49:-0.9848546 50:0.3169128 51:-0.99923634 52:0.48973354 53:-1 54:0.42236994 55:-0.77273023 56:0.4147915 57:-0.35254328 58:0.41200763 59:0.022361267 60:0.42512755 61:0.38403063 62:0.44337595 63:0.79721124 64:0.45439085 65:0.99823112 66:0.16296306 67:0.89420126 68:0.095694746 69:-0.010702519 70:0.15758419 71:-0.90245128 72:0.42867612 73:-0.99748849 74:0.287572 75:-0.4863912 76:0.27539877 77:0.017401707 78:0.29947954 79:0.51839281 80:0.99452934 81:0.98162453 82:0.99452934 83:0.56694252 84:0.97569084 85:0.99807238 86:0.97978258 87:0.99799164 88:0.96909123 89:0.97114258 90:0.10542035 91:0.07571421 92:0.30506124 93:0.021462915 94:-0.014809999 95:0.021462915 96:-0.3435312 97:0.076297685 98:0.022421519 99:0.080922462 100:0.021209565 101:0.048838432 102:0.048062052 103:-0.045370322 104:-0.063025743 105:0.036980029 
0 7 1:0.30769231 2:0.28205128 3:0.27586207 4:1.5285201 5:0.49932292 6:1.2326135 7:0.6264441 8:0.92573565 9:0.76967294 10:0.65054071 11:0.9320678 12:0.47116799 13:0.98221297 14:0.47903893 15:0.6153632 16:0.62843365 17:0.13613644 18:0.85174243 19:-0.18910952 20:1.0125084 21:-0.46085348 22:1.044958 23:0.51043388 24:0.87831303 25:0.25400256 26:0.66715293 27:-0.085308079 28:0.50245657 29:-0.60556182 30:0.50859092 31:-0.99494443 32:0.72607153 33:-0.89088223 34:1.0272642 35:-0.70372483 36:1.3838333 37:-0.57736614 38:1.7243984 39:-0.47296394 40:0.47142857 41:1 42:0.33073741 43:0.96871051 44:0.22398673 45:0.69824476 46:0.11902316 47:0.11704704 48:0.18720372 49:-0.58136723 50:0.30647814 51:-0.94673895 52:0.52857143 53:-1 54:0.34574549 55:-0.93523811 56:0.2301156 57:-0.66954639 58:0.1895554 59:-0.11704704 60:0.2143802 61:0.59679388 62:0.31012961 63:0.91367775 64:0.39001805 65:0.99966908 66:0.15980862 67:0.99920164 68:0.023296003 69:0.96603786 70:0.1055634 71:-0.99987906 72:0.44321074 73:-0.99997832 74:0.13533349 75:-0.99963657 76:0.020689195 77:-0.97540432 78:0.11505998 79:0.98353189 80:0.97094168 81:0.99996347 82:0.97094168 83:0.92659191 84:0.93658992 85:0.97499604 86:0.94482129 87:0.97043085 88:0.88069476 89:0.8986841 90:0.19824561 91:0.15263158 92:0.27894737 93:-0.002124746 94:0.0035289493 95:-0.002124746 96:0.01611819 97:0.037196763 98:-0.0006548208 99:0.045961174 100:-0.0063512236 101:-0.039558032 102:-0.024396429 103:0.047454944 104:0.013891626 105:0.010866154 
7 0 1:0.58041401 2:0.31796802 3:0.33333333 4:1.3493541 5:0.48286971 6:1.0557284 7:0.60055368 8:0.79797386 9:0.77255777 10:0.60962497 11:0.95579845 12:0.50811072 13:0.96443945 14:0.52717145 15:0.58643925 16:0.66729065 17:0.10980039 18:0.894999 19:-0.20333463 20:1.0821374 21:-0.4720949 22:1.072044 23:0.45625782 24:0.91956821 25:0.20108104 26:0.73105527 27:-0.10722144 28:0.59291141 29:-0.55284983 30:0.54673758 31:-0.92838447 32:0.61662811 33:-0.97546359 34:0.80855105 35:-0.78256352 36:1.082897 37:-0.61028954 38:1.4001253 39:-0.47553887 40:0.49858357 41:1 42:0.40045174 43:0.89874195 44:0.27197891 45:0.56615715 46:0.18695793 47:-0.020769834 48:0.27898815 49:-0.63543831 50:0.40280375 51:-0.92230017 52:0.50141643 53:-1 54:0.46371848 55:-0.7853846 56:0.41149935 57:-0.39396029 58:0.39365334 59:0.020769834 60:0.41248747 61:0.47385474 62:0.47216274 63:0.83344646 64:0.42672999 65:0.99968086 66:0.21362619 67:0.74646398 68:0.12931005 69:-0.13741729 70:0.22622935 71:-0.81754998 72:0.43253934 73:-0.99998492 74:0.27359272 75:-0.57317192 76:0.22451372 77:0.10477839 78:0.27839382 79:0.70997165 80:0.92750702 81:0.96668437 82:0.92750702 83:0.61692456 84:0.88936565 85:0.98389645 86:0.8929811 87:0.9688506 88:0.9430666 89:0.90975157 90:0.11261261 91:0.072635135 92:0.34628378 93:-0.0455594 94:-0.029750153 95:-0.0455594 96:-0.29354917 97:-0.010027506 98:0.0082455845 99:-0.0058790198 100:-0.0079314716 101:0.022813808 102:-0.013328966 103:-0.038178058 104:-0.066104818 105:0.07820257 
0 7 1:0.32754127 2:0.2992278 3:0.28460039 4:1.7711187 5:0.53489011 6:1.4722154 7:0.64755223 8:1.1821654 9:0.77046289 10:0.91402127 11:0.90808018 12:0.71051533 13:0.9996439 14:0.59673911 15:0.84197436 16:0.66161609 17:0.35362239 18:0.87696922 19:-0.10851917 20:1.0779555 21:-0.47600807 22:1.065719 23:0.4568601 24:0.89221205 25:0.067155746 26:0.69935214 27:-0.39178986 28:0.6699795 29:-0.83881378 30:0.81597037 31:-0.99949038 32:1.0052783 33:-0.9410064 34:1.2346061 35:-0.81757895 36:1.5133704 37:-0.68443459 38:1.8197161 39:-0.56794687 40:0.49311217 41:1 42:0.36529945 43:0.93038139 44:0.23629775 45:0.65228637 46:0.14011315 47:0.020799548 48:0.22910027 49:-0.62805412 50:0.36032334 51:-0.92526606 52:0.50688783 53:-1 54:0.36372889 55:-0.94949836 56:0.23194683 57:-0.68542307 58:0.18733919 59:-0.020799548 60:0.22386216 61:0.66385264 62:0.35693431 63:0.94548155 64:0.40633724 65:0.99995688 66:0.15692476 67:0.98690681 68:0.0059217622 69:0.39887757 70:0.1452295 71:-0.98568857 72:0.4112181 73:-0.99987726 74:0.15274646 75:-0.99562899 76:0.0059217622 77:0.39887757 78:0.15630875 79:0.99491792 80:0.95981733 81:0.99993621 82:0.95981733 83:0.92724428 84:0.90258966 85:0.98612185 86:0.90972802 87:0.98483576 88:0.95608588 89:0.96427737 90:0.12382332 91:0.12056481 92:0.2570601 93:-0.013249093 94:0.0035016905 95:-0.013249093 96:0.016770558 97:0.0031965021 98:0.010470989 99:0.010867903 100:0.0080536875 101:0.035833083 102:0.041196842 103:-0.026967354 104:-0.018175145 105:-0.011021113 
7 7 1:0.28567742 2:0.33126761 3:0.31528662 4:1.2934121 5:0.56811701 6:1.0215935 7:0.67359167 8:0.77350776 9:0.79497601 10:0.54729748 11:0.933233 12:0.38724149 13:0.97395132 14:0.41514904 15:0.47666382 16:0.5894617 17:-0.033506693 18:0.78800927 19:-0.31258553 20:0.9701158 21:-0.55592654 22:0.92870793 23:0.49605141 24:0.75282 25:0.17947363 26:0.57476606 27:-0.30095329 28:0.54453217 29:-0.82407563 30:0.66279751 31:-0.9998904 32:0.84128591 33:-0.92487617 34:1.0615123 35:-0.77649087 36:1.3294803 37:-0.63256768 38:1.6196367 39:-0.50502963 40:0.43813298 41:1 42:0.28202161 43:0.96829735 44:0.15348999 45:0.75217207 46:0.053892343 47:-0.042673553 48:0.17314992 49:-0.81321301 50:0.35644844 51:-0.98160247 52:0.56186702 53:-1 54:0.38709165 55:-0.90682114 56:0.25829015 57:-0.54904991 58:0.23206446 59:0.042673553 60:0.23989299 61:0.55677479 62:0.31358981 63:0.93741535 64:0.36305744 65:0.99992219 66:0.10688321 67:0.99894589 68:0.031651048 69:-0.068685745 70:0.14958145 71:-0.99937594 72:0.46615133 73:-0.9999579 74:0.140721 75:-0.9362499 76:0.068396464 77:0.29193284 78:0.14733574 79:0.9748519 80:0.9941649 81:0.99801556 82:0.9941649 83:0.88610536 84:0.87757651 85:0.98702553 86:0.88754457 87:0.98889439 88:0.94107796 89:0.96160802 90:0.10641806 91:0.12100457 92:0.26141553 93:0.021098481 94:0.0015810384 95:0.021098481 96:-0.024368369 97:-0.021816646 98:0.011374668 99:-0.011315552 100:0.012112316 101:0.02082516 102:0.038527483 103:-0.044372608 104:-0.017735387 105:-0.006665689 
5.162393825500707 0 1:0.88361409 2:0.1372549 3:0.16024845 4:1.2031622 5:0.58474451 6:0.94925842 7:0.73000343 8:0.72697589 9:0.88375655 10:0.56029954 11:0.99821284 12:0.50881206 13:0.85639939 14:0.60804447 15:0.43359375 16:0.80087343 17:0.075839653 18:0.99068183 19:-0.18872705 20:1.1336994 21:-0.43486139 22:1.1398553 23:0.44479148 24:0.98471544 25:0.21027211 26:0.78559317 27:-0.057282835 28:0.59872182 29:-0.42166659 30:0.49479985 31:-0.85777939 32:0.54882792 33:-0.99479635 34:0.7356293 35:-0.8623458 36:0.97384259 37:-0.70861798 38:1.2460612 39:-0.57810233 40:0.48170039 41:1 42:0.47201462 43:0.81097472 44:0.41402611 45:0.40423299 46:0.36324698 47:0.029539275 48:0.40993414 49:-0.37127352 50:0.47535663 51:-0.79703708 52:0.51829961 53:-1 54:0.5374128 55:-0.75783522 56:0.53858268 57:-0.36141897 58:0.52088625 59:-0.029539275 60:0.51944908 61:0.28854598 62:0.49637567 63:0.73326427 64:0.44144524 65:0.99971635 66:0.33125513 67:0.48967287 68:0.28963323 69:0.022480874 70:0.3263864 71:-0.45707857 72:0.47701731 73:-0.99992541 74:0.40844886 75:-0.45705861 76:0.37339153 77:-0.062370359 78:0.37710994 79:0.37650289 80:0.68782078 81:0.81542214 82:0.68782078 83:0.29052518 84:0.95576922 85:0.99980775 86:0.93984002 87:0.99977699 88:0.90947798 89:0.90749509 90:0.15236194 91:0.063650477 92:0.44754935 93:-0.28524564 94:-0.18101239 95:-0.28524564 96:-0.61994855 97:0.05637607 98:0.024156884 99:0.040979896 100:0.022994919 101:-0.010774818 102:-0.015585446 103:0.0015712726 104:-0.075089476 105:0.17946813 
0 7 1:0.234375 2:0.28451883 3:0.26666667 4:1.7425569 5:0.46087296 6:1.4149955 7:0.55036291 8:1.0648237 9:0.67525407 10:0.80512737 11:0.8243625 12:0.58935993 13:0.97601008 14:0.43237357 15:0.89544822 16:0.47620365 17:0.35773347 18:0.70161003 19:-0.16081848 20:0.86282619 21:-0.52051624 22:0.91991246 23:0.59884498 24:0.76785531 25:0.23914443 26:0.53629341 27:-0.18976536 28:0.47270639 29:-0.81436546 30:0.59867109 31:-0.99778516 32:0.84795433 33:-0.87143614 34:1.1327779 35:-0.71872807 36:1.4649292 37:-0.58295123 38:1.8368162 39:-0.46733422 40:0.48113208 41:1 42:0.35452778 43:0.91403961 44:0.24712644 45:0.64879993 46:0.13312088 47:-0.075257669 48:0.24801165 49:-0.70051217 50:0.3970971 51:-0.95008251 52:0.51886792 53:-1 54:0.36565645 55:-0.97732038 56:0.18240205 57:-0.86758046 58:0.10205934 59:0.075257669 60:0.19302068 61:0.91089897 62:0.34874057 63:0.98630319 64:0.41866557 65:0.99595671 66:0.19215368 67:0.96106353 68:0.037130942 69:-0.44856215 70:0.18786978 71:-0.9718686 72:0.45251788 73:-0.99995219 74:0.19629099 75:-0.91890286 76:0.035108485 77:0.47083506 78:0.20584102 79:0.90790596 80:0.96407643 81:0.99779267 82:0.96407643 83:0.97915281 84:0.93461977 85:0.976044 86:0.91305201 87:0.98136422 88:0.97133741 89:0.94569623 90:0.13339071 91:0.088640275 92:0.1919105 93:-0.0089899935 94:0.0013581445 95:-0.0089899935 96:0.06867909 97:0.035226618 98:0.0003931379 99:0.014191891 100:0.0045821535 101:0.051084618 102:0.022615694 103:-0.017399965 104:-0.050099678 105:-0.076170715 
7 7 1:0.27817344 2:0.15840154 3:0.15749882 4:1.228986 5:0.51153673 6:0.97667805 7:0.61938596 8:0.738525 9:0.77487181 10:0.54553411 11:0.95308019 12:0.43771791 13:0.95409172 14:0.4630901 15:0.52483545 16:0.62200459 17:0.041279339 18:0.80578534 19:-0.28315944 20:0.98619138 21:-0.52662619 22:0.96636691 23:0.49737401 24:0.82704951 25:0.23036968 26:0.67710495 27:-0.13099697 28:0.57334965 29:-0.58386671 30:0.56489056 31:-0.93161317 32:0.66536864 33:-0.99279082 34:0.84260228 35:-0.88715632 36:1.0671393 37:-0.75435236 38:1.3185493 39:-0.63921169 40:0.46927374 41:1 42:0.29119746 43:0.98329388 44:0.15468352 45:0.66274871 46:0.097394219 47:0.052998038 48:0.15762542 49:-0.6694171 50:0.31139915 51:-0.98723263 52:0.53072626 53:-1 54:0.33696844 55:-0.92386601 56:0.22269275 57:-0.57645625 58:0.18154282 59:-0.052998038 60:0.20687589 61:0.48003086 62:0.31083506 63:0.88268688 64:0.39334418 65:0.99770243 66:0.11303855 67:0.99983676 68:0.012683943 69:0.39161227 70:0.10484939 71:-0.99987566 72:0.45056912 73:-0.99960621 74:0.12452887 75:-0.99962633 76:0.0134531 77:-0.36094312 78:0.093451121 79:0.99917595 80:0.98125565 81:0.99968404 82:0.98125565 83:0.93154098 84:0.97843649 85:0.99093688 86:0.98374051 87:0.99356024 88:0.95194909 89:0.96808574 90:0.1709311 91:0.095445376 92:0.23643699 93:0.0081892317 94:0.0032495126 95:0.0081892317 96:0.021067254 97:0.079043335 98:0.015286012 99:0.084880391 100:0.016778169 101:0.031696296 102:0.045005208 103:0.020140427 104:-0.043294577 105:-0.031644225 
0 7 1:0.30314961 2:0.31893688 3:0.28908555 4:1.3367933 5:0.4617232 6:1.0301328 7:0.5853578 8:0.76257662 9:0.77207199 10:0.56400565 11:0.95757003 12:0.46688064 13:0.94820088 14:0.50193135 15:0.55366659 16:0.64786213 17:0.094809093 18:0.83449357 19:-0.23069005 20:0.99562087 21:-0.50784188 22:0.9899621 23:0.4993949 24:0.85853285 25:0.2041633 26:0.70542751 27:-0.17626839 28:0.65932285 29:-0.62372472 30:0.69472778 31:-0.92294927 32:0.81343279 33:-0.99914103 34:0.9899621 35:-0.9193406 36:1.2292726 37:-0.7824121 38:1.5210549 39:-0.64660428 40:0.45185185 41:1 42:0.32325638 43:0.91814326 44:0.23191777 45:0.64346137 46:0.14859691 47:0.061611125 48:0.22776551 49:-0.60111029 50:0.362912 51:-0.93248589 52:0.54814815 53:-1 54:0.36375956 55:-0.95502393 56:0.21598687 57:-0.70672133 58:0.15535131 59:-0.061611125 60:0.20358223 61:0.72566256 62:0.31621948 63:0.95515658 64:0.37097911 65:0.9979104 66:0.15389799 67:0.94533274 68:0.036911982 69:0.1059758 70:0.14450792 71:-0.96298794 72:0.46955621 73:-0.99987275 74:0.15492212 75:-0.99012068 76:0.0095843875 77:-0.92048714 78:0.13532748 79:0.96988873 80:0.95541212 81:0.99739173 82:0.95541212 83:0.95040218 84:0.91417682 85:0.97178209 86:0.90250543 87:0.9836774 88:0.9183541 89:0.92000232 90:0.14038128 91:0.13229347 92:0.26574235 93:-0.017654298 94:0.0009572078 95:-0.017654298 96:0.039928457 97:0.014783663 98:-0.0038687702 99:0.0036453142 100:0.0068953337 101:-0.0018987002 102:-0.0030782107 103:-0.010409388 104:-0.006446481 105:-0.0023388686 
7 7 1:0.52054795 2:0.45714286 3:0.47058824 4:1.2651781 5:0.55219906 6:1.0174864 7:0.68662353 8:0.78274217 9:0.84003938 10:0.61262136 11:0.98386991 12:0.55475224 13:0.93834312 14:0.59726656 15:0.596324 16:0.73883762 17:0.18540786 18:0.89890574 19:-0.13715306 20:1.0477437 21:-0.4314555 22:1.0925463 23:0.50153044 24:0.94689149 25:0.24593812 26:0.76907775 27:-0.07124705 28:0.62535409 29:-0.48191875 30:0.55220943 31:-0.86824314 32:0.57599441 33:-0.99886814 34:0.72382711 35:-0.87056284 36:0.96863943 37:-0.70710678 38:1.2311251 39:-0.56747291 40:0.4888248 41:1 42:0.35217519 43:0.92124956 44:0.22568073 45:0.52712427 46:0.16444047 47:-0.026306682 48:0.23822052 49:-0.59319904 50:0.36016135 51:-0.92484384 52:0.5111752 53:-1 54:0.40642652 55:-0.81956514 56:0.35785046 57:-0.39489172 58:0.35628769 59:0.026306682 60:0.37802282 61:0.42340745 62:0.41057294 63:0.82358052 64:0.42055481 65:0.99946937 66:0.14929869 67:0.88855716 68:0.068629622 69:-0.063032304 70:0.14483277 71:-0.88110968 72:0.44289395 73:-0.99952156 74:0.21908557 75:-0.5824827 76:0.19200972 77:0.048813919 78:0.23050865 79:0.6349395 80:0.94441102 81:0.99057294 82:0.94441102 83:0.70184594 84:0.72787081 85:0.97352715 86:0.73646965 87:0.96432919 88:0.89159678 89:0.90093105 90:0.14102564 91:0.083333333 92:0.32692308 93:-0.0286554 94:-0.0058615824 95:-0.0286554 96:-0.20862778 97:-0.17152234 98:-0.0021237188 99:-0.16239047 100:-0.012452876 101:-0.028656015 102:-0.022149485 103:-0.0097650291 104:-0.05540662 105:0.058841863 
7 0 1:0.50033761 2:0.38737949 3:0.40071556 4:1.1768347 5:0.49900976 6:0.94282745 7:0.61325209 8:0.71255397 9:0.7816169 10:0.53760333 11:0.94937842 12:0.42753238 13:0.96797717 14:0.41265711 15:0.58567023 16:0.52555384 17:0.06004631 18:0.69569165 19:-0.29350193 20:0.86016533 21:-0.57102192 22:0.87036652 23:0.58461204 24:0.71145689 25:0.32806068 26:0.52510777 27:-0.011305436 28:0.39879525 29:-0.52219456 30:0.37601085 31:-0.96059346 32:0.47116511 33:-0.93304618 34:0.6542615 35:-0.73449211 36:0.89094457 37:-0.57146002 38:1.1458953 39:-0.45835813 40:0.47891284 41:1 42:0.36583827 43:0.92859569 44:0.23796533 45:0.63715261 46:0.15655026 47:0.012495119 48:0.24101451 49:-0.66730816 50:0.38639531 51:-0.93254503 52:0.52108716 53:-1 54:0.4477304 55:-0.85015527 56:0.37846251 57:-0.47408077 58:0.34356689 59:-0.012495119 60:0.35990187 61:0.40435308 62:0.40188698 63:0.8254767 64:0.42892111 65:0.99999894 66:0.18034033 67:0.84680895 68:0.081601073 69:0.035458697 70:0.19102181 71:-0.83704368 72:0.45859759 73:-0.99999855 74:0.26774991 75:-0.62926633 76:0.21863802 77:-0.026780179 78:0.23963641 79:0.6001131 80:0.94909503 81:0.98627831 82:0.94909503 83:0.72789807 84:0.83316555 85:0.97510689 86:0.80320211 87:0.97106402 88:0.85903141 89:0.86080606 90:0.16297184 91:0.082883963 92:0.37886958 93:-0.023971389 94:-0.010156211 95:-0.023971389 96:-0.18257565 97:-0.066227608 98:-0.0005439733 99:-0.095658013 100:-0.0057180498 101:-0.061221387 102:-0.062274474 103:0.012181169 104:-0.055855991 105:0.11078837 
0 7 1:0.27124183 2:0.39622642 3:0.33157895 4:1.602355 5:0.49288642 6:1.2792975 7:0.60396578 8:0.98923767 9:0.73581969 10:0.71776972 11:0.89288244 12:0.48399808 13:0.9999583 14:0.39067161 15:0.71063343 16:0.52558833 17:0.052558833 18:0.77397232 19:-0.31729831 20:0.96713966 21:-0.5661166 22:0.91669596 23:0.49360552 24:0.76931842 25:0.18851443 26:0.63158137 27:-0.265929 28:0.5992629 29:-0.7559932 30:0.70710678 31:-0.98994949 32:0.91413093 33:-0.96399262 34:1.1724861 35:-0.84511359 36:1.469064 37:-0.71737335 38:1.8033502 39:-0.60798444 40:0.48756477 41:1 42:0.33867544 43:0.95838465 44:0.2190291 45:0.72391862 46:0.12140303 47:0.23660849 48:0.19548527 49:-0.59070387 50:0.3114423 51:-0.95174335 52:0.51243523 53:-1 54:0.35119431 55:-0.96593483 56:0.22425855 57:-0.79822962 58:0.15296213 59:-0.23660849 60:0.18234423 61:0.55293462 62:0.28949893 63:0.9227073 64:0.39281348 65:0.99999975 66:0.14773424 67:0.97230079 68:0.025201711 69:0.72327431 70:0.12837401 71:-0.97052301 72:0.42360171 73:-0.99972439 74:0.16279677 75:-0.98929494 76:0.020905328 77:-0.87232966 78:0.11426995 79:0.98870381 80:0.97031862 81:0.99923077 82:0.97031862 83:0.95373341 84:0.84511079 85:0.97102112 86:0.8995382 87:0.97024999 88:0.92459466 89:0.92959217 90:0.17784257 91:0.13411079 92:0.25510204 93:-0.0027478042 94:0.0027962448 95:-0.0027478042 96:0.043259685 97:-0.05428236 98:-0.0046297486 99:0.000678081 100:-0.0065320813 101:0.0043418625 102:0.0065116365 103:0.027051895 104:-0.0046291658 105:-0.012979173 
7 7 1:0.4355622 2:0.35887384 3:0.39599686 4:1.30484 5:0.65264534 6:1.0613415 7:0.79628319 8:0.86446773 9:0.93567519 10:0.7233469 11:0.99951419 12:0.65582905 13:0.88031748 14:0.63177324 15:0.54116529 16:0.69480104 17:0.081118903 18:0.85167363 19:-0.29279158 20:1.0106277 21:-0.56001577 22:0.94309779 23:0.46022008 24:0.75724301 25:0.20581477 26:0.52928362 27:-0.12111669 28:0.39959301 29:-0.66157296 30:0.41770276 31:-0.99450802 32:0.55804079 33:-0.90898996 34:0.74937077 35:-0.7334128 36:0.96933982 37:-0.56991438 38:1.2004132 39:-0.42958806 40:0.56435644 41:1 42:0.36454486 43:0.94742733 44:0.20746941 45:0.61256852 46:0.13301965 47:-0.0099005048 48:0.22771197 49:-0.6596462 50:0.33643861 51:-0.94496155 52:0.43564356 53:-1 54:0.36626989 55:-0.85996955 56:0.32414477 57:-0.48003376 58:0.30260256 59:0.0099005048 60:0.33707982 61:0.4494372 62:0.42906442 63:0.85887449 64:0.47547655 65:0.99974285 66:0.13871964 67:0.9995383 68:0.0055874136 69:0.0099005048 70:0.14857019 71:-0.99981695 72:0.35646197 73:-0.99967295 74:0.15839634 75:-0.93408015 76:0.074890947 77:0.0099005048 78:0.15308715 79:0.9095715 80:0.96428998 81:0.99992402 82:0.96428998 83:0.79525455 84:0.88129914 85:0.97405747 86:0.842148 87:0.96753234 88:0.94014732 89:0.91013569 90:0.18200247 91:0.088577472 92:0.29411246 93:-0.0087764445 94:0.0034894925 95:-0.0087764445 96:-0.11521918 97:-0.018094012 98:-0.0015933937 99:-0.056712124 100:-0.0092497319 101:0.019894522 102:-0.012944843 103:0.031211798 104:-0.050162481 105:0.026031248 
0 0.5004564459764338 1:0.50505051 2:0.27659574 3:0.25490196 4:1.7486713 5:0.46788772 6:1.3786306 7:0.57149375 8:1.000051 9:0.71713513 10:0.69572426 11:0.90015925 12:0.47998401 13:0.98909018 14:0.4454763 15:0.54419111 16:0.6364438 17:-0.015871017 18:0.90718093 19:-0.32290063 20:1.1155101 21:-0.57952379 22:0.97541454 23:0.36244626 24:0.8588235 25:-0.023522901 26:0.71546247 27:-0.50825358 28:0.74089377 29:-0.89981411 30:0.91969128 31:-0.99945703 32:1.1741963 33:-0.92906878 34:1.4646465 35:-0.8 36:1.7750208 37:-0.66011461 38:2.121164 39:-0.53810744 40:0.45414141 41:1 42:0.3930684 43:0.87269876 44:0.33934608 45:0.5048331 46:0.2426181 47:0.039968038 48:0.33897906 49:-0.44816689 50:0.42519873 51:-0.87992129 52:0.54585859 53:-1 54:0.41893282 55:-0.94130472 56:0.30944747 57:-0.62150526 58:0.26283628 59:-0.039968038 60:0.29113375 61:0.55373903 62:0.37008337 63:0.89960621 64:0.37346996 65:0.99963418 66:0.18507785 67:0.87105032 68:0.070708225 69:-0.0057141924 70:0.18105384 71:-0.89487307 72:0.44496315 73:-0.9997423 74:0.16970948 75:-0.95469155 76:0.030305724 77:-0.013332148 78:0.17860277 79:0.95918519 80:0.87459816 81:0.98995052 82:0.87459816 83:0.85094641 84:0.93229371 85:0.98540733 86:0.94951373 87:0.98058822 88:0.91750369 89:0.95711156 90:0.13414634 91:0.12601626 92:0.32926829 93:-0.098468259 94:-0.006484 95:-0.098468259 96:-0.059527319 97:0.032900561 98:0.0097564704 99:0.050653606 100:0.0038061452 101:-0.002749109 102:0.034031027 103:-0.016644329 104:-0.012723693 105:0.061187079 
7 0 1:0.45828933 2:0.23076923 3:0.22169249 4:1.1943792 5:0.50661788 6:0.95051841 7:0.63461912 8:0.71389878 9:0.7724828 10:0.52854193 11:0.94549151 12:0.39364932 13:0.96982116 14:0.38084146 15:0.47376396 16:0.52803445 17:-0.075143363 18:0.73316677 19:-0.35652748 20:0.92057215 21:-0.58332996 22:0.87946486 23:0.52645956 24:0.72285552 25:0.27408426 26:0.56054359 27:-0.067915691 28:0.45523467 29:-0.57184071 30:0.46108626 31:-0.943686 32:0.57587793 33:-0.97810795 34:0.7538996 35:-0.8520488 36:0.95192763 37:-0.69000672 38:1.2046603 39:-0.55793153 40:0.52459016 41:1 42:0.34931909 43:0.91923091 44:0.23815574 45:0.57943172 46:0.17071546 47:-0.049120959 48:0.24198197 49:-0.58196643 50:0.3620221 51:-0.9244164 52:0.47540984 53:-1 54:0.37042278 55:-0.86002641 56:0.30880287 57:-0.43346383 58:0.28774682 59:0.049120959 60:0.32328633 61:0.49899848 62:0.40076994 63:0.88216344 64:0.45855853 65:0.99958957 66:0.17872717 67:0.69859698 68:0.12159451 69:-0.049120959 70:0.1902456 71:-0.72331883 72:0.41000691 73:-0.99996922 74:0.21710045 75:-0.5634568 76:0.20587856 77:0.049120959 78:0.24005817 79:0.65189886 80:0.93965152 81:0.9697933 82:0.93965152 83:0.81854275 84:0.9235929 85:0.99926008 86:0.92923571 87:0.99726584 88:0.93577097 89:0.93430239 90:0.14470426 91:0.15378267 92:0.39257221 93:-0.033414904 94:-0.026641229 95:-0.033414904 96:-0.091930975 97:0.024199747 98:0.023609218 99:0.030375586 100:0.020483772 101:0.015518169 102:0.011221856 103:-0.0060864061 104:0.015042715 105:0.124491 
7 7 1:0.29772287 2:0.21660253 3:0.19008264 4:1.4846935 5:0.56413224 6:1.1875102 7:0.70246079 8:0.95248066 9:0.85003791 10:0.79780438 11:0.9830279 12:0.69168374 13:0.96138536 14:0.64702451 15:0.68385413 16:0.7211259 17:0.22760047 18:0.90628252 19:-0.16243072 20:1.089935 21:-0.46728132 22:1.0813629 23:0.45377341 24:0.91587799 25:0.16350016 26:0.72909868 27:-0.18449871 28:0.6460431 29:-0.64429704 30:0.64865691 31:-0.94168288 32:0.72590065 33:-0.99065917 34:0.86561826 35:-0.85714778 36:1.1088528 37:-0.6775192 38:1.4012423 39:-0.53433369 40:0.49147727 41:1 42:0.34909827 43:0.95223851 44:0.20349257 45:0.76467592 46:0.10660286 47:-0.0085224178 48:0.20839805 49:-0.73509697 50:0.35381011 51:-0.94230157 52:0.50852273 53:-1 54:0.35887772 55:-0.94314009 56:0.24180385 57:-0.72451036 58:0.1912083 59:0.0085224178 60:0.23792606 61:0.661121 62:0.35263749 63:0.92828667 64:0.42044193 65:0.99992711 66:0.1500116 67:0.98653473 68:0.011761458 69:0.3543462 70:0.16450555 71:-0.97751715 72:0.42429249 73:-0.99912293 74:0.16287081 75:-0.99771739 76:0.012929564 77:0.19146668 78:0.15814394 79:1 80:0.97690747 81:0.9997407 82:0.97690747 83:0.92425201 84:0.97016618 85:0.99058648 86:0.97566113 87:0.98715271 88:0.90151026 89:0.88536393 90:0.17820583 91:0.10247661 92:0.23775454 93:0.0038410518 94:0.0033061756 95:0.0038410518 96:0.013778288 97:0.070773022 98:0.014935612 99:0.076801009 100:0.010370641 101:-0.018742532 102:-0.037716599 103:0.027415164 104:-0.036263343 105:-0.030326674 
0 7 1:0.44841592 2:0.4 3:0.38601824 4:1.6460691 5:0.60851621 6:1.3588499 7:0.72370208 8:1.0941186 9:0.84381761 10:0.85092091 11:0.96795301 12:0.69168146 13:0.98443128 14:0.63376632 15:0.74899656 16:0.68323128 17:0.23867546 18:0.8647068 19:-0.19962155 20:1.0396696 21:-0.51684151 22:1.0031072 23:0.46122249 24:0.85772061 25:0.13206866 26:0.67004676 27:-0.27619303 28:0.55036766 29:-0.73734188 30:0.53001213 31:-0.99504494 32:0.68474789 33:-0.89199017 34:0.93724236 35:-0.71765227 36:1.2437395 37:-0.5751628 38:1.5408679 39:-0.46479168 40:0.53746531 41:1 42:0.36979093 43:0.93502582 44:0.25573316 45:0.61703871 46:0.15064103 47:-0.015724235 48:0.24100884 49:-0.53149443 50:0.34412114 51:-0.89675624 52:0.46253469 53:-1 54:0.38210431 55:-0.8586526 56:0.31821421 57:-0.43644575 58:0.29796215 59:0.015724235 60:0.3330583 61:0.50243704 62:0.42503488 63:0.86328418 64:0.45616469 65:0.99994042 66:0.16459409 67:0.88055525 68:0.089636961 69:0.01523618 70:0.14594694 71:-0.82650568 72:0.38123941 73:-0.99991471 74:0.15441089 75:-0.848382 76:0.094203272 77:0.13342471 78:0.17651321 79:0.87751334 80:0.95401581 81:0.98404782 82:0.95401581 83:0.80218501 84:0.87551 85:0.96184356 86:0.8660254 87:0.96228694 88:0.94197508 89:0.92217064 90:0.17078189 91:0.13786008 92:0.32716049 93:-0.019050613 94:-0.012386702 95:-0.019050613 96:-0.10828872 97:-0.023883154 98:-0.013807301 99:-0.032834716 100:-0.01449513 101:0.02172228 102:-0.0009098919 103:0.019991223 104:-0.0008798707 105:0.05907928 
0 7 1:0.32727273 2:0.19744318 3:0.18890357 4:1.6323967 5:0.52999894 6:1.3413728 7:0.64766787 8:1.0669709 9:0.79822736 10:0.84428016 11:0.9448911 12:0.67374519 13:0.99060556 14:0.63153104 15:0.75151767 16:0.70088227 17:0.30330953 18:0.86276274 19:-0.094809093 20:1.0255171 21:-0.42072498 22:1.0903046 23:0.52145001 24:0.91744638 25:0.21848627 26:0.7416956 27:-0.17088085 28:0.63917081 29:-0.61174764 30:0.62329318 31:-0.93522819 32:0.72111026 33:-0.99098125 34:0.91214034 35:-0.89775265 36:1.1412195 37:-0.7742555 38:1.394693 39:-0.65158716 40:0.4892562 41:1 42:0.30379667 43:0.92550819 44:0.19591735 45:0.48999118 46:0.14337671 47:-0.079636077 48:0.2047865 49:-0.60442221 50:0.31617095 51:-0.95440469 52:0.5107438 53:-1 54:0.32436471 55:-0.90951159 56:0.19876886 57:-0.49609869 58:0.18395503 59:0.079636077 60:0.21109557 61:0.61869851 62:0.32559909 63:0.94497549 64:0.41285782 65:0.99998519 66:0.11737093 67:0.95192314 68:0.028063209 69:-0.11859197 70:0.12106296 71:-0.97044854 72:0.42587683 73:-0.99981956 74:0.12452642 75:-0.92541148 76:0.048787944 77:-0.21560823 78:0.10965172 79:0.96155334 80:0.95826142 81:0.99847684 82:0.95826142 83:0.92956747 84:0.98144158 85:0.98280264 86:0.98514396 87:0.98299739 88:0.9117348 89:0.92208862 90:0.21438083 91:0.14194407 92:0.28095872 93:-0.014804999 94:0.002042318 95:-0.014804999 96:0.019093742 97:0.082048428 98:0.0071517716 99:0.086283844 100:0.0062153153 101:-0.0085179918 102:-0.0009919146 103:0.063590155 104:0.0032041216 105:0.012877508 
7 0 1:0.54936709 2:0.22916667 3:0.29958678 4:1.7103046 5:0.62646775 6:1.4246883 7:0.74843605 8:1.1834777 9:0.87873112 10:0.97065886 11:0.98076435 12:0.7620991 13:0.98158365 14:0.64682218 15:0.75441304 16:0.70164642 17:0.26311741 18:0.85288541 19:-0.17275621 20:1.0287554 21:-0.4641945 22:1.0503582 23:0.49740877 24:0.89078342 25:0.28282518 26:0.67133967 27:0.13657494 28:0.37938624 29:-0.042728579 30:0.13209718 31:-0.88403496 32:0.31907196 33:-0.6753582 34:0.63619935 35:-0.5271366 36:0.93847931 37:-0.42039032 38:1.2201204 39:-0.31302715 40:0.63959391 41:1 42:0.39987461 43:0.96196056 44:0.2150452 45:0.62489031 46:0.12460356 47:-0.036073517 48:0.21534356 49:-0.65330431 50:0.30409584 51:-0.91931353 52:0.36040609 53:-1 54:0.39139611 55:-0.72745241 56:0.41795991 57:-0.31115393 58:0.42495392 59:0.036073517 60:0.44649039 61:0.39693895 62:0.50853567 63:0.82768081 64:0.53968499 65:0.99935294 66:0.15935082 67:0.99426839 68:0.0073418191 69:0.90663856 70:0.12945168 71:-0.98627582 72:0.28866826 73:-0.99992163 74:0.20177161 75:-0.65477457 76:0.18092565 77:0.017387214 78:0.21980492 79:0.70061045 80:0.96786333 81:0.99996439 82:0.96786333 83:0.53118257 84:0.94342105 85:0.9890517 86:0.90968942 87:0.97798447 88:0.95331822 89:0.90520894 90:0.17615176 91:0.11072396 92:0.36275648 93:-0.0052030933 94:0.0035298682 95:-0.0052030933 96:-0.37929115 97:0.044027898 98:0.013400833 99:0.010829296 100:0.0012023994 101:0.033065426 102:-0.017871596 103:0.025361091 104:-0.028015989 105:0.094675271 
7 7 1:0.30023641 2:0.26448363 3:0.28385417 4:1.6042594 5:0.47961196 6:1.3087647 7:0.58884916 8:1.0086635 9:0.71598474 10:0.73659557 11:0.88087717 12:0.52352964 13:0.99719931 14:0.40583072 15:0.78562701 16:0.55072132 17:0.16476498 18:0.78082998 19:-0.21490733 20:0.96810541 21:-0.5033121 22:0.98117774 23:0.52257691 24:0.81662344 25:0.28616068 26:0.55353545 27:-0.060630657 28:0.38781952 29:-0.65224191 30:0.44873969 31:-0.99719931 32:0.65864241 33:-0.9049256 34:0.93578801 35:-0.7199391 36:1.2314503 37:-0.58847174 38:1.5618589 39:-0.4818882 40:0.5010352 41:1 42:0.30044757 43:0.99326774 44:0.14025254 45:0.86041029 46:0.012430507 47:0.0082812895 48:0.16106255 49:-0.94861937 50:0.32899983 51:-0.99333845 52:0.4989648 53:-1 54:0.37405482 55:-0.90027512 56:0.29363564 57:-0.52879504 58:0.28776624 59:-0.0082812895 60:0.28055725 61:0.42790988 62:0.35370023 63:0.88589419 64:0.42649139 65:0.99991399 66:0.14032133 67:0.9264257 68:0.090543033 69:-0.19106023 70:0.16112246 71:-0.89040656 72:0.42295885 73:-0.99896197 74:0.1774786 75:-0.95892784 76:0.090543033 77:-0.19106023 78:0.14032133 79:0.9264257 80:0.99969187 81:0.98394227 82:0.99969187 83:0.81769612 84:0.92892136 85:0.98732843 86:0.9216506 87:0.99279905 88:0.97288425 89:0.97155731 90:0.11993147 91:0.10793832 92:0.25299829 93:0.026625448 94:-0.012492254 95:0.026625448 96:-0.092777607 97:0.029528202 98:0.011677566 99:0.022790482 100:0.016016981 101:0.052631457 102:0.048476773 103:-0.030859202 104:-0.030801632 105:-0.015082927 
7 0 1:0.47018425 2:0.32583793 3:0.29890881 4:1.2172921 5:0.43612374 6:0.9497739 7:0.54841642 8:0.69182909 9:0.69689743 10:0.47871719 11:0.90354599 12:0.35552552 13:0.97123749 14:0.42189215 15:0.49669292 16:0.61896612 17:0.063528664 18:0.83031959 19:-0.20612196 20:0.99207917 21:-0.46965763 22:1.0258392 23:0.52061032 24:0.86126453 25:0.28217682 26:0.66500182 27:-0.0099179051 28:0.4808922 29:-0.44929567 30:0.44462993 31:-0.92981732 32:0.5516411 33:-0.96843659 34:0.76211208 35:-0.76408391 36:1.0437899 37:-0.57828361 38:1.340788 39:-0.44987662 40:0.459493 41:1 42:0.31221869 43:0.98102862 44:0.15431393 45:0.78545171 46:0.068734087 47:-0.056107188 48:0.15767515 49:-0.77738392 50:0.34451766 51:-0.98365747 52:0.540507 53:-1 54:0.43819616 55:-0.77870373 56:0.3970288 57:-0.30956966 58:0.40295568 59:0.056107188 60:0.41245479 61:0.36268584 62:0.43456643 63:0.76553813 64:0.3995089 65:0.99843051 66:0.11207941 67:0.99651387 68:0.0085825579 69:-0.96489359 70:0.13023565 71:-0.99950655 72:0.46941437 73:-0.99778531 74:0.27212503 75:-0.37925686 76:0.27140686 77:0.11590815 78:0.29735537 79:0.53283406 80:0.99024129 81:0.99997974 82:0.99024129 83:0.59865762 84:0.90171583 85:0.97564699 86:0.90855243 87:0.98067673 88:0.91903129 89:0.90617286 90:0.12900267 91:0.12249833 92:0.35657105 93:0.017174872 94:0.0035452178 95:0.017174872 96:-0.3118161 97:0.0023226741 98:-3.869657e-06 99:0.0096923095 100:0.0038946636 101:-0.0012215023 102:-0.016907671 103:-0.021788002 104:-0.016241621 105:0.088489833 
7 7 1:0.38488271 2:0.29237288 3:0.29090909 4:1.1011703 5:0.50803408 6:0.8848511 7:0.63498382 8:0.67556602 9:0.81067923 10:0.52522573 11:0.9716676 12:0.43245607 13:0.9484015 14:0.46847905 15:0.56979522 16:0.5844503 17:0.12702423 18:0.78989562 19:-0.1751329 20:0.95539463 21:-0.42929066 22:1.0452248 23:0.56433602 24:0.87447463 25:0.29597603 26:0.70351191 27:-0.069197893 28:0.64232084 29:-0.52863574 30:0.66252942 31:-0.87622884 32:0.7495773 33:-0.99853438 34:0.84714052 35:-0.94483225 36:1.0539215 37:-0.81180439 38:1.279262 39:-0.67831962 40:0.44033791 41:1 42:0.33758434 43:0.95227702 44:0.21647434 45:0.69045457 46:0.11093042 47:-0.056929696 48:0.18604858 49:-0.70989998 50:0.36346285 51:-0.96498759 52:0.55966209 53:-1 54:0.40081777 55:-0.85278702 56:0.28748548 57:-0.45236193 58:0.27387216 59:0.056929696 60:0.30286972 61:0.57654436 62:0.38705951 63:0.85361231 64:0.3808275 65:0.99967313 66:0.16055333 67:0.88798622 68:0.070994132 69:0.0024739704 70:0.15770514 71:-0.90179603 72:0.49688528 73:-0.99979167 74:0.1990374 75:-0.63503831 76:0.15175828 77:0.10541196 78:0.21504779 79:0.81388191 80:0.97593285 81:0.99041261 82:0.97593285 83:0.83404648 84:0.88914421 85:0.99188752 86:0.90554865 87:0.99446689 88:0.95692884 89:0.95674005 90:0.11426079 91:0.11426079 92:0.30745748 93:0.0028664311 94:-0.0060219164 95:0.0028664311 96:-0.076427244 97:-0.010248948 98:0.016236655 99:0.0066885344 100:0.017684818 101:0.036676041 102:0.033659514 103:-0.036529876 104:-0.024479159 105:0.039376265 
7 7 1:0.21540966 2:0.28457447 3:0.23787879 4:1.5829816 5:0.61603247 6:1.3060325 7:0.74256767 8:1.071014 9:0.88732374 10:0.88972118 11:0.99195431 12:0.75045146 13:0.96013911 14:0.66299809 15:0.70024518 16:0.71765078 17:0.21812454 18:0.8785488 19:-0.22127687 20:1.0482266 21:-0.52666548 22:0.99732115 23:0.44913842 24:0.81823101 25:0.17504778 26:0.56659659 27:-0.11186651 28:0.37845677 29:-0.57856034 30:0.36686014 31:-0.99848785 32:0.51136085 33:-0.83250404 34:0.74273358 35:-0.622485 36:0.98646346 37:-0.48551303 38:1.2392493 39:-0.39068347 40:0.62953533 41:1 42:0.37171404 43:0.99751215 44:0.14274867 45:0.94443797 46:0.02059181 47:-0.20198712 48:0.1409163 49:-0.89892128 50:0.25527399 51:-0.98528766 52:0.37046467 53:-1 54:0.25878508 55:-0.88974758 56:0.20008703 57:-0.49526877 58:0.19947441 59:0.20198712 60:0.26211609 61:0.71689976 62:0.41386125 63:0.9539382 64:0.53949418 65:0.99880733 66:0.14358038 67:0.96381049 68:0.042538087 69:0.11508415 70:0.11475056 71:-0.97357793 72:0.31382958 73:-0.99904401 74:0.11778315 75:-0.89842494 76:0.073923673 77:0.3000633 78:0.17940019 79:0.94649556 80:0.99921524 81:0.99636496 82:0.99921524 83:0.92030144 84:0.91813118 85:0.98494424 86:0.92171039 87:0.99186776 88:0.97601093 89:0.94153069 90:0.12817125 91:0.11205074 92:0.21696617 93:0.026148821 94:-6.9560148e-05 95:0.026148821 96:0.0098277197 97:0.018738024 98:0.0092933752 99:0.022850272 100:0.015085689 101:0.055758136 102:0.01845016 103:-0.022619423 104:-0.026689213 105:-0.051115041 
0 7 1:0.35698864 2:0.27343366 3:0.27884972 4:1.9237647 5:0.66493746 6:1.5764746 7:0.75749435 8:1.2857674 9:0.87226431 10:1.0807633 11:0.97602951 12:0.91363539 13:0.99325631 14:0.75453113 15:0.86870109 16:0.66166827 17:0.48194861 18:0.77555142 19:-0.052804009 20:0.98007674 21:-0.43797813 22:1.0497838 23:0.54368129 24:0.88109138 25:0.17595195 26:0.73638958 27:-0.32028362 28:0.73592122 29:-0.78386288 30:0.83255729 31:-0.98463486 32:0.99624664 33:-0.96884918 34:1.2492479 35:-0.8397222 36:1.5850396 37:-0.70514961 38:1.9622762 39:-0.59501617 40:0.49133731 41:1 42:0.33488114 43:0.87797531 44:0.28053631 45:0.44150526 46:0.21447905 47:0.0045258841 48:0.28285769 49:-0.43804081 50:0.35983289 51:-0.89032692 52:0.50866269 53:-1 54:0.33544336 55:-0.94864857 56:0.19629811 57:-0.67403528 58:0.1425469 59:-0.0045258841 60:0.18029909 61:0.68758788 62:0.30619666 63:0.96160208 64:0.39399983 65:0.9983936 66:0.15673652 67:0.75155565 68:0.098842288 69:0.023773704 70:0.15861541 71:-0.77628842 72:0.41114469 73:-0.99847409 74:0.12936368 75:-0.90368949 76:0.054892876 77:0.15624179 78:0.14142747 79:0.89804075 80:0.90351691 81:0.98036931 82:0.90351691 83:0.9584011 84:0.92092993 85:0.97943933 86:0.92885324 87:0.98217532 88:0.94343867 89:0.94291408 90:0.1918929 91:0.14427385 92:0.28997797 93:-0.069549516 94:-0.016065211 95:-0.069549516 96:0.047927374 97:0.021536779 98:0.0037884678 99:0.029993119 100:0.005393248 101:0.023185869 102:0.019833552 103:0.041102229 104:0.0055338989 105:0.021896756 
0 7 1:0.38271605 2:0.37209302 3:0.34883721 4:1.54939 5:0.53088235 6:1.2470834 7:0.64259607 8:0.97062727 9:0.7663012 10:0.71753152 11:0.90519361 12:0.51850744 13:0.99999961 14:0.43948318 15:0.77082855 16:0.54220222 17:0.18064043 18:0.73099167 19:-0.22671577 20:0.90803303 21:-0.53747235 22:0.92110732 23:0.55580641 24:0.73067903 25:0.24640874 26:0.53012809 27:-0.23360116 28:0.4665506 29:-0.80838298 30:0.58007012 31:-0.99969531 32:0.79084634 33:-0.9108408 34:1.0467372 35:-0.77461173 36:1.3283481 37:-0.65041355 38:1.6158016 39:-0.54469672 40:0.50338241 41:1 42:0.34157034 43:0.97337517 44:0.19892145 45:0.74714074 46:0.086521894 47:-0.0075604683 48:0.19403618 49:-0.69654685 50:0.32004225 51:-0.96678708 52:0.49661759 53:-1 54:0.36863634 55:-0.85752513 56:0.31579696 57:-0.46078102 58:0.29627656 59:0.0075604683 60:0.32027806 61:0.50969874 62:0.38954165 63:0.86797404 64:0.41683562 65:0.99970023 66:0.15765537 67:0.99970824 68:0.024758002 69:-0.1371661 70:0.1390919 71:-0.99798074 72:0.39849099 73:-0.99931237 74:0.14339114 75:-0.97230786 76:0.050201369 77:0.16598963 78:0.16192572 79:0.96769947 80:0.98495 81:0.99877993 82:0.98495 83:0.80550234 84:0.87263549 85:0.9725825 86:0.87263549 87:0.9725825 88:0.9588883 89:0.94280904 90:0.11363636 91:0.11931818 92:0.29545455 93:0.01188358 94:0.0023454051 95:0.01188358 96:-0.10497139 97:-0.026757664 98:-0.0030683677 99:-0.02622463 100:-0.0041995744 101:0.038635499 102:0.019728509 103:-0.037154306 104:-0.019421771 105:0.027373331 
0 7 1:0.56029443 2:0.34834537 3:0.34227252 4:1.4587088 5:0.64503712 6:1.1939972 7:0.76809322 8:0.96435925 9:0.90182719 10:0.80292303 11:0.99353276 12:0.69719341 13:0.94861881 14:0.66137412 15:0.67887259 16:0.71266236 17:0.22936622 18:0.86095061 19:-0.19951816 20:1.0375641 21:-0.52270222 22:0.99592428 23:0.45953586 24:0.82759296 25:0.13172083 26:0.64052296 27:-0.24256864 28:0.5030469 29:-0.70724078 30:0.47991104 31:-0.9954092 32:0.60079535 33:-0.88740045 34:0.81734016 35:-0.69086799 36:1.0527279 37:-0.53999892 38:1.3121943 39:-0.42359785 40:0.55727579 41:1 42:0.40277222 43:0.89619186 44:0.305136 45:0.43125163 46:0.24557617 47:-0.0050536817 48:0.30512273 49:-0.44816944 50:0.35831732 51:-0.87438833 52:0.44272421 53:-1 54:0.38463324 55:-0.82806023 56:0.33400675 57:-0.44964625 58:0.31470065 59:0.0050536817 60:0.33134559 61:0.43789934 62:0.42301865 63:0.87231646 64:0.45332331 65:0.99999432 66:0.15944037 67:0.86154892 68:0.081408066 69:0.038306852 70:0.15729557 71:-0.85493204 72:0.34531508 73:-0.99998089 74:0.14239297 75:-0.97849602 76:0.039560588 77:0.05269838 78:0.142343 79:0.97797839 80:0.8704992 81:0.98651944 82:0.8704992 83:0.777875 84:0.89539998 85:0.97338095 86:0.8877952 87:0.97261582 88:0.92110356 89:0.92141399 90:0.15510267 91:0.090200111 92:0.34493128 93:-0.10256722 94:-0.0099150864 95:-0.10256722 96:-0.13259872 97:-0.0039931774 98:-0.0022699171 99:-0.011064919 100:-0.0041662541 101:0.0008507682 102:-0.0016665436 103:0.0043120041 104:-0.048539842 105:0.076850062 
0 7 1:0.50997151 2:0.2019802 3:0.21663443 4:1.6219927 5:0.49613894 6:1.3156043 7:0.61798045 8:1.016433 9:0.77193024 10:0.77306736 11:0.93992744 12:0.61870406 13:0.98507104 14:0.6089157 15:0.67634045 16:0.75592034 17:0.19882499 18:1.0020007 19:-0.11574476 20:1.1834467 21:-0.37999525 22:1.2252093 23:0.44914436 24:1.079203 25:0.16777667 26:0.90217963 27:-0.18626816 28:0.80970445 29:-0.60070132 30:0.83095549 31:-0.9242942 32:0.9655891 33:-0.99641781 34:1.196452 35:-0.90504274 36:1.485233 37:-0.76652048 38:1.8075349 39:-0.64359122 40:0.4486882 41:1 42:0.36613543 43:0.87639034 44:0.28384532 45:0.52591995 46:0.19408754 47:0.0069603882 48:0.29765504 49:-0.59581487 50:0.44048644 51:-0.91039337 52:0.5513118 53:-1 54:0.4460656 55:-0.9016597 56:0.34654964 57:-0.54248559 58:0.31598399 59:-0.0069603882 60:0.33051865 61:0.50536149 62:0.37812166 63:0.86738789 64:0.3622996 65:0.99999467 66:0.18987495 67:0.82359737 68:0.097211604 69:-0.059145893 70:0.2077083 71:-0.86522378 72:0.46622637 73:-0.99973902 74:0.19905385 75:-0.8731155 76:0.1136175 77:0.011890111 78:0.18170794 79:0.88666593 80:0.92268065 81:0.98142761 82:0.92268065 83:0.77302302 84:0.95907023 85:0.99006733 86:0.95580423 87:0.99473151 88:0.94622871 89:0.95482206 90:0.10727543 91:0.10579065 92:0.30512249 93:-0.050385767 94:-0.015006914 95:-0.050385767 96:-0.1374507 97:0.059677075 98:0.014416462 99:0.05694411 100:0.017949439 101:0.025975914 102:0.031741523 103:-0.043515243 104:-0.032949307 105:0.03704128 
7 7 1:0.19224283 2:0.23461538 3:0.23643411 4:1.0787245 5:0.59281251 6:0.85782627 7:0.73811516 8:0.68474385 9:0.9008275 10:0.59234589 11:0.99955758 12:0.55221161 13:0.9151125 14:0.50243022 15:0.64000458 16:0.50648579 17:0.15981612 18:0.62337837 19:-0.26943958 20:0.78344254 21:-0.57438347 22:0.84486054 23:0.65099922 24:0.67607023 25:0.36973675 26:0.54603925 27:-0.081115923 28:0.55786227 29:-0.61856818 30:0.64478009 31:-0.90145292 32:0.70264824 33:-0.99887158 34:0.78232933 35:-0.94957542 36:0.93213876 37:-0.8320043 38:1.1400576 39:-0.71177029 40:0.49463224 41:1 42:0.32152317 43:0.92339469 44:0.23330377 45:0.48098734 46:0.17711132 47:-0.024953042 48:0.23941826 49:-0.50319898 50:0.33454047 51:-0.92198571 52:0.50536776 53:-1 54:0.30514691 55:-0.9989719 56:0.12183167 57:-0.99336909 58:0.01523997 59:0.024953042 60:0.12236822 61:0.99564712 62:0.29902106 63:0.9997672 64:0.41079021 65:0.99923848 66:0.14408958 67:0.81707826 68:0.079208021 69:-0.0044248547 70:0.14831544 71:-0.80908752 72:0.42789254 73:-0.9994343 74:0.15302034 75:-0.80602607 76:0.089532836 77:-0.05927014 78:0.1509058 79:0.75884205 80:0.93519562 81:0.98735641 82:0.93519562 83:0.99953921 84:0.90787971 85:0.99810471 86:0.91685307 87:0.9978268 88:0.92611329 89:0.9323572 90:0.19962157 91:0.17029328 92:0.2781457 93:-0.037870797 94:-0.0090781189 95:-0.037870797 96:0.089065483 97:0.0084865526 98:0.022453849 99:0.017992951 100:0.021044725 101:0.0058604935 102:0.0092766633 103:0.0488309 104:0.03155333 105:0.010064481 
0 7 1:0.3462585 2:0.40294511 3:0.40258065 4:1.689857 5:0.45249317 6:1.3924134 7:0.55217597 8:1.0583495 9:0.68945656 10:0.76716359 11:0.8570458 12:0.51175879 13:0.99947946 14:0.3994979 15:0.71796175 16:0.55427355 17:0.084688793 18:0.80162509 19:-0.29763108 20:0.9902405 21:-0.5443217 22:0.95003024 23:0.48523783 24:0.79656108 25:0.17638138 26:0.62457496 27:-0.34053589 28:0.64897758 29:-0.81309259 30:0.77680856 31:-0.99601526 32:0.9618828 33:-0.96221936 34:1.1930792 35:-0.853905 36:1.4683452 37:-0.71565292 38:1.7684879 39:-0.59218076 40:0.46211413 41:1 42:0.30241835 43:0.96499594 44:0.18029424 45:0.74420724 46:0.067340686 47:-0.012159999 48:0.20060008 49:-0.77709456 50:0.35368006 51:-0.97346658 52:0.53788587 53:-1 54:0.40100259 55:-0.90460335 56:0.30729626 57:-0.56838157 58:0.27875159 59:0.012159999 60:0.29004458 61:0.52957392 62:0.32756665 63:0.90474622 64:0.38837521 65:0.99981621 66:0.1335486 67:0.98288348 68:0.05990083 69:-0.019074728 70:0.17734413 71:-0.99582604 72:0.46678038 73:-0.9997537 74:0.16548259 75:-0.97526043 76:0.05990083 77:-0.019074728 78:0.153234 79:0.95591057 80:0.99134367 81:0.99239064 82:0.99134367 83:0.82766362 84:0.86563861 85:0.96274386 86:0.85651084 87:0.95731936 88:0.9660308 89:0.9493816 90:0.1090134 91:0.11236297 92:0.26735688 93:0.01827725 94:-0.0040438818 95:0.01827725 96:-0.082810102 97:-0.033754541 98:-0.012907008 99:-0.042349278 100:-0.019462712 101:0.045778002 102:0.026301071 103:-0.041777272 104:-0.026376981 105:-0.0007243322 
0 7 1:0.28813559 2:0.33333333 3:0.31034483 4:1.4715373 5:0.46878418 6:1.1800807 7:0.56047141 8:0.87485126 9:0.68510866 10:0.6222008 11:0.86314205 12:0.47481064 13:0.99982419 14:0.4553593 15:0.71898838 16:0.56841022 17:0.19553312 18:0.76109447 19:-0.1837645 20:0.94172535 21:-0.48916045 22:0.98261745 23:0.54888625 24:0.81801935 25:0.24435256 26:0.65809151 27:-0.18939769 28:0.59915698 29:-0.6950221 30:0.63815141 31:-0.97927889 32:0.77752017 33:-0.96368177 34:0.99683589 35:-0.82570279 36:1.272246 37:-0.67856132 38:1.565165 39:-0.56624845 40:0.44521912 41:1 42:0.30264362 43:0.96246736 44:0.17765585 45:0.68098056 46:0.077322019 47:0.041796114 48:0.18319681 49:-0.72700008 50:0.34318703 51:-0.97804961 52:0.55478088 53:-1 54:0.37330897 55:-0.93528941 56:0.24396337 57:-0.593006 58:0.2112702 59:-0.041796114 60:0.2297614 61:0.55029616 62:0.31867611 63:0.92486036 64:0.36050056 65:0.99999207 66:0.12339841 67:0.99902183 68:0.041686455 69:0.12575065 70:0.14999304 71:-0.98366999 72:0.47002817 73:-0.99945553 74:0.14999304 75:-0.98366999 76:0.043255733 77:-0.27053491 78:0.125579 79:0.98396148 80:0.98829693 81:0.99640261 82:0.98829693 83:0.9057891 84:0.92888416 85:0.95509607 86:0.91037095 87:0.97043085 88:0.96209139 89:0.94518663 90:0.13793103 91:0.12068966 92:0.26724138 93:0.01523051 94:-3.1917093e-05 95:0.01523051 96:-0.0046846253 97:0.029491009 98:-0.020554793 99:0.01151083 100:-0.0063512236 101:0.041838589 102:0.022106094 103:-0.012859636 104:-0.018050298 105:-0.0008398348 
0 7 1:0.46145309 2:0.33973035 3:0.35296999 4:1.7192247 5:0.60734433 6:1.3846953 7:0.71313338 8:1.0713595 9:0.84657684 10:0.84365941 11:0.97331916 12:0.72633128 13:0.97203899 14:0.69079805 15:0.72022928 16:0.73896449 17:0.28156891 18:0.87537453 19:-0.13835379 20:1.0318272 21:-0.45688664 22:1.0591559 23:0.49905016 24:0.87391423 25:0.20024949 26:0.69261927 27:-0.21108493 28:0.59015852 29:-0.69872682 30:0.61376017 31:-0.98714757 32:0.76511492 33:-0.94339324 34:1.0222017 35:-0.78414439 36:1.3481638 37:-0.65809289 38:1.6787214 39:-0.55127048 40:0.49840837 41:1 42:0.37683636 43:0.84837412 44:0.33003163 45:0.38457165 46:0.27227664 47:-0.014777831 48:0.33281292 49:-0.40091119 50:0.37011844 51:-0.84703509 52:0.50159163 53:-1 54:0.34009493 55:-0.91049301 56:0.22756022 57:-0.61079366 58:0.18947375 59:0.014777831 60:0.22741808 61:0.63826171 62:0.35720074 63:0.92234219 64:0.38659676 65:0.99929762 66:0.17251592 67:0.74402134 68:0.11284315 69:-0.069148382 70:0.18373424 71:-0.74981985 72:0.38910104 73:-0.9992485 74:0.13525687 75:-0.94456962 76:0.035481683 77:0.062148322 78:0.13786154 79:0.96074457 80:0.83887906 81:0.97442876 82:0.83887906 83:0.92556516 84:0.8792419 85:0.97706885 86:0.87734889 87:0.97178101 88:0.93090652 89:0.92640989 90:0.17378205 91:0.1374469 92:0.32535928 93:-0.13418736 94:-0.022005762 95:-0.13418736 96:0.015091437 97:-0.020151251 98:0.0014179877 99:-0.021511234 100:-0.0050010633 101:0.010653727 102:0.0033293577 103:0.022991379 104:-0.0012930547 105:0.05727807 
